<?xml version="1.0"?>
<opencv_storage>
<stage7>
  <maxWeakCount>100</maxWeakCount>
  <stageThreshold>-9.6257829666137695e-001</stageThreshold>
  <weakClassifiers>
    <_>
      <internalNodes>
        0 -1 163639 1.9677244126796722e-001</internalNodes>
      <leafValues>
        1.0130589455366135e-001 5.4865956306457520e-001</leafValues></_>
    <_>
      <internalNodes>
        0 -1 5837 1.9679495692253113e-001</internalNodes>
      <leafValues>
        -8.4591656923294067e-002 2.3162335157394409e-001</leafValues></_>
    <_>
      <internalNodes>
        0 -1 16744 -1.4114217832684517e-002</internalNodes>
      <leafValues>
        3.1356835365295410e-001 -7.6448149979114532e-002</leafValues></_>
    <_>
      <internalNodes>
        0 -1 148 3.3631473779678345e-002</internalNodes>
      <leafValues>
        3.7260476499795914e-002 -4.9676486849784851e-001</leafValues></_>
    <_>
      <internalNodes>
        0 -1 76279 4.4699329137802124e-001</internalNodes>
      <leafValues>
        -6.8354621529579163e-002 3.7238395214080811e-001</leafValues></_>
    <_>
      <internalNodes>
        0 -1 219691 -2.8997812420129776e-002</internalNodes>
      <leafValues>
        1.9298855960369110e-001 -1.6136787831783295e-001</leafValues></_>
    <_>
      <internalNodes>
        0 -1 207503 -3.2390937209129333e-002</internalNodes>
      <leafValues>
        4.0246927738189697e-001 -2.1234326064586639e-002</leafValues></_>
    <_>
      <internalNodes>
        0 -1 215157 -1.9878214225172997e-002</internalNodes>
      <leafValues>
        3.6256217956542969e-001 -6.6737279295921326e-002</leafValues></_>
    <_>
      <internalNodes>
        0 -1 231821 1.0123312473297119e-002</internalNodes>
      <leafValues>
        -9.4454772770404816e-002 2.3965820670127869e-001</leafValues></_>
    <_>
      <internalNodes>
        0 -1 348127 -1.1363778263330460e-002</internalNodes>
      <leafValues>
        2.9017621278762817e-001 -8.1664219498634338e-002</leafValues></_>
    <_>
      <internalNodes>
        0 -1 377242 7.2718434967100620e-004</internalNodes>
      <leafValues>
        -8.1115588545799255e-002 2.1231266856193542e-001</leafValues></_>
    <_>
      <internalNodes>
        0 -1 302516 1.1837182100862265e-003</internalNodes>
      <leafValues>
        -7.9290322959423065e-002 2.1729867160320282e-001</leafValues></_>
    <_>
      <internalNodes>
        0 -1 302530 5.1885470747947693e-003</internalNodes>
      <leafValues>
        -7.7326864004135132e-002 2.5146710872650146e-001</leafValues></_>
    <_>
      <internalNodes>
        0 -1 16800 -2.6379408314824104e-002</internalNodes>
      <leafValues>
        3.2956510782241821e-001 -4.9677859991788864e-002</leafValues></_>
    <_>
      <internalNodes>
        0 -1 92405 8.1275906413793564e-003</internalNodes>
      <leafValues>
        -6.3886567950248718e-002 2.6090869307518005e-001</leafValues></_>
    <_>
      <internalNodes>
        0 -1 337099 -1.0599137749522924e-003</internalNodes>
      <leafValues>
        1.7417943477630615e-001 -1.0101217031478882e-001</leafValues></_>
    <_>
      <internalNodes>
        0 -1 263871 2.4600788950920105e-002</internalNodes>
      <leafValues>
        2.3166185244917870e-002 -6.5121442079544067e-001</leafValues></_>
    <_>
      <internalNodes>
        0 -1 93818 9.5394067466259003e-003</internalNodes>
      <leafValues>
        -5.2490226924419403e-002 2.9354256391525269e-001</leafValues></_>
    <_>
      <internalNodes>
        0 -1 51487 2.5764785706996918e-002</internalNodes>
      <leafValues>
        5.7042747735977173e-002 -2.6178088784217834e-001</leafValues></_>
    <_>
      <internalNodes>
        0 -1 62365 -5.3917828947305679e-002</internalNodes>
      <leafValues>
        -4.1653886437416077e-001 3.3389519900083542e-002</leafValues></_>
    <_>
      <internalNodes>
        0 -1 50252 -4.5457221567630768e-003</internalNodes>
      <leafValues>
        -2.0101977884769440e-001 6.8013407289981842e-002</leafValues></_>
    <_>
      <internalNodes>
        0 -1 337927 5.6572398170828819e-004</internalNodes>
      <leafValues>
        -9.2572599649429321e-002 1.4645162224769592e-001</leafValues></_>
    <_>
      <internalNodes>
        0 -1 347652 6.1263923998922110e-004</internalNodes>
      <leafValues>
        -8.4415353834629059e-002 1.6407880187034607e-001</leafValues></_>
    <_>
      <internalNodes>
        0 -1 347112 7.1624037809669971e-003</internalNodes>
      <leafValues>
        -5.9305358678102493e-002 2.5318831205368042e-001</leafValues></_>
    <_>
      <internalNodes>
        0 -1 347822 6.2760179862380028e-003</internalNodes>
      <leafValues>
        -1.5432976186275482e-001 9.3395605683326721e-002</leafValues></_>
    <_>
      <internalNodes>
        0 -1 199030 7.4496507644653320e-002</internalNodes>
      <leafValues>
        -5.3314205259084702e-002 2.6191431283950806e-001</leafValues></_>
    <_>
      <internalNodes>
        0 -1 247888 6.7982696928083897e-003</internalNodes>
      <leafValues>
        -6.9639086723327637e-002 1.9752077758312225e-001</leafValues></_>
    <_>
      <internalNodes>
        0 -1 263568 -1.3188662705942988e-004</internalNodes>
      <leafValues>
        1.4457945525646210e-001 -1.1966448277235031e-001</leafValues></_>
    <_>
      <internalNodes>
        0 -1 16249 1.5161871910095215e-001</internalNodes>
      <leafValues>
        -5.9988468885421753e-002 2.4602614343166351e-001</leafValues></_>
    <_>
      <internalNodes>
        0 -1 197302 8.9140580967068672e-003</internalNodes>
      <leafValues>
        -3.5898949950933456e-002 3.6612698435783386e-001</leafValues></_>
    <_>
      <internalNodes>
        0 -1 245725 -2.5214362889528275e-002</internalNodes>
      <leafValues>
        -3.9851287007331848e-001 3.6324210464954376e-002</leafValues></_>
    <_>
      <internalNodes>
        0 -1 260246 2.2813262417912483e-002</internalNodes>
      <leafValues>
        6.2374796718358994e-002 -2.1874822676181793e-001</leafValues></_>
    <_>
      <internalNodes>
        0 -1 334792 -8.2571031525731087e-003</internalNodes>
      <leafValues>
        1.7394034564495087e-001 -8.4950000047683716e-002</leafValues></_>
    <_>
      <internalNodes>
        0 -1 259965 -1.9099600613117218e-002</internalNodes>
      <leafValues>
        4.0184643864631653e-001 -3.4056760370731354e-002</leafValues></_>
    <_>
      <internalNodes>
        0 -1 243304 -8.5023473948240280e-003</internalNodes>
      <leafValues>
        2.2331991791725159e-001 -6.8688727915287018e-002</leafValues></_>
    <_>
      <internalNodes>
        0 -1 174061 7.7436231076717377e-003</internalNodes>
      <leafValues>
        2.6552017778158188e-002 -5.7112509012222290e-001</leafValues></_>
    <_>
      <internalNodes>
        0 -1 262724 5.3339980542659760e-002</internalNodes>
      <leafValues>
        1.8910309299826622e-002 -6.1092978715896606e-001</leafValues></_>
    <_>
      <internalNodes>
        0 -1 347676 1.0894470848143101e-002</internalNodes>
      <leafValues>
        1.6983453184366226e-002 -6.7904996871948242e-001</leafValues></_>
    <_>
      <internalNodes>
        0 -1 119712 9.1914099175482988e-004</internalNodes>
      <leafValues>
        3.1241085380315781e-002 -3.8167113065719604e-001</leafValues></_>
    <_>
      <internalNodes>
        0 -1 217433 2.0365108503028750e-004</internalNodes>
      <leafValues>
        -8.9914210140705109e-002 1.4183510839939117e-001</leafValues></_>
    <_>
      <internalNodes>
        0 -1 217134 -3.8908387068659067e-003</internalNodes>
      <leafValues>
        2.0082299411296844e-001 -7.5206689536571503e-002</leafValues></_>
    <_>
      <internalNodes>
        0 -1 264153 -8.3857318386435509e-003</internalNodes>
      <leafValues>
        2.0230083167552948e-001 -7.7960774302482605e-002</leafValues></_>
    <_>
      <internalNodes>
        0 -1 134076 2.0869860891252756e-003</internalNodes>
      <leafValues>
        -6.7062661051750183e-002 2.0015004277229309e-001</leafValues></_>
    <_>
      <internalNodes>
        0 -1 148008 1.2787519022822380e-002</internalNodes>
      <leafValues>
        2.1137919276952744e-002 -6.4359480142593384e-001</leafValues></_>
    <_>
      <internalNodes>
        0 -1 293867 6.6559121478348970e-004</internalNodes>
      <leafValues>
        -9.2846199870109558e-002 1.4938315749168396e-001</leafValues></_>
    <_>
      <internalNodes>
        0 -1 279406 -2.2655143402516842e-003</internalNodes>
      <leafValues>
        2.1094703674316406e-001 -7.8010253608226776e-002</leafValues></_>
    <_>
      <internalNodes>
        0 -1 50424 -1.5835356898605824e-003</internalNodes>
      <leafValues>
        -4.4403061270713806e-001 2.9135169461369514e-002</leafValues></_>
    <_>
      <internalNodes>
        0 -1 134016 -1.6835606656968594e-003</internalNodes>
      <leafValues>
        1.9716635346412659e-001 -6.4798973500728607e-002</leafValues></_>
    <_>
      <internalNodes>
        0 -1 317182 1.8705379217863083e-002</internalNodes>
      <leafValues>
        -7.6119951903820038e-002 1.5294413268566132e-001</leafValues></_>
    <_>
      <internalNodes>
        0 -1 385532 1.6683962894603610e-004</internalNodes>
      <leafValues>
        -1.1177825182676315e-001 1.1680771410465240e-001</leafValues></_>
    <_>
      <internalNodes>
        0 -1 226996 4.9132853746414185e-002</internalNodes>
      <leafValues>
        2.4813238531351089e-002 -5.2578216791152954e-001</leafValues></_>
    <_>
      <internalNodes>
        0 -1 279932 -1.0483372956514359e-002</internalNodes>
      <leafValues>
        -5.5451303720474243e-001 1.9842386245727539e-002</leafValues></_>
    <_>
      <internalNodes>
        0 -1 114383 -4.1606448590755463e-002</internalNodes>
      <leafValues>
        -4.1115343570709229e-001 2.7316533029079437e-002</leafValues></_>
    <_>
      <internalNodes>
        0 -1 19533 -1.2524998746812344e-003</internalNodes>
      <leafValues>
        -3.3559349179267883e-001 3.5097230225801468e-002</leafValues></_>
    <_>
      <internalNodes>
        0 -1 306955 2.2403342882171273e-004</internalNodes>
      <leafValues>
        -8.5173927247524261e-002 1.4570423960685730e-001</leafValues></_>
    <_>
      <internalNodes>
        0 -1 335652 8.2592051476240158e-003</internalNodes>
      <leafValues>
        2.7881713584065437e-002 -4.3732976913452148e-001</leafValues></_>
    <_>
      <internalNodes>
        0 -1 394411 3.1843623146414757e-003</internalNodes>
      <leafValues>
        4.8279218375682831e-002 -2.2328291833400726e-001</leafValues></_>
    <_>
      <internalNodes>
        0 -1 141731 2.6681890711188316e-002</internalNodes>
      <leafValues>
        -4.0617920458316803e-002 3.0561196804046631e-001</leafValues></_>
    <_>
      <internalNodes>
        0 -1 8197 -1.0259253904223442e-002</internalNodes>
      <leafValues>
        1.0873160511255264e-001 -1.0331682860851288e-001</leafValues></_>
    <_>
      <internalNodes>
        0 -1 176158 -5.0457485020160675e-002</internalNodes>
      <leafValues>
        1.0551917552947998e-001 -1.1707602441310883e-001</leafValues></_>
    <_>
      <internalNodes>
        0 -1 187329 -5.6468065828084946e-002</internalNodes>
      <leafValues>
        4.2974847555160522e-001 -3.0813988298177719e-002</leafValues></_>
    <_>
      <internalNodes>
        0 -1 176443 -1.3197419233620167e-002</internalNodes>
      <leafValues>
        3.0878973007202148e-001 -3.4279894083738327e-002</leafValues></_>
    <_>
      <internalNodes>
        0 -1 135964 1.2391077354550362e-002</internalNodes>
      <leafValues>
        -7.6489567756652832e-002 1.6139052808284760e-001</leafValues></_>
    <_>
      <internalNodes>
        0 -1 284069 1.4476832747459412e-001</internalNodes>
      <leafValues>
        -3.0611703172326088e-002 3.6553639173507690e-001</leafValues></_>
    <_>
      <internalNodes>
        0 -1 287768 -4.5775207690894604e-003</internalNodes>
      <leafValues>
        8.5510477423667908e-002 -1.5382364392280579e-001</leafValues></_>
    <_>
      <internalNodes>
        0 -1 327312 2.3016918567009270e-004</internalNodes>
      <leafValues>
        -8.3689630031585693e-002 1.4600475132465363e-001</leafValues></_>
    <_>
      <internalNodes>
        0 -1 262690 7.5330697000026703e-003</internalNodes>
      <leafValues>
        -6.1433237046003342e-002 2.3104035854339600e-001</leafValues></_>
    <_>
      <internalNodes>
        0 -1 291520 5.2174716256558895e-004</internalNodes>
      <leafValues>
        -7.6531991362571716e-002 1.5318654477596283e-001</leafValues></_>
    <_>
      <internalNodes>
        0 -1 304529 -5.1152484957128763e-004</internalNodes>
      <leafValues>
        1.5595309436321259e-001 -8.3973743021488190e-002</leafValues></_>
    <_>
      <internalNodes>
        0 -1 15822 4.3474931269884109e-002</internalNodes>
      <leafValues>
        -4.0803615003824234e-002 2.8015446662902832e-001</leafValues></_>
    <_>
      <internalNodes>
        0 -1 132110 -1.8696735787671059e-004</internalNodes>
      <leafValues>
        1.3786116242408752e-001 -8.4056682884693146e-002</leafValues></_>
    <_>
      <internalNodes>
        0 -1 357313 2.3456227499991655e-003</internalNodes>
      <leafValues>
        1.7889261245727539e-002 -6.5863341093063354e-001</leafValues></_>
    <_>
      <internalNodes>
        0 -1 339732 8.2459603436291218e-004</internalNodes>
      <leafValues>
        -8.1457890570163727e-002 1.4039911329746246e-001</leafValues></_>
    <_>
      <internalNodes>
        0 -1 357234 1.3966138940304518e-003</internalNodes>
      <leafValues>
        -9.4928361475467682e-002 1.6375261545181274e-001</leafValues></_>
    <_>
      <internalNodes>
        0 -1 348412 -8.8287517428398132e-003</internalNodes>
      <leafValues>
        1.8485796451568604e-001 -6.6744595766067505e-002</leafValues></_>
    <_>
      <internalNodes>
        0 -1 394032 2.8746454045176506e-003</internalNodes>
      <leafValues>
        3.1076278537511826e-002 -3.7372896075248718e-001</leafValues></_>
    <_>
      <internalNodes>
        0 -1 98029 1.2787105515599251e-003</internalNodes>
      <leafValues>
        2.1060595288872719e-002 -4.8418691754341125e-001</leafValues></_>
    <_>
      <internalNodes>
        0 -1 368646 2.8569489950314164e-004</internalNodes>
      <leafValues>
        -9.6185445785522461e-002 1.2378257513046265e-001</leafValues></_>
    <_>
      <internalNodes>
        0 -1 326135 3.7196525372564793e-003</internalNodes>
      <leafValues>
        -9.7184099256992340e-002 1.1621844023466110e-001</leafValues></_>
    <_>
      <internalNodes>
        0 -1 362909 5.3470261627808213e-004</internalNodes>
      <leafValues>
        -7.4810594320297241e-002 1.6220946609973907e-001</leafValues></_>
    <_>
      <internalNodes>
        0 -1 260397 5.3505159914493561e-002</internalNodes>
      <leafValues>
        5.3744591772556305e-002 -2.1731752157211304e-001</leafValues></_>
    <_>
      <internalNodes>
        0 -1 219830 1.9304928183555603e-001</internalNodes>
      <leafValues>
        -4.6609692275524139e-002 2.3906782269477844e-001</leafValues></_>
    <_>
      <internalNodes>
        0 -1 339944 1.4463284984230995e-002</internalNodes>
      <leafValues>
        -6.4401395618915558e-002 2.0046620070934296e-001</leafValues></_>
    <_>
      <internalNodes>
        0 -1 304930 6.7982380278408527e-004</internalNodes>
      <leafValues>
        -7.6946936547756195e-002 1.4812442660331726e-001</leafValues></_>
    <_>
      <internalNodes>
        0 -1 346607 6.4572850242257118e-003</internalNodes>
      <leafValues>
        2.0496759563684464e-002 -6.1284273862838745e-001</leafValues></_>
    <_>
      <internalNodes>
        0 -1 246761 4.0482426993548870e-003</internalNodes>
      <leafValues>
        -8.4263511002063751e-002 1.4162537455558777e-001</leafValues></_>
    <_>
      <internalNodes>
        0 -1 291956 8.5835088975727558e-004</internalNodes>
      <leafValues>
        -6.4531557261943817e-002 1.7183716595172882e-001</leafValues></_>
    <_>
      <internalNodes>
        0 -1 98374 3.5569358617067337e-002</internalNodes>
      <leafValues>
        -7.3480315506458282e-002 1.4636926352977753e-001</leafValues></_>
    <_>
      <internalNodes>
        0 -1 110497 6.0712387785315514e-003</internalNodes>
      <leafValues>
        -7.0148967206478119e-002 1.5608423948287964e-001</leafValues></_>
    <_>
      <internalNodes>
        0 -1 340846 4.6172975562512875e-003</internalNodes>
      <leafValues>
        2.5521732866764069e-002 -4.2769819498062134e-001</leafValues></_>
    <_>
      <internalNodes>
        0 -1 197572 -3.3222254365682602e-002</internalNodes>
      <leafValues>
        3.4525269269943237e-001 -3.1935624778270721e-002</leafValues></_>
    <_>
      <internalNodes>
        0 -1 377557 2.6378588518127799e-004</internalNodes>
      <leafValues>
        -8.2613326609134674e-002 1.3930353522300720e-001</leafValues></_>
    <_>
      <internalNodes>
        0 -1 381959 2.3559241089969873e-003</internalNodes>
      <leafValues>
        1.7547897994518280e-002 -6.3069927692413330e-001</leafValues></_>
    <_>
      <internalNodes>
        0 -1 178740 -2.3205426987260580e-003</internalNodes>
      <leafValues>
        1.2692163884639740e-001 -8.4681853652000427e-002</leafValues></_>
    <_>
      <internalNodes>
        0 -1 157982 -1.7791335703805089e-003</internalNodes>
      <leafValues>
        1.2625855207443237e-001 -8.5425212979316711e-002</leafValues></_>
    <_>
      <internalNodes>
        0 -1 246380 -8.1907853484153748e-002</internalNodes>
      <leafValues>
        -6.5419071912765503e-001 1.8940726295113564e-002</leafValues></_>
    <_>
      <internalNodes>
        0 -1 199081 3.2646977342665195e-004</internalNodes>
      <leafValues>
        -9.9531807005405426e-002 1.1560779809951782e-001</leafValues></_>
    <_>
      <internalNodes>
        0 -1 265527 -1.2599334586411715e-003</internalNodes>
      <leafValues>
        1.2760046124458313e-001 -8.9213833212852478e-002</leafValues></_>
    <_>
      <internalNodes>
        0 -1 15882 -5.0528291612863541e-002</internalNodes>
      <leafValues>
        2.7283075451850891e-001 -4.1623510420322418e-002</leafValues></_>
    <_>
      <internalNodes>
        0 -1 305133 -6.1204675585031509e-003</internalNodes>
      <leafValues>
        1.3620175421237946e-001 -7.8161932528018951e-002</leafValues></_></weakClassifiers></stage7>
</opencv_storage>
