<?xml version="1.0"?>
<opencv_storage>
<cascade>
  <stageType>BOOST</stageType>
  <featureType>LBP</featureType>
  <height>30</height>
  <width>30</width>
  <stageParams>
    <boostType>GAB</boostType>
    <minHitRate>9.9500000476837158e-001</minHitRate>
    <maxFalseAlarm>5.0000000000000000e-001</maxFalseAlarm>
    <weightTrimRate>9.4999999999999996e-001</weightTrimRate>
    <maxDepth>1</maxDepth>
    <maxWeakCount>100</maxWeakCount></stageParams>
  <featureParams>
    <maxCatCount>256</maxCatCount>
    <featSize>1</featSize></featureParams>
  <stageNum>10</stageNum>
  <stages>
    <!-- stage 0 -->
    <_>
      <maxWeakCount>12</maxWeakCount>
      <stageThreshold>-9.8176413774490356e-001</stageThreshold>
      <weakClassifiers>
        <_>
          <internalNodes>
            0 -1 28 -31409430 -7557206 -220135464 -69224470 -1565481222
            -1149194237 -211616773 -1146143809</internalNodes>
          <leafValues>
            -3.4560438990592957e-001 6.9358599185943604e-001</leafValues></_>
        <_>
          <internalNodes>
            0 -1 46 -285291284 -897519488 -97212216 -2113623516
            -1075839334 -321001036 -644550705 -6292485</internalNodes>
          <leafValues>
            -3.9866235852241516e-001 4.1493979096412659e-001</leafValues></_>
        <_>
          <internalNodes>
            0 -1 41 -143288164 2070389475 -72064043 -1287970191
            -43545876 -1443163973 -201343237 595263679</internalNodes>
          <leafValues>
            -4.4387310743331909e-001 3.1612423062324524e-001</leafValues></_>
        <_>
          <internalNodes>
            0 -1 67 1863316223 2136567961 285331551 1463251187
            1506343900 1876496400 -750717953 -538182657</internalNodes>
          <leafValues>
            -2.3211421072483063e-001 5.3804194927215576e-001</leafValues></_>
        <_>
          <internalNodes>
            0 -1 15 2132246399 810558014 -1962895489 -505124946
            272979741 1041250864 2074504469 2121222143</internalNodes>
          <leafValues>
            -3.8452678918838501e-001 3.1903016567230225e-001</leafValues></_>
        <_>
          <internalNodes>
            0 -1 144 -677722448 -2381800 1088226390 -1214553867
            134235327 1556262042 1073807546 -1884828421</internalNodes>
          <leafValues>
            -3.3388283848762512e-001 3.6189982295036316e-001</leafValues></_>
        <_>
          <internalNodes>
            0 -1 100 -100864258 1397348032 1589664157 -539175232
            -1368346472 -1969223600 -286982501 -318713599</internalNodes>
          <leafValues>
            -3.9554873108863831e-001 2.9505577683448792e-001</leafValues></_>
        <_>
          <internalNodes>
            0 -1 196 660559861 21374838 -991784463 117213043 417146197
            197078133 -438346027 32843205</internalNodes>
          <leafValues>
            -4.8527464270591736e-001 2.3709291219711304e-001</leafValues></_>
        <_>
          <internalNodes>
            0 -1 2 -852515345 -1252305422 1876411133 1454364705 43714534
            2064082684 309608817 67584000</internalNodes>
          <leafValues>
            -4.5160219073295593e-001 2.6290646195411682e-001</leafValues></_>
        <_>
          <internalNodes>
            0 -1 172 -557005066 -738543596 -1300233129 -44035755
            125831163 -809960743 159395067 -1347731270</internalNodes>
          <leafValues>
            -3.2026061415672302e-001 3.4041211009025574e-001</leafValues></_>
        <_>
          <internalNodes>
            0 -1 50 -343752495 453841024 556273307 -2029825439
            -1878683480 -76148222 1506281915 -401973</internalNodes>
          <leafValues>
            -2.7989399433135986e-001 3.9734748005867004e-001</leafValues></_>
        <_>
          <internalNodes>
            0 -1 31 1048252055 2010977048 1001566172 829441052 911116223
            1805719350 -76803346 2029152746</internalNodes>
          <leafValues>
            -3.5855659842491150e-001 2.9614815115928650e-001</leafValues></_></weakClassifiers></_>
    <!-- stage 1 -->
    <_>
      <maxWeakCount>14</maxWeakCount>
      <stageThreshold>-8.2916218042373657e-001</stageThreshold>
      <weakClassifiers>
        <_>
          <internalNodes>
            0 -1 10 -10027282 -217353309 -194982040 -134743555
            -387122438 -207882645 -86573313 -67111937</internalNodes>
          <leafValues>
            -1.5858632326126099e-001 6.9010841846466064e-001</leafValues></_>
        <_>
          <internalNodes>
            0 -1 32 -201392202 -70082566 -8653953 -8405070 -1697996390
            -1103611080 -1174676737 -1140901189</internalNodes>
          <leafValues>
            -2.9407271742820740e-001 4.1492760181427002e-001</leafValues></_>
        <_>
          <internalNodes>
            0 -1 1 -806367497 -1084541217 -807440901 -838862849
            1078970367 -385506185 100091093 18288720</internalNodes>
          <leafValues>
            -3.5727348923683167e-001 2.9091081023216248e-001</leafValues></_>
        <_>
          <internalNodes>
            0 -1 63 -12063249 -11053805 134267085 256367683 -342819336
            1936733584 1293012120 -839518381</internalNodes>
          <leafValues>
            -2.7967649698257446e-001 3.7862154841423035e-001</leafValues></_>
        <_>
          <internalNodes>
            0 -1 173 -3220004 -33819970 -1811405823 -1718146791
            1589935752 -1118880 -1409283574 -1427420133</internalNodes>
          <leafValues>
            -3.7525501847267151e-001 2.6183810830116272e-001</leafValues></_>
        <_>
          <internalNodes>
            0 -1 178 -12624109 1752463127 2055075771 672807946
            1777022271 -290802793 -1149566977 572551762</internalNodes>
          <leafValues>
            -3.5709384083747864e-001 2.9136496782302856e-001</leafValues></_>
        <_>
          <internalNodes>
            0 -1 152 724516799 213364730 -1417701385 -1342195713
            635734172 14482605 234367040 45323329</internalNodes>
          <leafValues>
            -4.4795092940330505e-001 2.0914445817470551e-001</leafValues></_>
        <_>
          <internalNodes>
            0 -1 137 -3486514 -541595325 -1555036967 186845783 -26193925
            -1169026992 1675759599 703941699</internalNodes>
          <leafValues>
            -3.7768176198005676e-001 2.5175580382347107e-001</leafValues></_>
        <_>
          <internalNodes>
            0 -1 22 -402703065 -366285033 -1828821259 -34149065
            1473650961 -830580972 1530230276 -11058159</internalNodes>
          <leafValues>
            -2.8380537033081055e-001 3.5265880823135376e-001</leafValues></_>
        <_>
          <internalNodes>
            0 -1 12 -1334395009 280405620 -1199800324 -1167695262
            811626094 573587315 322402303 2049991275</internalNodes>
          <leafValues>
            -4.1926088929176331e-001 2.1862974762916565e-001</leafValues></_>
        <_>
          <internalNodes>
            0 -1 171 -1903516239 229259184 -1411434187 -1126676
            268146119 -1378963457 -1971499708 -571476508</internalNodes>
          <leafValues>
            -2.8547850251197815e-001 3.2875105738639832e-001</leafValues></_>
        <_>
          <internalNodes>
            0 -1 106 -9437478 1406736972 -686472048 1630128339
            1912641483 2138117648 -150803745 -68691061</internalNodes>
          <leafValues>
            -2.5802883505821228e-001 3.7999358773231506e-001</leafValues></_>
        <_>
          <internalNodes>
            0 -1 75 1639145217 164687616 1576206105 41256185 -17912159
            -1700206607 -137232651 -549736201</internalNodes>
          <leafValues>
            -2.8956869244575500e-001 3.1842038035392761e-001</leafValues></_>
        <_>
          <internalNodes>
            0 -1 163 -131052460 935036939 -1992290987 195430401
            1307330801 -289166237 -1703930326 703610898</internalNodes>
          <leafValues>
            -4.7305858135223389e-001 2.2016197443008423e-001</leafValues></_></weakClassifiers></_>
    <!-- stage 2 -->
    <_>
      <maxWeakCount>15</maxWeakCount>
      <stageThreshold>-1.2172247171401978e+000</stageThreshold>
      <weakClassifiers>
        <_>
          <internalNodes>
            0 -1 8 -69272836 -82987953 1465972212 -136972033 -86001153
            -2496089 -620774657 -337</internalNodes>
          <leafValues>
            -1.2340246886014938e-001 7.1398639678955078e-001</leafValues></_>
        <_>
          <internalNodes>
            0 -1 146 -137445158 -537948800 1509953817 -1683252304
            -620228950 -5333330 134351403 -72362993</internalNodes>
          <leafValues>
            -2.5150966644287109e-001 4.1974481940269470e-001</leafValues></_>
        <_>
          <internalNodes>
            0 -1 74 1362342546 1901310776 -80367397 -203974419 468753087
            -2490925 -548021345 -70526758</internalNodes>
          <leafValues>
            -2.5857293605804443e-001 4.0783315896987915e-001</leafValues></_>
        <_>
          <internalNodes>
            0 -1 192 749219125 991591282 2130384607 -1083165136
            649926655 -67473473 -1426190356 -1078712268</internalNodes>
          <leafValues>
            -3.3034530282020569e-001 3.1742557883262634e-001</leafValues></_>
        <_>
          <internalNodes>
            0 -1 164 103952149 510672756 -612450309 -1094681552
            1182560253 -13206556 -285274916 -1414240928</internalNodes>
          <leafValues>
            -3.7136688828468323e-001 2.7508959174156189e-001</leafValues></_>
        <_>
          <internalNodes>
            0 -1 98 1325591550 1058038560 857952536 322122242 1111507848
            1360269313 1766543451 1933799251</internalNodes>
          <leafValues>
            -4.7473549842834473e-001 1.9925205409526825e-001</leafValues></_>
        <_>
          <internalNodes>
            0 -1 20 1566521343 391260574 1360396590 1067451442
            -257215577 862268029 -134844741 2135307199</internalNodes>
          <leafValues>
            -3.5595211386680603e-001 2.7839154005050659e-001</leafValues></_>
        <_>
          <internalNodes>
            0 -1 181 262970673 698662804 -2051428879 -12423448
            1039136759 -1342718097 664737941 -35657747</internalNodes>
          <leafValues>
            -2.8020760416984558e-001 3.4114378690719604e-001</leafValues></_>
        <_>
          <internalNodes>
            0 -1 39 -2133330294 169477189 -2003457654 176754394
            1196424878 -1634103201 528320911 60549979</internalNodes>
          <leafValues>
            -4.2443963885307312e-001 2.3005345463752747e-001</leafValues></_>
        <_>
          <internalNodes>
            0 -1 26 132631534 2136988635 -239022081 -1275078219
            1274644174 969041092 1703647898 1331511624</internalNodes>
          <leafValues>
            -4.0106710791587830e-001 2.3233628273010254e-001</leafValues></_>
        <_>
          <internalNodes>
            0 -1 121 -553123926 195428002 1004376304 -78588386 18429
            1178697706 1475462384 -172501053</internalNodes>
          <leafValues>
            -3.4784466028213501e-001 2.8367266058921814e-001</leafValues></_>
        <_>
          <internalNodes>
            0 -1 126 -92604730 -1084791920 287399987 828506274
            -1736424244 138678404 -1100935425 151079951</internalNodes>
          <leafValues>
            -4.3769261240959167e-001 2.1553471684455872e-001</leafValues></_>
        <_>
          <internalNodes>
            0 -1 34 -188516376 -496570656 -544154412 -1039030024
            -394662980 539551948 -474306849 850111153</internalNodes>
          <leafValues>
            -4.4612649083137512e-001 2.2542364895343781e-001</leafValues></_>
        <_>
          <internalNodes>
            0 -1 148 -1944686795 1059231284 -461422081 -1146976744
            765795189 -1090729488 -1342289612 -822195342</internalNodes>
          <leafValues>
            -3.2593467831611633e-001 2.9775109887123108e-001</leafValues></_>
        <_>
          <internalNodes>
            0 -1 193 -937164528 2130260965 1068921303 -34249965
            -1556345353 740712319 -76674117 -1448868578</internalNodes>
          <leafValues>
            -3.4011238813400269e-001 2.8932106494903564e-001</leafValues></_></weakClassifiers></_>
    <!-- stage 3 -->
    <_>
      <maxWeakCount>17</maxWeakCount>
      <stageThreshold>-9.6163409948348999e-001</stageThreshold>
      <weakClassifiers>
        <_>
          <internalNodes>
            0 -1 29 -220531974 -216867086 -12920846 2005303222
            -1326472309 -1843741894 -3936257 -3145729</internalNodes>
          <leafValues>
            -1.1763279139995575e-001 6.2490200996398926e-001</leafValues></_>
        <_>
          <internalNodes>
            0 -1 158 -604061478 -556578 890241041 799359057 235406522
            1595408564 135004303 796869535</internalNodes>
          <leafValues>
            -3.6069050431251526e-001 3.4687036275863647e-001</leafValues></_>
        <_>
          <internalNodes>
            0 -1 118 -11275120 -134220303 2017476816 218361925
            1162005640 1593870336 1094713519 -805312037</internalNodes>
          <leafValues>
            -3.3959996700286865e-001 3.2178264856338501e-001</leafValues></_>
        <_>
          <internalNodes>
            0 -1 55 -16408836 -143279273 1820704893 2138945719
            -355612227 -85557028 -460461313 2139071483</internalNodes>
          <leafValues>
            -3.4221285581588745e-001 2.8422972559928894e-001</leafValues></_>
        <_>
          <internalNodes>
            0 -1 70 -686033153 -550255529 -1795145505 357816531
            268495082 2017284352 -670959461 -818035253</internalNodes>
          <leafValues>
            -2.1828608214855194e-001 4.2931273579597473e-001</leafValues></_>
        <_>
          <internalNodes>
            0 -1 72 -69209378 -29195040 79741085 -947320831 1879178920
            1025541520 1612769451 -645014881</internalNodes>
          <leafValues>
            -3.0064421892166138e-001 2.9971510171890259e-001</leafValues></_>
        <_>
          <internalNodes>
            0 -1 69 -766516736 1359433750 8639129 327406399 -922558326
            -887324480 -1266448662 -1692669297</internalNodes>
          <leafValues>
            -3.0597037076950073e-001 2.9756069183349609e-001</leafValues></_>
        <_>
          <internalNodes>
            0 -1 125 -991762806 260197792 1694647026 1942471380 81658078
            152335940 1182155229 1397998165</internalNodes>
          <leafValues>
            -4.7120675444602966e-001 1.8354161083698273e-001</leafValues></_>
        <_>
          <internalNodes>
            0 -1 199 745148213 -1826073226 -4770305 -638447004 404562325
            -86315270 -1997665095 -1409529804</internalNodes>
          <leafValues>
            -3.0826637148857117e-001 2.9150757193565369e-001</leafValues></_>
        <_>
          <internalNodes>
            0 -1 97 -1035996214 323478144 1367404656 1540485342
            -381038344 1254147248 1886944938 2043790067</internalNodes>
          <leafValues>
            -3.4941205382347107e-001 2.5940001010894775e-001</leafValues></_>
        <_>
          <internalNodes>
            0 -1 18 -194323597 2086683206 838964567 -714625332
            1075117400 402792470 1343615663 1131366087</internalNodes>
          <leafValues>
            -3.2003951072692871e-001 2.8106763958930969e-001</leafValues></_>
        <_>
          <internalNodes>
            0 -1 113 2027816453 862990099 1660876538 -1162297566 8258868
            548709433 1857246700 -391876016</internalNodes>
          <leafValues>
            -3.5240659117698669e-001 2.5142818689346313e-001</leafValues></_>
        <_>
          <internalNodes>
            0 -1 109 -344994009 956407138 -377515918 1069248640
            1105087951 1699666770 -1056975670 -643828262</internalNodes>
          <leafValues>
            -2.5353741645812988e-001 3.5902726650238037e-001</leafValues></_>
        <_>
          <internalNodes>
            0 -1 180 -1354850509 -2044313785 -826904591 -134830228
            792668631 -556335157 -1308649855 -303049119</internalNodes>
          <leafValues>
            -2.2546067833900452e-001 3.8656297326087952e-001</leafValues></_>
        <_>
          <internalNodes>
            0 -1 60 -93922082 1912660674 -1020044492 289867270
            -1901297206 138568834 193550026 1283673038</internalNodes>
          <leafValues>
            -3.6200827360153198e-001 2.5583395361900330e-001</leafValues></_>
        <_>
          <internalNodes>
            0 -1 102 1500958430 -74252003 618722899 -645519024 408989322
            -1685944317 -1932247398 -1207577445</internalNodes>
          <leafValues>
            -2.8751850128173828e-001 3.2192796468734741e-001</leafValues></_>
        <_>
          <internalNodes>
            0 -1 103 -16804268 -872398142 -1022895617 1216956427
            -475477575 -1369634592 -1022669868 150671497</internalNodes>
          <leafValues>
            -4.4545012712478638e-001 2.0627950131893158e-001</leafValues></_></weakClassifiers></_>
    <!-- stage 4 -->
    <_>
      <maxWeakCount>21</maxWeakCount>
      <stageThreshold>-1.0354149341583252e+000</stageThreshold>
      <weakClassifiers>
        <_>
          <internalNodes>
            0 -1 11 -134219778 -11846962 -1316431492 1996445181
            -545259522 -1832910881 -86245665 -202899457</internalNodes>
          <leafValues>
            -4.3613016605377197e-002 6.1791741847991943e-001</leafValues></_>
        <_>
          <internalNodes>
            0 -1 77 -278923265 1963288656 1963250737 1091668095
            -212733544 828593408 -516817957 1607859963</internalNodes>
          <leafValues>
            -2.1150493621826172e-001 4.1008332371711731e-001</leafValues></_>
        <_>
          <internalNodes>
            0 -1 85 1126400706 1399878467 134363378 1406374360
            1081129146 -1083176623 1515289307 -68171381</internalNodes>
          <leafValues>
            -3.1744548678398132e-001 2.8446507453918457e-001</leafValues></_>
        <_>
          <internalNodes>
            0 -1 170 -90576 2071920955 -1405088464 -1074983275 247595435
            453975434 264568973 535806894</internalNodes>
          <leafValues>
            -3.5833850502967834e-001 2.3736582696437836e-001</leafValues></_>
        <_>
          <internalNodes>
            0 -1 93 112332565 716339989 -1258934409 -1080025338
            1014527781 -50364481 1828589104 -1392840780</internalNodes>
          <leafValues>
            -3.5554584860801697e-001 2.2223252058029175e-001</leafValues></_>
        <_>
          <internalNodes>
            0 -1 128 -991756547 -711767707 1291930717 1576079475
            536896220 -1726951277 564199643 1898147139</internalNodes>
          <leafValues>
            -2.9668968915939331e-001 2.7162343263626099e-001</leafValues></_>
        <_>
          <internalNodes>
            0 -1 4 -993072402 -838611056 22806305 -1744871995 9234885
            -1911909047 4567763 336130</internalNodes>
          <leafValues>
            -4.8539260029792786e-001 1.5650162100791931e-001</leafValues></_>
        <_>
          <internalNodes>
            0 -1 122 -861151446 -550841945 -1325502190 -163906886
            1114522043 1141573645 277832916 1205816063</internalNodes>
          <leafValues>
            -3.9286378026008606e-001 2.0105920732021332e-001</leafValues></_>
        <_>
          <internalNodes>
            0 -1 21 -394891499 2014376027 -721883335 -541162718
            1146291205 -188789707 -236507904 -60559519</internalNodes>
          <leafValues>
            -2.8887763619422913e-001 2.9064404964447021e-001</leafValues></_>
        <_>
          <internalNodes>
            0 -1 56 1965421967 2082149631 1033654489 623890517
            1275318938 -214232590 -1283092837 -38011186</internalNodes>
          <leafValues>
            -1.9206179678440094e-001 4.1135412454605103e-001</leafValues></_>
        <_>
          <internalNodes>
            0 -1 49 -864029724 -631446892 -1949999350 220381919
            -573310260 -877421375 -553050869 -2121794561</internalNodes>
          <leafValues>
            -3.4182563424110413e-001 2.3619225621223450e-001</leafValues></_>
        <_>
          <internalNodes>
            0 -1 153 -998324713 -1280264681 -625776805 -1297960837
            619850884 -1110745161 -830808428 -1465712894</internalNodes>
          <leafValues>
            -2.7117276191711426e-001 3.0275428295135498e-001</leafValues></_>
        <_>
          <internalNodes>
            0 -1 183 -638172140 2068780306 422395801 -1692986831
            -1685582165 -574934237 657392408 -11797957</internalNodes>
          <leafValues>
            -2.7858570218086243e-001 2.8722977638244629e-001</leafValues></_>
        <_>
          <internalNodes>
            0 -1 179 227270615 196547839 -302031099 215989052 359074020
            407541378 702412124 -1761628211</internalNodes>
          <leafValues>
            -2.6618331670761108e-001 3.0896756052970886e-001</leafValues></_>
        <_>
          <internalNodes>
            0 -1 119 -13896709 1295057382 51594448 1362436863 1322304751
            1383617330 1783089631 -203423909</internalNodes>
          <leafValues>
            -2.0086641609668732e-001 4.1029757261276245e-001</leafValues></_>
        <_>
          <internalNodes>
            0 -1 159 797413159 664846194 -269021321 -1082479132
            493704687 -822084147 -870397856 -1342716171</internalNodes>
          <leafValues>
            -2.1874089539051056e-001 3.5767775774002075e-001</leafValues></_>
        <_>
          <internalNodes>
            0 -1 174 -1372963561 -1414610946 615854044 -1081307642
            753712629 -1345761369 -1868607008 -320216636</internalNodes>
          <leafValues>
            -2.8909632563591003e-001 2.8419768810272217e-001</leafValues></_>
        <_>
          <internalNodes>
            0 -1 140 -529021934 2087717747 -405383562 842177458
            -587264748 -1444913965 -909421576 -260021626</internalNodes>
          <leafValues>
            -3.1335410475730896e-001 2.6626500487327576e-001</leafValues></_>
        <_>
          <internalNodes>
            0 -1 35 -856688785 -2054947934 -1048849287 -1476400281
            67558511 -2003155200 1078458051 -858787121</internalNodes>
          <leafValues>
            -2.2076004743576050e-001 3.6891734600067139e-001</leafValues></_>
        <_>
          <internalNodes>
            0 -1 150 610725719 409531684 -392174665 -1535072752
            -1447137483 -402456837 -889320260 -287281600</internalNodes>
          <leafValues>
            -3.0513119697570801e-001 2.8173789381980896e-001</leafValues></_>
        <_>
          <internalNodes>
            0 -1 88 -562045763 456349463 -1637757390 396050466
            -305363793 -1156226833 -813301782 -975972945</internalNodes>
          <leafValues>
            -2.0845375955104828e-001 4.2337784171104431e-001</leafValues></_></weakClassifiers></_>
    <!-- stage 5 -->
    <_>
      <maxWeakCount>24</maxWeakCount>
      <stageThreshold>-8.4719407558441162e-001</stageThreshold>
      <weakClassifiers>
        <_>
          <internalNodes>
            0 -1 42 2131970816 2143284868 1912306161 2132408568
            -1615077521 -822415366 -4325385 -72497987</internalNodes>
          <leafValues>
            -6.4431637525558472e-002 5.6061059236526489e-001</leafValues></_>
        <_>
          <internalNodes>
            0 -1 37 -424673396 -956447104 -545237880 -284297591
            -56692788 -1075840633 -1909865592 -15992357</internalNodes>
          <leafValues>
            -3.0999851226806641e-001 2.6581010222434998e-001</leafValues></_>
        <_>
          <internalNodes>
            0 -1 105 -16821764 148834233 1888508240 -1145103221
            -468022532 213564541 -88630347 -1413760083</internalNodes>
          <leafValues>
            -3.2428768277168274e-001 2.3172283172607422e-001</leafValues></_>
        <_>
          <internalNodes>
            0 -1 54 -912237323 -83818752 -830043173 -1449035007
            294174904 -1120913920 -724773393 -278659509</internalNodes>
          <leafValues>
            -2.0326471328735352e-001 3.4320911765098572e-001</leafValues></_>
        <_>
          <internalNodes>
            0 -1 0 -287315713 -809116050 -872038221 -24647487
            -2007904353 -1433492907 1153946081 1104670833</internalNodes>
          <leafValues>
            -2.7064713835716248e-001 2.6404368877410889e-001</leafValues></_>
        <_>
          <internalNodes>
            0 -1 156 703767458 736533154 -1616685904 -34704852
            1088300277 230993717 1422869972 1105323773</internalNodes>
          <leafValues>
            -4.0779003500938416e-001 1.6076053678989410e-001</leafValues></_>
        <_>
          <internalNodes>
            0 -1 175 -1431433393 1059516410 -1073774600 -66440
            1827318781 1039840111 769606893 -1392880572</internalNodes>
          <leafValues>
            -2.7304783463478088e-001 2.4646516144275665e-001</leafValues></_>
        <_>
          <internalNodes>
            0 -1 108 1936193178 -4224445 -1325284336 758237439 -20397930
            735270912 -117383013 -101361977</internalNodes>
          <leafValues>
            -2.4788953363895416e-001 2.7016973495483398e-001</leafValues></_>
        <_>
          <internalNodes>
            0 -1 182 -70859556 1057438844 -734446575 -1858521259
            -1154841925 1052402295 1206002207 514263130</internalNodes>
          <leafValues>
            -2.8076988458633423e-001 2.3804821074008942e-001</leafValues></_>
        <_>
          <internalNodes>
            0 -1 78 -16778685 -1438439062 -134124273 2079711067
            -1686573637 -1197229869 -1628418291 -318833387</internalNodes>
          <leafValues>
            -2.1002899110317230e-001 3.2808876037597656e-001</leafValues></_>
        <_>
          <internalNodes>
            0 -1 79 -553670068 1567600050 672833554 992981027
            -1338598782 -58017638 -928003173 -869540813</internalNodes>
          <leafValues>
            -2.3855125904083252e-001 2.8628680109977722e-001</leafValues></_>
        <_>
          <internalNodes>
            0 -1 169 -572729864 -1142088620 -1154447215 489898020
            -837286241 -70086780 1289882107 -1985754661</internalNodes>
          <leafValues>
            -2.9204568266868591e-001 2.4234248697757721e-001</leafValues></_>
        <_>
          <internalNodes>
            0 -1 76 -370297190 968966516 1510151005 282584012 2051054344
            -16950207 -1680544817 -206975525</internalNodes>
          <leafValues>
            -2.5244048237800598e-001 2.7851903438568115e-001</leafValues></_>
        <_>
          <internalNodes>
            0 -1 19 1903638879 441868125 1263987035 -1312546540
            727322901 425946993 996440810 409632527</internalNodes>
          <leafValues>
            -3.4234216809272766e-001 2.1508929133415222e-001</leafValues></_>
        <_>
          <internalNodes>
            0 -1 27 221225198 849864664 2140892409 988805456 580069067
            838476148 531456712 52445432</internalNodes>
          <leafValues>
            -4.7813850641250610e-001 1.3226072490215302e-001</leafValues></_>
        <_>
          <internalNodes>
            0 -1 82 -1197613348 1719028949 1288998032 -640499288
            -268109638 -1728032587 1814612664 -276434785</internalNodes>
          <leafValues>
            -2.9386225342750549e-001 2.4704274535179138e-001</leafValues></_>
        <_>
          <internalNodes>
            0 -1 176 172494608 -1074645348 520003184 -1184864652
            -1970469395 -1108951118 217782476 -1443085024</internalNodes>
          <leafValues>
            -3.5007452964782715e-001 2.0477060973644257e-001</leafValues></_>
        <_>
          <internalNodes>
            0 -1 130 -597520633 -1876540625 -411694346 -1096669274
            -428103883 -1194137627 -56857840 -1462075626</internalNodes>
          <leafValues>
            -2.7147725224494934e-001 2.7170392870903015e-001</leafValues></_>
        <_>
          <internalNodes>
            0 -1 124 1233707198 -30113646 1173823716 820691154
            1111629823 811733152 5459097 1361785938</internalNodes>
          <leafValues>
            -4.1996145248413086e-001 1.6591501235961914e-001</leafValues></_>
        <_>
          <internalNodes>
            0 -1 197 -432021997 69890702 -2042629423 -283090371
            781534885 1278242863 1340348148 -742656121</internalNodes>
          <leafValues>
            -2.4668744206428528e-001 2.8274759650230408e-001</leafValues></_>
        <_>
          <internalNodes>
            0 -1 38 -863056129 -778128174 -1816682919 788746507
            1214143527 -360363211 -745568220 1340833807</internalNodes>
          <leafValues>
            -2.5320145487785339e-001 2.7459430694580078e-001</leafValues></_>
        <_>
          <internalNodes>
            0 -1 51 -2017333015 -1152168939 -2058600301 -1891904303
            -1329559320 -1318810495 500912267 -303577781</internalNodes>
          <leafValues>
            -2.1092101931571960e-001 3.2625183463096619e-001</leafValues></_>
        <_>
          <internalNodes>
            0 -1 104 1601175315 1560853590 -589898065 283972685
            -253763693 2080661330 -537985753 -1998548785</internalNodes>
          <leafValues>
            -2.4243225157260895e-001 2.9880827665328979e-001</leafValues></_>
        <_>
          <internalNodes>
            0 -1 89 -554512576 458480899 1529300017 973132771 1248776648
            1443415571 1229605514 860092227</internalNodes>
          <leafValues>
            -3.6273998022079468e-001 2.0958276093006134e-001</leafValues></_></weakClassifiers></_>
    <!-- stage 6 -->
    <_>
      <maxWeakCount>23</maxWeakCount>
      <stageThreshold>-7.9238879680633545e-001</stageThreshold>
      <weakClassifiers>
        <_>
          <internalNodes>
            0 -1 43 2102787788 -284972327 -113194164 1966192893
            -122290435 -1131158275 -136320011 -137251329</internalNodes>
          <leafValues>
            -6.5735891461372375e-002 5.2761256694793701e-001</leafValues></_>
        <_>
          <internalNodes>
            0 -1 111 -126163713 -11324926 958464331 218439923 -203404293
            1800542208 1138755567 2107732063</internalNodes>
          <leafValues>
            -2.4070447683334351e-001 3.0917865037918091e-001</leafValues></_>
        <_>
          <internalNodes>
            0 -1 138 -596982542 -1612865152 989944591 -1087639840
            -563459650 -67444830 -16760049 -44962</internalNodes>
          <leafValues>
            -2.7515199780464172e-001 2.6128131151199341e-001</leafValues></_>
        <_>
          <internalNodes>
            0 -1 14 1450638719 843199042 -409796842 548335594 1409675535
            608335699 1618247429 1617391963</internalNodes>
          <leafValues>
            -3.7601184844970703e-001 1.8809138238430023e-001</leafValues></_>
        <_>
          <internalNodes>
            0 -1 99 243141684 527566612 -1534567624 1026597940
            2062447121 -109175745 681231632 -1465161157</internalNodes>
          <leafValues>
            -3.9300823211669922e-001 1.6845382750034332e-001</leafValues></_>
        <_>
          <internalNodes>
            0 -1 141 -126743001 846243711 648963070 -30266022 -723578043
            -1850115913 -371250068 -1398592510</internalNodes>
          <leafValues>
            -3.0249056220054626e-001 2.1606689691543579e-001</leafValues></_>
        <_>
          <internalNodes>
            0 -1 112 -77406050 -613169573 285234178 24576035 -1600110568
            721904406 -1350565317 412108032</internalNodes>
          <leafValues>
            -4.0387335419654846e-001 1.6126415133476257e-001</leafValues></_>
        <_>
          <internalNodes>
            0 -1 92 -16780570 1003997312 1420970122 890077323 537977057
            16909572 -2147186517 496366751</internalNodes>
          <leafValues>
            -3.1794598698616028e-001 2.0492260158061981e-001</leafValues></_>
        <_>
          <internalNodes>
            0 -1 200 183110693 996311005 1862132015 -108999890 697517151
            -339775553 -1430319412 -289870576</internalNodes>
          <leafValues>
            -2.7344432473182678e-001 2.3802548646926880e-001</leafValues></_>
        <_>
          <internalNodes>
            0 -1 120 -139464794 547534400 -448858464 -1410140992
            1472086469 73690932 1342375152 -196621339</internalNodes>
          <leafValues>
            -3.3642789721488953e-001 2.0801369845867157e-001</leafValues></_>
        <_>
          <internalNodes>
            0 -1 84 -1883563169 -625516945 952000476 666850781 242191176
            -744580177 -1763266148 -76030904</internalNodes>
          <leafValues>
            -2.2430238127708435e-001 3.1127503514289856e-001</leafValues></_>
        <_>
          <internalNodes>
            0 -1 33 -570718227 -537574667 871434719 -282183895
            -1950601219 485642188 -1278305321 1297112525</internalNodes>
          <leafValues>
            -2.6794937252998352e-001 2.5823798775672913e-001</leafValues></_>
        <_>
          <internalNodes>
            0 -1 177 1684037893 -701354177 -749267969 -316479966
            412683645 -16802337 2058078399 -85314521</internalNodes>
          <leafValues>
            -2.2218476235866547e-001 3.1510755419731140e-001</leafValues></_>
        <_>
          <internalNodes>
            0 -1 90 184742654 353465652 285461234 1365856379 1275071198
            1746075968 1242062538 2033939201</internalNodes>
          <leafValues>
            -3.8137418031692505e-001 1.8355709314346313e-001</leafValues></_>
        <_>
          <internalNodes>
            0 -1 142 -97619280 -96636618 -192723275 -1086330224
            169871022 1532010672 20971999 -1884609321</internalNodes>
          <leafValues>
            -3.1148669123649597e-001 2.2227135300636292e-001</leafValues></_>
        <_>
          <internalNodes>
            0 -1 188 1408664308 1069193044 -1047904903 1059821660
            789202683 776940425 168694301 -1113858677</internalNodes>
          <leafValues>
            -2.5893235206604004e-001 2.5858238339424133e-001</leafValues></_>
        <_>
          <internalNodes>
            0 -1 132 -207817306 1468405415 196547441 1930745851 50390989
            1247327930 62112175 1272580526</internalNodes>
          <leafValues>
            -2.8906983137130737e-001 2.3919090628623962e-001</leafValues></_>
        <_>
          <internalNodes>
            0 -1 73 2142993665 -856080545 -50341773 1215008992 -52529251
            -262105871 -16833 -1661889307</internalNodes>
          <leafValues>
            -2.5206652283668518e-001 2.7963504195213318e-001</leafValues></_>
        <_>
          <internalNodes>
            0 -1 65 -1907361865 -201722601 1505263851 84517546
            1916234728 -877569268 530603753 -6555203</internalNodes>
          <leafValues>
            -1.8480408191680908e-001 3.7693896889686584e-001</leafValues></_>
        <_>
          <internalNodes>
            0 -1 134 -960524509 620193511 -285272301 -273241318
            1592475479 268185470 -2004944396 -457640080</internalNodes>
          <leafValues>
            -2.6114472746849060e-001 2.7749007940292358e-001</leafValues></_>
        <_>
          <internalNodes>
            0 -1 115 -93137186 -44207935 2024069343 -585631982
            -492785910 -400230891 612670811 -1641709493</internalNodes>
          <leafValues>
            -2.6183077692985535e-001 2.6707422733306885e-001</leafValues></_>
        <_>
          <internalNodes>
            0 -1 7 -386956065 -837655847 -1052318531 1083439747
            1477817164 788907703 7689664 69345568</internalNodes>
          <leafValues>
            -3.8313031196594238e-001 1.9012580811977386e-001</leafValues></_>
        <_>
          <internalNodes>
            0 -1 61 1783377544 38350920 1780661976 1065479826 113818588
            -69075152 -2118070380 1133811072</internalNodes>
          <leafValues>
            -5.1494538784027100e-001 1.3949698209762573e-001</leafValues></_></weakClassifiers></_>
    <!-- stage 7 -->
    <_>
      <maxWeakCount>25</maxWeakCount>
      <stageThreshold>-8.1539732217788696e-001</stageThreshold>
      <weakClassifiers>
        <_>
          <internalNodes>
            0 -1 5 -1649773826 -67195137 -139183274 -8388625 -1292331109
            -1309008639 -201378841 2139044763</internalNodes>
          <leafValues>
            -8.0964155495166779e-002 5.1789647340774536e-001</leafValues></_>
        <_>
          <internalNodes>
            0 -1 64 -1966625 -11011759 -2071930419 710103217 -1693393816
            1664201792 -39453985 -861543224</internalNodes>
          <leafValues>
            -1.9829425215721130e-001 3.5044988989830017e-001</leafValues></_>
        <_>
          <internalNodes>
            0 -1 168 -543493200 1073388284 2146048061 1033967728
            436213759 -1881567784 1298400349 231670361</internalNodes>
          <leafValues>
            -3.6057895421981812e-001 1.8734905123710632e-001</leafValues></_>
        <_>
          <internalNodes>
            0 -1 62 -1143274756 -1170881587 685558108 -1417870883
            -1741907208 -1575912217 -1189217295 2059391733</internalNodes>
          <leafValues>
            -3.6420613527297974e-001 1.8811582028865814e-001</leafValues></_>
        <_>
          <internalNodes>
            0 -1 149 -287520561 -536999286 2139249879 990814386
            685791707 -1082472841 1743343455 -1616457134</internalNodes>
          <leafValues>
            -2.3217974603176117e-001 2.8582385182380676e-001</leafValues></_>
        <_>
          <internalNodes>
            0 -1 155 -1431049433 640740934 -1514165228 -140899726
            1291836757 1300215647 -1596309404 -994642396</internalNodes>
          <leafValues>
            -2.9526761174201965e-001 2.1625053882598877e-001</leafValues></_>
        <_>
          <internalNodes>
            0 -1 36 -1064648493 -25108352 1849206009 -313546739
            -2074022146 -10859742 1334489999 -5756</internalNodes>
          <leafValues>
            -2.1146191656589508e-001 2.9195442795753479e-001</leafValues></_>
        <_>
          <internalNodes>
            0 -1 91 -554371162 -49262188 1547715720 -1077949418
            354537663 1575622039 825295064 -36597607</internalNodes>
          <leafValues>
            -2.7706927061080933e-001 2.1521192789077759e-001</leafValues></_>
        <_>
          <internalNodes>
            0 -1 123 -538974237 136502541 -589041238 -69534548
            1146078967 483459031 -858704644 -236980501</internalNodes>
          <leafValues>
            -1.9462859630584717e-001 3.1062063574790955e-001</leafValues></_>
        <_>
          <internalNodes>
            0 -1 25 244181869 1057186633 755240445 422736726 1644938615
            185827715 150619439 1077953624</internalNodes>
          <leafValues>
            -3.8977625966072083e-001 1.5866394340991974e-001</leafValues></_>
        <_>
          <internalNodes>
            0 -1 66 1212347646 1499234538 -1962272725 1172275753
            -966112520 -2038820949 -1919694117 45024719</internalNodes>
          <leafValues>
            -3.1478327512741089e-001 2.0404426753520966e-001</leafValues></_>
        <_>
          <internalNodes>
            0 -1 147 -1947787589 1264577083 200681529 418325392
            427634904 32766615 461317092 721398186</internalNodes>
          <leafValues>
            -2.8931730985641479e-001 2.1680819988250732e-001</leafValues></_>
        <_>
          <internalNodes>
            0 -1 47 -363086912 2069745728 -1274942456 991679653
            1191391001 1943540121 1075424203 1937495248</internalNodes>
          <leafValues>
            -2.9737347364425659e-001 2.1647883951663971e-001</leafValues></_>
        <_>
          <internalNodes>
            0 -1 190 671220791 -1162866825 -1449189771 -350611108
            1488496949 -1359255619 -1077991435 -1343062266</internalNodes>
          <leafValues>
            -2.6122966408729553e-001 2.4027341604232788e-001</leafValues></_>
        <_>
          <internalNodes>
            0 -1 167 -1539854989 -1478051214 -218382730 -67194890
            1155429684 -1439959098 1307790928 -879895211</internalNodes>
          <leafValues>
            -2.2425685822963715e-001 2.7618905901908875e-001</leafValues></_>
        <_>
          <internalNodes>
            0 -1 189 -868577699 1990176000 -1624820931 1966833717
            -107798021 -1143263393 179776255 -1141209254</internalNodes>
          <leafValues>
            -2.0799641311168671e-001 3.1156766414642334e-001</leafValues></_>
        <_>
          <internalNodes>
            0 -1 195 -549890608 697500096 -1225869867 108068157
            -1041473519 162426885 -9870815 141850960</internalNodes>
          <leafValues>
            -4.7426494956016541e-001 1.3777671754360199e-001</leafValues></_>
        <_>
          <internalNodes>
            0 -1 101 619915777 845122675 -302010441 -1885956332 74185781
            -1133683331 -1996553507 -926984195</internalNodes>
          <leafValues>
            -2.3956434428691864e-001 2.7116423845291138e-001</leafValues></_>
        <_>
          <internalNodes>
            0 -1 186 -137383024 304321329 2058624785 -1325386893
            188224699 858067999 1469842840 221444863</internalNodes>
          <leafValues>
            -3.1497403979301453e-001 2.0608828961849213e-001</leafValues></_>
        <_>
          <internalNodes>
            0 -1 16 1027233631 1979754542 -549806520 40122254 875633729
            810645063 1796490548 2488079</internalNodes>
          <leafValues>
            -4.0906199812889099e-001 1.6908477246761322e-001</leafValues></_>
        <_>
          <internalNodes>
            0 -1 58 141460528 529278191 875073945 126823599 686138049
            774919856 154622393 682617299</internalNodes>
          <leafValues>
            -3.8057857751846313e-001 1.6495558619499207e-001</leafValues></_>
        <_>
          <internalNodes>
            0 -1 71 -53477694 441319463 -1438098346 1800839904
            1427435690 -1922268274 339823247 78926511</internalNodes>
          <leafValues>
            -3.5635977983474731e-001 1.8165872991085052e-001</leafValues></_>
        <_>
          <internalNodes>
            0 -1 96 2146434815 1432727520 1923186705 837147516
            1522684744 1790789126 -771106153 -75105313</internalNodes>
          <leafValues>
            -1.9556240737438202e-001 3.5716497898101807e-001</leafValues></_>
        <_>
          <internalNodes>
            0 -1 129 1547892318 1453008398 -22786796 -324262241
            -738700002 349212323 1016086875 -1651905464</internalNodes>
          <leafValues>
            -2.8605639934539795e-001 2.3637573421001434e-001</leafValues></_>
        <_>
          <internalNodes>
            0 -1 127 -772023073 186630580 893403987 1268847335
            -128880169 1233077525 2009350686 453079111</internalNodes>
          <leafValues>
            -2.6912301778793335e-001 2.4743537604808807e-001</leafValues></_></weakClassifiers></_>
    <!-- stage 8 -->
    <_>
      <maxWeakCount>25</maxWeakCount>
      <stageThreshold>-9.5639508962631226e-001</stageThreshold>
      <weakClassifiers>
        <_>
          <internalNodes>
            0 -1 6 1867513806 -550781459 -275742724 -44958227
            -1335892005 -342638374 -1235094583 -147590917</internalNodes>
          <leafValues>
            1.2068549403920770e-003 5.4978764057159424e-001</leafValues></_>
        <_>
          <internalNodes>
            0 -1 53 1359343829 2007318741 119408479 -1892683951
            -503281510 -1127661312 1604277179 -270541941</internalNodes>
          <leafValues>
            -1.5313351154327393e-001 3.9393496513366699e-001</leafValues></_>
        <_>
          <internalNodes>
            0 -1 166 -106956880 -743985771 205394993 -1213533799
            922977448 1057915214 2035155421 2072768414</internalNodes>
          <leafValues>
            -2.7442991733551025e-001 2.4500688910484314e-001</leafValues></_>
        <_>
          <internalNodes>
            0 -1 30 -1638755461 -231543882 609760535 -395557830
            -1776469217 -1172010146 1862859513 2004828159</internalNodes>
          <leafValues>
            -2.9235836863517761e-001 2.2479715943336487e-001</leafValues></_>
        <_>
          <internalNodes>
            0 -1 80 1517489694 496356102 2139340049 1057731362
            1771288834 -81615302 -170674462 -115082981</internalNodes>
          <leafValues>
            -2.8786528110504150e-001 2.1772845089435577e-001</leafValues></_>
        <_>
          <internalNodes>
            0 -1 151 -1469593081 -1762586053 1021290975 2090865490
            -1893833971 -1080926217 -587239553 -593040057</internalNodes>
          <leafValues>
            -2.3108659684658051e-001 2.8377807140350342e-001</leafValues></_>
        <_>
          <internalNodes>
            0 -1 116 -298644221 1086855 -1493291009 -1343443138
            1633906549 -1342472201 -321446724 -1394121216</internalNodes>
          <leafValues>
            -2.3354941606521606e-001 2.5766205787658691e-001</leafValues></_>
        <_>
          <internalNodes>
            0 -1 187 598390705 -1561682946 -1431347849 -1612012422
            233547680 -1661472857 -1140976512 -505975360</internalNodes>
          <leafValues>
            -2.5256359577178955e-001 2.4136868119239807e-001</leafValues></_>
        <_>
          <internalNodes>
            0 -1 110 -283446578 641967680 -1107031918 90282150
            1598144964 9748869 1551108250 227924944</internalNodes>
          <leafValues>
            -3.7755501270294189e-001 1.5582004189491272e-001</leafValues></_>
        <_>
          <internalNodes>
            0 -1 135 -309872213 -2099193878 -1104478260 -436863910
            1201477013 1687147958 1174246652 -940583209</internalNodes>
          <leafValues>
            -2.2169910371303558e-001 2.6492843031883240e-001</leafValues></_>
        <_>
          <internalNodes>
            0 -1 87 1618987022 370152310 1344327128 1066414246 604091914
            676698161 -1555311157 -586815318</internalNodes>
          <leafValues>
            -2.7760708332061768e-001 2.1979513764381409e-001</leafValues></_>
        <_>
          <internalNodes>
            0 -1 117 921138071 -2088895649 -1820499105 925848447
            645599436 47897837 -1991923560 653781567</internalNodes>
          <leafValues>
            -2.5394946336746216e-001 2.4848356842994690e-001</leafValues></_>
        <_>
          <internalNodes>
            0 -1 143 1153375028 184003726 -38930796 1479871274
            -925118496 -1363155316 -210518048 -1646554654</internalNodes>
          <leafValues>
            -3.1646415591239929e-001 2.0603461563587189e-001</leafValues></_>
        <_>
          <internalNodes>
            0 -1 161 -1272918864 -1656304 -1218166759 -45088528
            -1971321861 434794386 1290601657 205672560</internalNodes>
          <leafValues>
            -4.0842282772064209e-001 1.5098148584365845e-001</leafValues></_>
        <_>
          <internalNodes>
            0 -1 59 -2066824172 1428291738 -1199427201 99401818
            -2141015121 -2136069441 20695771 15703287</internalNodes>
          <leafValues>
            -3.5639712214469910e-001 1.6224743425846100e-001</leafValues></_>
        <_>
          <internalNodes>
            0 -1 184 644223761 443725063 -2302577 -1221442708 651186360
            -1344904898 -119626348 -1509907148</internalNodes>
          <leafValues>
            -2.8614965081214905e-001 2.1672381460666656e-001</leafValues></_>
        <_>
          <internalNodes>
            0 -1 107 -554702242 1343281702 1871704286 2133565466
            -328821262 -1626659823 537364714 -351697221</internalNodes>
          <leafValues>
            -2.1461243927478790e-001 3.0049818754196167e-001</leafValues></_>
        <_>
          <internalNodes>
            0 -1 24 1834826982 1463033438 431958655 201339418 1884247927
            1963277569 603353086 322986102</internalNodes>
          <leafValues>
            -4.1765093803405762e-001 1.5365065634250641e-001</leafValues></_>
        <_>
          <internalNodes>
            0 -1 131 -1435572729 1246925687 1893612987 -1339641036
            1483071397 -1128105161 1808226504 -1595707506</internalNodes>
          <leafValues>
            -2.5548490881919861e-001 2.5486984848976135e-001</leafValues></_>
        <_>
          <internalNodes>
            0 -1 86 -1848908488 1340942194 1140920789 -816604055
            -644191046 1139247362 1004297172 1593741649</internalNodes>
          <leafValues>
            -2.7409186959266663e-001 2.4282045662403107e-001</leafValues></_>
        <_>
          <internalNodes>
            0 -1 45 -70786393 1599300959 -1786424424 2131966347 21401984
            499713181 1153817769 1774051740</internalNodes>
          <leafValues>
            -2.3388336598873138e-001 2.8548446297645569e-001</leafValues></_>
        <_>
          <internalNodes>
            0 -1 136 1206313386 587889914 -216691774 -1577506280
            693290450 203646466 166140120 1106997931</internalNodes>
          <leafValues>
            -3.2551997900009155e-001 2.0486569404602051e-001</leafValues></_>
        <_>
          <internalNodes>
            0 -1 48 -856775075 410128075 1796373689 700684819 -594155716
            -581254247 -845107808 -1080577365</internalNodes>
          <leafValues>
            -2.5023549795150757e-001 2.5960573554039001e-001</leafValues></_>
        <_>
          <internalNodes>
            0 -1 133 1887364224 1985494804 1776260061 288247532
            343359369 342958915 1863816649 729816971</internalNodes>
          <leafValues>
            -3.6971107125282288e-001 1.7820008099079132e-001</leafValues></_>
        <_>
          <internalNodes>
            0 -1 68 -1393819665 -1103469033 1628010241 -574625181
            1292232090 -128821 -1718923112 -570557541</internalNodes>
          <leafValues>
            -1.7023201286792755e-001 3.7616977095603943e-001</leafValues></_></weakClassifiers></_>
    <!-- stage 9 -->
    <_>
      <maxWeakCount>26</maxWeakCount>
      <stageThreshold>-1.0029984712600708e+000</stageThreshold>
      <weakClassifiers>
        <_>
          <internalNodes>
            0 -1 13 -316689478 -68216881 -781946324 2130538708 988269486
            2069059038 1945886202 1946120687</internalNodes>
          <leafValues>
            -6.9996714591979980e-002 4.9792140722274780e-001</leafValues></_>
        <_>
          <internalNodes>
            0 -1 157 -1356269645 -1922308 -1107829260 -1647450908
            219289591 2141502845 162858165 -838909772</internalNodes>
          <leafValues>
            -2.2984620928764343e-001 2.7934795618057251e-001</leafValues></_>
        <_>
          <internalNodes>
            0 -1 198 145887093 749879155 -1344063499 -1411737484
            1072633749 -1074086705 -1496897092 -1073865132</internalNodes>
          <leafValues>
            -2.7054041624069214e-001 2.2758176922798157e-001</leafValues></_>
        <_>
          <internalNodes>
            0 -1 44 11242146 324123576 -888463238 -1812784143 52759283
            921570489 444589567 1243697503</internalNodes>
          <leafValues>
            -3.7181559205055237e-001 1.6485103964805603e-001</leafValues></_>
        <_>
          <internalNodes>
            0 -1 57 -68963883 1966503121 501679133 -1892974565
            -1827882358 -781072493 1070845883 -268597</internalNodes>
          <leafValues>
            -1.7047972977161407e-001 3.7146651744842529e-001</leafValues></_>
        <_>
          <internalNodes>
            0 -1 185 -1397506253 -1465598026 2146407665 -1151943820
            -816071177 -1913785201 -637846128 -302000960</internalNodes>
          <leafValues>
            -2.3400488495826721e-001 2.6686868071556091e-001</leafValues></_>
        <_>
          <internalNodes>
            0 -1 194 -14685424 796914290 896911221 -1742673863
            -465608933 1000294659 -104089453 6578323</internalNodes>
          <leafValues>
            -3.5306754708290100e-001 1.7300593852996826e-001</leafValues></_>
        <_>
          <internalNodes>
            0 -1 40 -1939295512 215502623 248860302 183122174 427816420
            -2036662868 1574668421 254672091</internalNodes>
          <leafValues>
            -4.3479871749877930e-001 1.2978011369705200e-001</leafValues></_>
        <_>
          <internalNodes>
            0 -1 81 1364848894 -138669415 151590169 230398027
            -2140081506 -1466865212 -1190589253 -1458441905</internalNodes>
          <leafValues>
            -2.1419666707515717e-001 2.8047680854797363e-001</leafValues></_>
        <_>
          <internalNodes>
            0 -1 23 1845459251 1764784985 -551915710 -1345140971
            1076848433 -1474183065 -520944560 -180009193</internalNodes>
          <leafValues>
            -2.5126042962074280e-001 2.4547247588634491e-001</leafValues></_>
        <_>
          <internalNodes>
            0 -1 114 -195960617 -678361833 277010427 -50244195
            -1305290021 285268244 -1193263137 -37246053</internalNodes>
          <leafValues>
            -1.6170834004878998e-001 3.8426658511161804e-001</leafValues></_>
        <_>
          <internalNodes>
            0 -1 139 1190546519 309646623 -1342728513 -1355275866
            1832847189 -118166129 -304399684 -856395978</internalNodes>
          <leafValues>
            -2.3666279017925262e-001 2.6526281237602234e-001</leafValues></_>
        <_>
          <internalNodes>
            0 -1 95 2070067336 1897104341 151091454 1106898999 404786866
            207132145 2020852683 -288749553</internalNodes>
          <leafValues>
            -2.8906565904617310e-001 2.2242069244384766e-001</leafValues></_>
        <_>
          <internalNodes>
            0 -1 191 -662929827 -475324603 406044045 2069045506
            -1183535906 -185084137 754539727 -72678550</internalNodes>
          <leafValues>
            -1.8671739101409912e-001 3.2169482111930847e-001</leafValues></_>
        <_>
          <internalNodes>
            0 -1 162 570162111 2088211383 223290688 89073288 347964656
            1912200254 252317632 564401664</internalNodes>
          <leafValues>
            -3.7863463163375854e-001 1.6111078858375549e-001</leafValues></_>
        <_>
          <internalNodes>
            0 -1 154 -40458568 -23210963 -1845996175 183027391
            1593893768 498209970 1992841007 -894761822</internalNodes>
          <leafValues>
            -2.5916111469268799e-001 2.4214659631252289e-001</leafValues></_>
        <_>
          <internalNodes>
            0 -1 17 -603980941 -800332325 1736926709 -554015328
            645362261 1568458061 -792759483 -163610811</internalNodes>
          <leafValues>
            -2.1620529890060425e-001 2.8317108750343323e-001</leafValues></_>
        <_>
          <internalNodes>
            0 -1 201 223307061 -1520443033 1891849951 89987404
            -805578451 -180211327 1341714703 102409590</internalNodes>
          <leafValues>
            -2.7536898851394653e-001 2.2092296183109283e-001</leafValues></_>
        <_>
          <internalNodes>
            0 -1 9 18851554 603350483 1704993664 -986213955 636092284
            -1280245419 132446922 1942700712</internalNodes>
          <leafValues>
            -3.5294359922409058e-001 1.7610426247119904e-001</leafValues></_>
        <_>
          <internalNodes>
            0 -1 52 -1222651403 2140493429 -168069731 -1617983681
            -92228960 -633699920 -918353525 -38012529</internalNodes>
          <leafValues>
            -1.4042088389396667e-001 4.7912502288818359e-001</leafValues></_>
        <_>
          <internalNodes>
            0 -1 83 145098517 839032639 -1160562821 800108514 1913540094
            -1884754101 -21489972 -1427054828</internalNodes>
          <leafValues>
            -2.7357703447341919e-001 2.4283479154109955e-001</leafValues></_>
        <_>
          <internalNodes>
            0 -1 94 1192796896 2142934 1963791797 -473136499 1466474447
            712942525 -242093666 23602264</internalNodes>
          <leafValues>
            -3.7093478441238403e-001 1.6926403343677521e-001</leafValues></_>
        <_>
          <internalNodes>
            0 -1 145 -1345587273 71498548 -575703342 -1435852960
            1505707317 -893792905 167711924 -50335889</internalNodes>
          <leafValues>
            -2.2628602385520935e-001 2.8874307870864868e-001</leafValues></_>
        <_>
          <internalNodes>
            0 -1 160 615288663 -1933904010 -1149822683 -1750945680
            343377237 -1631655749 -1510077984 -1998102168</internalNodes>
          <leafValues>
            -2.7351570129394531e-001 2.3074935376644135e-001</leafValues></_>
        <_>
          <internalNodes>
            0 -1 3 -1143370962 -1152412868 -353054307 -910723147
            1458490215 -1569176449 2120808517 1299567483</internalNodes>
          <leafValues>
            -2.7581730484962463e-001 2.3676760494709015e-001</leafValues></_>
        <_>
          <internalNodes>
            0 -1 165 1216235014 1000566087 -1901916035 740723051
            284842292 1239407445 -688229684 -119215258</internalNodes>
          <leafValues>
            -2.9600259661674500e-001 2.1908046305179596e-001</leafValues></_></weakClassifiers></_></stages>
  <features>
    <_>
      <rect>
        0 0 3 7</rect></_>
    <_>
      <rect>
        0 0 4 7</rect></_>
    <_>
      <rect>
        0 0 6 5</rect></_>
    <_>
      <rect>
        0 0 10 4</rect></_>
    <_>
      <rect>
        0 2 5 7</rect></_>
    <_>
      <rect>
        0 3 8 9</rect></_>
    <_>
      <rect>
        0 3 10 7</rect></_>
    <_>
      <rect>
        0 4 3 5</rect></_>
    <_>
      <rect>
        0 6 10 7</rect></_>
    <_>
      <rect>
        0 7 9 4</rect></_>
    <_>
      <rect>
        0 7 10 6</rect></_>
    <_>
      <rect>
        0 7 10 7</rect></_>
    <_>
      <rect>
        0 8 4 7</rect></_>
    <_>
      <rect>
        0 8 10 7</rect></_>
    <_>
      <rect>
        0 10 3 5</rect></_>
    <_>
      <rect>
        0 10 3 6</rect></_>
    <_>
      <rect>
        0 11 3 5</rect></_>
    <_>
      <rect>
        0 12 1 1</rect></_>
    <_>
      <rect>
        0 12 3 3</rect></_>
    <_>
      <rect>
        0 12 4 6</rect></_>
    <_>
      <rect>
        0 12 6 6</rect></_>
    <_>
      <rect>
        0 14 1 1</rect></_>
    <_>
      <rect>
        0 15 1 1</rect></_>
    <_>
      <rect>
        0 16 1 1</rect></_>
    <_>
      <rect>
        0 17 6 4</rect></_>
    <_>
      <rect>
        1 0 6 5</rect></_>
    <_>
      <rect>
        1 0 7 6</rect></_>
    <_>
      <rect>
        1 0 8 6</rect></_>
    <_>
      <rect>
        1 4 8 8</rect></_>
    <_>
      <rect>
        1 5 6 8</rect></_>
    <_>
      <rect>
        1 8 4 7</rect></_>
    <_>
      <rect>
        1 15 8 5</rect></_>
    <_>
      <rect>
        2 3 6 9</rect></_>
    <_>
      <rect>
        3 0 8 4</rect></_>
    <_>
      <rect>
        3 2 9 8</rect></_>
    <_>
      <rect>
        3 6 3 5</rect></_>
    <_>
      <rect>
        3 14 7 2</rect></_>
    <_>
      <rect>
        4 10 5 4</rect></_>
    <_>
      <rect>
        4 11 2 3</rect></_>
    <_>
      <rect>
        4 12 4 3</rect></_>
    <_>
      <rect>
        4 13 4 3</rect></_>
    <_>
      <rect>
        5 0 8 10</rect></_>
    <_>
      <rect>
        5 2 8 7</rect></_>
    <_>
      <rect>
        5 3 8 8</rect></_>
    <_>
      <rect>
        5 5 7 3</rect></_>
    <_>
      <rect>
        5 6 3 2</rect></_>
    <_>
      <rect>
        5 9 4 5</rect></_>
    <_>
      <rect>
        5 9 5 3</rect></_>
    <_>
      <rect>
        5 10 2 3</rect></_>
    <_>
      <rect>
        5 12 4 3</rect></_>
    <_>
      <rect>
        5 12 6 2</rect></_>
    <_>
      <rect>
        5 12 7 2</rect></_>
    <_>
      <rect>
        5 13 5 2</rect></_>
    <_>
      <rect>
        5 13 6 2</rect></_>
    <_>
      <rect>
        5 15 7 2</rect></_>
    <_>
      <rect>
        6 0 7 10</rect></_>
    <_>
      <rect>
        6 11 5 3</rect></_>
    <_>
      <rect>
        6 12 5 2</rect></_>
    <_>
      <rect>
        6 13 2 2</rect></_>
    <_>
      <rect>
        6 15 2 2</rect></_>
    <_>
      <rect>
        6 17 3 2</rect></_>
    <_>
      <rect>
        7 3 5 7</rect></_>
    <_>
      <rect>
        7 8 7 7</rect></_>
    <_>
      <rect>
        7 10 6 4</rect></_>
    <_>
      <rect>
        7 11 6 4</rect></_>
    <_>
      <rect>
        7 12 4 3</rect></_>
    <_>
      <rect>
        7 13 2 3</rect></_>
    <_>
      <rect>
        8 8 5 4</rect></_>
    <_>
      <rect>
        8 11 4 3</rect></_>
    <_>
      <rect>
        8 12 3 2</rect></_>
    <_>
      <rect>
        8 12 5 3</rect></_>
    <_>
      <rect>
        8 14 3 3</rect></_>
    <_>
      <rect>
        8 14 4 3</rect></_>
    <_>
      <rect>
        9 1 7 7</rect></_>
    <_>
      <rect>
        9 3 5 5</rect></_>
    <_>
      <rect>
        9 4 7 6</rect></_>
    <_>
      <rect>
        9 6 4 4</rect></_>
    <_>
      <rect>
        9 8 4 5</rect></_>
    <_>
      <rect>
        9 9 7 4</rect></_>
    <_>
      <rect>
        9 10 2 3</rect></_>
    <_>
      <rect>
        9 11 2 2</rect></_>
    <_>
      <rect>
        9 13 5 2</rect></_>
    <_>
      <rect>
        9 14 4 3</rect></_>
    <_>
      <rect>
        9 15 1 1</rect></_>
    <_>
      <rect>
        9 19 6 3</rect></_>
    <_>
      <rect>
        10 7 4 3</rect></_>
    <_>
      <rect>
        10 8 5 4</rect></_>
    <_>
      <rect>
        10 9 2 2</rect></_>
    <_>
      <rect>
        10 10 2 2</rect></_>
    <_>
      <rect>
        10 11 3 2</rect></_>
    <_>
      <rect>
        10 11 4 2</rect></_>
    <_>
      <rect>
        10 12 3 3</rect></_>
    <_>
      <rect>
        10 13 3 3</rect></_>
    <_>
      <rect>
        10 15 1 1</rect></_>
    <_>
      <rect>
        11 4 4 3</rect></_>
    <_>
      <rect>
        11 6 4 3</rect></_>
    <_>
      <rect>
        11 8 3 4</rect></_>
    <_>
      <rect>
        11 9 3 5</rect></_>
    <_>
      <rect>
        11 11 3 2</rect></_>
    <_>
      <rect>
        11 12 1 2</rect></_>
    <_>
      <rect>
        11 15 4 3</rect></_>
    <_>
      <rect>
        11 17 1 1</rect></_>
    <_>
      <rect>
        11 17 4 2</rect></_>
    <_>
      <rect>
        12 0 6 10</rect></_>
    <_>
      <rect>
        12 1 6 7</rect></_>
    <_>
      <rect>
        12 6 6 8</rect></_>
    <_>
      <rect>
        12 8 3 4</rect></_>
    <_>
      <rect>
        12 9 2 2</rect></_>
    <_>
      <rect>
        12 9 3 4</rect></_>
    <_>
      <rect>
        12 10 2 1</rect></_>
    <_>
      <rect>
        12 11 3 4</rect></_>
    <_>
      <rect>
        12 11 4 3</rect></_>
    <_>
      <rect>
        12 13 4 3</rect></_>
    <_>
      <rect>
        12 15 1 1</rect></_>
    <_>
      <rect>
        12 16 3 2</rect></_>
    <_>
      <rect>
        12 16 4 2</rect></_>
    <_>
      <rect>
        12 17 1 1</rect></_>
    <_>
      <rect>
        12 18 6 4</rect></_>
    <_>
      <rect>
        13 8 4 3</rect></_>
    <_>
      <rect>
        13 9 3 3</rect></_>
    <_>
      <rect>
        13 10 2 1</rect></_>
    <_>
      <rect>
        13 10 3 1</rect></_>
    <_>
      <rect>
        13 10 4 1</rect></_>
    <_>
      <rect>
        13 11 2 1</rect></_>
    <_>
      <rect>
        13 11 3 2</rect></_>
    <_>
      <rect>
        13 12 3 1</rect></_>
    <_>
      <rect>
        13 12 3 3</rect></_>
    <_>
      <rect>
        13 13 3 3</rect></_>
    <_>
      <rect>
        13 14 3 2</rect></_>
    <_>
      <rect>
        13 14 4 3</rect></_>
    <_>
      <rect>
        13 16 1 1</rect></_>
    <_>
      <rect>
        13 17 1 1</rect></_>
    <_>
      <rect>
        14 5 3 3</rect></_>
    <_>
      <rect>
        14 5 4 3</rect></_>
    <_>
      <rect>
        14 7 1 1</rect></_>
    <_>
      <rect>
        14 9 2 1</rect></_>
    <_>
      <rect>
        14 9 2 2</rect></_>
    <_>
      <rect>
        14 11 3 3</rect></_>
    <_>
      <rect>
        14 12 4 3</rect></_>
    <_>
      <rect>
        14 15 1 1</rect></_>
    <_>
      <rect>
        14 16 1 1</rect></_>
    <_>
      <rect>
        14 17 1 1</rect></_>
    <_>
      <rect>
        15 8 3 3</rect></_>
    <_>
      <rect>
        15 8 5 7</rect></_>
    <_>
      <rect>
        15 9 3 3</rect></_>
    <_>
      <rect>
        15 11 1 1</rect></_>
    <_>
      <rect>
        15 12 4 3</rect></_>
    <_>
      <rect>
        15 12 5 6</rect></_>
    <_>
      <rect>
        15 14 1 1</rect></_>
    <_>
      <rect>
        15 14 3 2</rect></_>
    <_>
      <rect>
        15 15 1 1</rect></_>
    <_>
      <rect>
        15 17 3 1</rect></_>
    <_>
      <rect>
        15 17 5 4</rect></_>
    <_>
      <rect>
        15 18 1 1</rect></_>
    <_>
      <rect>
        16 5 3 4</rect></_>
    <_>
      <rect>
        16 8 1 1</rect></_>
    <_>
      <rect>
        16 10 2 1</rect></_>
    <_>
      <rect>
        16 10 2 2</rect></_>
    <_>
      <rect>
        16 10 3 3</rect></_>
    <_>
      <rect>
        16 11 1 1</rect></_>
    <_>
      <rect>
        16 12 1 1</rect></_>
    <_>
      <rect>
        16 12 2 2</rect></_>
    <_>
      <rect>
        16 12 4 6</rect></_>
    <_>
      <rect>
        16 13 2 3</rect></_>
    <_>
      <rect>
        16 14 1 1</rect></_>
    <_>
      <rect>
        16 18 1 1</rect></_>
    <_>
      <rect>
        17 7 3 3</rect></_>
    <_>
      <rect>
        17 9 1 1</rect></_>
    <_>
      <rect>
        17 9 2 3</rect></_>
    <_>
      <rect>
        17 10 2 3</rect></_>
    <_>
      <rect>
        17 10 3 2</rect></_>
    <_>
      <rect>
        17 11 1 1</rect></_>
    <_>
      <rect>
        17 11 2 3</rect></_>
    <_>
      <rect>
        17 11 3 4</rect></_>
    <_>
      <rect>
        17 12 1 1</rect></_>
    <_>
      <rect>
        17 13 1 1</rect></_>
    <_>
      <rect>
        17 14 1 1</rect></_>
    <_>
      <rect>
        17 17 1 1</rect></_>
    <_>
      <rect>
        18 1 4 5</rect></_>
    <_>
      <rect>
        18 9 4 7</rect></_>
    <_>
      <rect>
        18 10 1 1</rect></_>
    <_>
      <rect>
        18 11 1 1</rect></_>
    <_>
      <rect>
        18 12 3 3</rect></_>
    <_>
      <rect>
        18 13 3 2</rect></_>
    <_>
      <rect>
        18 16 1 1</rect></_>
    <_>
      <rect>
        19 10 1 1</rect></_>
    <_>
      <rect>
        19 10 3 2</rect></_>
    <_>
      <rect>
        19 11 1 1</rect></_>
    <_>
      <rect>
        19 12 2 2</rect></_>
    <_>
      <rect>
        19 14 2 2</rect></_>
    <_>
      <rect>
        19 15 1 1</rect></_>
    <_>
      <rect>
        19 15 2 2</rect></_>
    <_>
      <rect>
        20 15 1 1</rect></_>
    <_>
      <rect>
        20 16 1 2</rect></_>
    <_>
      <rect>
        21 0 3 8</rect></_>
    <_>
      <rect>
        21 0 3 10</rect></_>
    <_>
      <rect>
        21 6 3 8</rect></_>
    <_>
      <rect>
        21 11 2 1</rect></_>
    <_>
      <rect>
        21 14 1 1</rect></_>
    <_>
      <rect>
        21 15 1 1</rect></_>
    <_>
      <rect>
        22 16 1 1</rect></_>
    <_>
      <rect>
        24 3 2 9</rect></_></features></cascade>
</opencv_storage>
