<?xml version="1.0"?>
<opencv_storage>
<stage8>
  <maxWeakCount>25</maxWeakCount>
  <stageThreshold>-9.5639508962631226e-001</stageThreshold>
  <weakClassifiers>
    <_>
      <internalNodes>
        0 -1 367 1867513806 -550781459 -275742724 -44958227 -1335892005
        -342638374 -1235094583 -147590917</internalNodes>
      <leafValues>
        1.2068549403920770e-003 5.4978764057159424e-001</leafValues></_>
    <_>
      <internalNodes>
        0 -1 7351 1359343829 2007318741 119408479 -1892683951 -503281510
        -1127661312 1604277179 -270541941</internalNodes>
      <leafValues>
        -1.5313351154327393e-001 3.9393496513366699e-001</leafValues></_>
    <_>
      <internalNodes>
        0 -1 17515 -106956880 -743985771 205394993 -1213533799 922977448
        1057915214 2035155421 2072768414</internalNodes>
      <leafValues>
        -2.7442991733551025e-001 2.4500688910484314e-001</leafValues></_>
    <_>
      <internalNodes>
        0 -1 2089 -1638755461 -231543882 609760535 -395557830
        -1776469217 -1172010146 1862859513 2004828159</internalNodes>
      <leafValues>
        -2.9235836863517761e-001 2.2479715943336487e-001</leafValues></_>
    <_>
      <internalNodes>
        0 -1 11498 1517489694 496356102 2139340049 1057731362 1771288834
        -81615302 -170674462 -115082981</internalNodes>
      <leafValues>
        -2.8786528110504150e-001 2.1772845089435577e-001</leafValues></_>
    <_>
      <internalNodes>
        0 -1 16553 -1469593081 -1762586053 1021290975 2090865490
        -1893833971 -1080926217 -587239553 -593040057</internalNodes>
      <leafValues>
        -2.3108659684658051e-001 2.8377807140350342e-001</leafValues></_>
    <_>
      <internalNodes>
        0 -1 14344 -298644221 1086855 -1493291009 -1343443138 1633906549
        -1342472201 -321446724 -1394121216</internalNodes>
      <leafValues>
        -2.3354941606521606e-001 2.5766205787658691e-001</leafValues></_>
    <_>
      <internalNodes>
        0 -1 18679 598390705 -1561682946 -1431347849 -1612012422
        233547680 -1661472857 -1140976512 -505975360</internalNodes>
      <leafValues>
        -2.5256359577178955e-001 2.4136868119239807e-001</leafValues></_>
    <_>
      <internalNodes>
        0 -1 14173 -283446578 641967680 -1107031918 90282150 1598144964
        9748869 1551108250 227924944</internalNodes>
      <leafValues>
        -3.7755501270294189e-001 1.5582004189491272e-001</leafValues></_>
    <_>
      <internalNodes>
        0 -1 15607 -309872213 -2099193878 -1104478260 -436863910
        1201477013 1687147958 1174246652 -940583209</internalNodes>
      <leafValues>
        -2.2169910371303558e-001 2.6492843031883240e-001</leafValues></_>
    <_>
      <internalNodes>
        0 -1 12348 1618987022 370152310 1344327128 1066414246 604091914
        676698161 -1555311157 -586815318</internalNodes>
      <leafValues>
        -2.7760708332061768e-001 2.1979513764381409e-001</leafValues></_>
    <_>
      <internalNodes>
        0 -1 14391 921138071 -2088895649 -1820499105 925848447 645599436
        47897837 -1991923560 653781567</internalNodes>
      <leafValues>
        -2.5394946336746216e-001 2.4848356842994690e-001</leafValues></_>
    <_>
      <internalNodes>
        0 -1 16324 1153375028 184003726 -38930796 1479871274 -925118496
        -1363155316 -210518048 -1646554654</internalNodes>
      <leafValues>
        -3.1646415591239929e-001 2.0603461563587189e-001</leafValues></_>
    <_>
      <internalNodes>
        0 -1 17058 -1272918864 -1656304 -1218166759 -45088528
        -1971321861 434794386 1290601657 205672560</internalNodes>
      <leafValues>
        -4.0842282772064209e-001 1.5098148584365845e-001</leafValues></_>
    <_>
      <internalNodes>
        0 -1 8571 -2066824172 1428291738 -1199427201 99401818
        -2141015121 -2136069441 20695771 15703287</internalNodes>
      <leafValues>
        -3.5639712214469910e-001 1.6224743425846100e-001</leafValues></_>
    <_>
      <internalNodes>
        0 -1 18295 644223761 443725063 -2302577 -1221442708 651186360
        -1344904898 -119626348 -1509907148</internalNodes>
      <leafValues>
        -2.8614965081214905e-001 2.1672381460666656e-001</leafValues></_>
    <_>
      <internalNodes>
        0 -1 14088 -554702242 1343281702 1871704286 2133565466
        -328821262 -1626659823 537364714 -351697221</internalNodes>
      <leafValues>
        -2.1461243927478790e-001 3.0049818754196167e-001</leafValues></_>
    <_>
      <internalNodes>
        0 -1 1213 1834826982 1463033438 431958655 201339418 1884247927
        1963277569 603353086 322986102</internalNodes>
      <leafValues>
        -4.1765093803405762e-001 1.5365065634250641e-001</leafValues></_>
    <_>
      <internalNodes>
        0 -1 15095 -1435572729 1246925687 1893612987 -1339641036
        1483071397 -1128105161 1808226504 -1595707506</internalNodes>
      <leafValues>
        -2.5548490881919861e-001 2.5486984848976135e-001</leafValues></_>
    <_>
      <internalNodes>
        0 -1 12329 -1848908488 1340942194 1140920789 -816604055
        -644191046 1139247362 1004297172 1593741649</internalNodes>
      <leafValues>
        -2.7409186959266663e-001 2.4282045662403107e-001</leafValues></_>
    <_>
      <internalNodes>
        0 -1 6966 -70786393 1599300959 -1786424424 2131966347 21401984
        499713181 1153817769 1774051740</internalNodes>
      <leafValues>
        -2.3388336598873138e-001 2.8548446297645569e-001</leafValues></_>
    <_>
      <internalNodes>
        0 -1 15608 1206313386 587889914 -216691774 -1577506280 693290450
        203646466 166140120 1106997931</internalNodes>
      <leafValues>
        -3.2551997900009155e-001 2.0486569404602051e-001</leafValues></_>
    <_>
      <internalNodes>
        0 -1 7189 -856775075 410128075 1796373689 700684819 -594155716
        -581254247 -845107808 -1080577365</internalNodes>
      <leafValues>
        -2.5023549795150757e-001 2.5960573554039001e-001</leafValues></_>
    <_>
      <internalNodes>
        0 -1 15476 1887364224 1985494804 1776260061 288247532 343359369
        342958915 1863816649 729816971</internalNodes>
      <leafValues>
        -3.6971107125282288e-001 1.7820008099079132e-001</leafValues></_>
    <_>
      <internalNodes>
        0 -1 10496 -1393819665 -1103469033 1628010241 -574625181
        1292232090 -128821 -1718923112 -570557541</internalNodes>
      <leafValues>
        -1.7023201286792755e-001 3.7616977095603943e-001</leafValues></_></weakClassifiers></stage8>
</opencv_storage>
