<?xml version="1.0"?>
<opencv_storage>
<stage2>
  <maxWeakCount>15</maxWeakCount>
  <stageThreshold>-1.2172247171401978e+000</stageThreshold>
  <weakClassifiers>
    <_>
      <internalNodes>
        0 -1 608 -69272836 -82987953 1465972212 -136972033 -86001153
        -2496089 -620774657 -337</internalNodes>
      <leafValues>
        -1.2340246886014938e-001 7.1398639678955078e-001</leafValues></_>
    <_>
      <internalNodes>
        0 -1 16440 -137445158 -537948800 1509953817 -1683252304
        -620228950 -5333330 134351403 -72362993</internalNodes>
      <leafValues>
        -2.5150966644287109e-001 4.1974481940269470e-001</leafValues></_>
    <_>
      <internalNodes>
        0 -1 11111 1362342546 1901310776 -80367397 -203974419 468753087
        -2490925 -548021345 -70526758</internalNodes>
      <leafValues>
        -2.5857293605804443e-001 4.0783315896987915e-001</leafValues></_>
    <_>
      <internalNodes>
        0 -1 19180 749219125 991591282 2130384607 -1083165136 649926655
        -67473473 -1426190356 -1078712268</internalNodes>
      <leafValues>
        -3.3034530282020569e-001 3.1742557883262634e-001</leafValues></_>
    <_>
      <internalNodes>
        0 -1 17095 103952149 510672756 -612450309 -1094681552 1182560253
        -13206556 -285274916 -1414240928</internalNodes>
      <leafValues>
        -3.7136688828468323e-001 2.7508959174156189e-001</leafValues></_>
    <_>
      <internalNodes>
        0 -1 13301 1325591550 1058038560 857952536 322122242 1111507848
        1360269313 1766543451 1933799251</internalNodes>
      <leafValues>
        -4.7473549842834473e-001 1.9925205409526825e-001</leafValues></_>
    <_>
      <internalNodes>
        0 -1 975 1566521343 391260574 1360396590 1067451442 -257215577
        862268029 -134844741 2135307199</internalNodes>
      <leafValues>
        -3.5595211386680603e-001 2.7839154005050659e-001</leafValues></_>
    <_>
      <internalNodes>
        0 -1 18187 262970673 698662804 -2051428879 -12423448 1039136759
        -1342718097 664737941 -35657747</internalNodes>
      <leafValues>
        -2.8020760416984558e-001 3.4114378690719604e-001</leafValues></_>
    <_>
      <internalNodes>
        0 -1 6137 -2133330294 169477189 -2003457654 176754394 1196424878
        -1634103201 528320911 60549979</internalNodes>
      <leafValues>
        -4.2443963885307312e-001 2.3005345463752747e-001</leafValues></_>
    <_>
      <internalNodes>
        0 -1 1515 132631534 2136988635 -239022081 -1275078219 1274644174
        969041092 1703647898 1331511624</internalNodes>
      <leafValues>
        -4.0106710791587830e-001 2.3233628273010254e-001</leafValues></_>
    <_>
      <internalNodes>
        0 -1 14922 -553123926 195428002 1004376304 -78588386 18429
        1178697706 1475462384 -172501053</internalNodes>
      <leafValues>
        -3.4784466028213501e-001 2.8367266058921814e-001</leafValues></_>
    <_>
      <internalNodes>
        0 -1 14984 -92604730 -1084791920 287399987 828506274 -1736424244
        138678404 -1100935425 151079951</internalNodes>
      <leafValues>
        -4.3769261240959167e-001 2.1553471684455872e-001</leafValues></_>
    <_>
      <internalNodes>
        0 -1 4310 -188516376 -496570656 -544154412 -1039030024
        -394662980 539551948 -474306849 850111153</internalNodes>
      <leafValues>
        -4.4612649083137512e-001 2.2542364895343781e-001</leafValues></_>
    <_>
      <internalNodes>
        0 -1 16475 -1944686795 1059231284 -461422081 -1146976744
        765795189 -1090729488 -1342289612 -822195342</internalNodes>
      <leafValues>
        -3.2593467831611633e-001 2.9775109887123108e-001</leafValues></_>
    <_>
      <internalNodes>
        0 -1 19196 -937164528 2130260965 1068921303 -34249965
        -1556345353 740712319 -76674117 -1448868578</internalNodes>
      <leafValues>
        -3.4011238813400269e-001 2.8932106494903564e-001</leafValues></_></weakClassifiers></stage2>
</opencv_storage>
