<?xml version="1.0"?>
<opencv_storage>
<stage4>
  <maxWeakCount>21</maxWeakCount>
  <stageThreshold>-1.0354149341583252e+000</stageThreshold>
  <weakClassifiers>
    <_>
      <internalNodes>
        0 -1 679 -134219778 -11846962 -1316431492 1996445181 -545259522
        -1832910881 -86245665 -202899457</internalNodes>
      <leafValues>
        -4.3613016605377197e-002 6.1791741847991943e-001</leafValues></_>
    <_>
      <internalNodes>
        0 -1 11376 -278923265 1963288656 1963250737 1091668095
        -212733544 828593408 -516817957 1607859963</internalNodes>
      <leafValues>
        -2.1150493621826172e-001 4.1008332371711731e-001</leafValues></_>
    <_>
      <internalNodes>
        0 -1 12279 1126400706 1399878467 134363378 1406374360 1081129146
        -1083176623 1515289307 -68171381</internalNodes>
      <leafValues>
        -3.1744548678398132e-001 2.8446507453918457e-001</leafValues></_>
    <_>
      <internalNodes>
        0 -1 17596 -90576 2071920955 -1405088464 -1074983275 247595435
        453975434 264568973 535806894</internalNodes>
      <leafValues>
        -3.5833850502967834e-001 2.3736582696437836e-001</leafValues></_>
    <_>
      <internalNodes>
        0 -1 12550 112332565 716339989 -1258934409 -1080025338
        1014527781 -50364481 1828589104 -1392840780</internalNodes>
      <leafValues>
        -3.5554584860801697e-001 2.2223252058029175e-001</leafValues></_>
    <_>
      <internalNodes>
        0 -1 15036 -991756547 -711767707 1291930717 1576079475 536896220
        -1726951277 564199643 1898147139</internalNodes>
      <leafValues>
        -2.9668968915939331e-001 2.7162343263626099e-001</leafValues></_>
    <_>
      <internalNodes>
        0 -1 232 -993072402 -838611056 22806305 -1744871995 9234885
        -1911909047 4567763 336130</internalNodes>
      <leafValues>
        -4.8539260029792786e-001 1.5650162100791931e-001</leafValues></_>
    <_>
      <internalNodes>
        0 -1 14928 -861151446 -550841945 -1325502190 -163906886
        1114522043 1141573645 277832916 1205816063</internalNodes>
      <leafValues>
        -3.9286378026008606e-001 2.0105920732021332e-001</leafValues></_>
    <_>
      <internalNodes>
        0 -1 1050 -394891499 2014376027 -721883335 -541162718 1146291205
        -188789707 -236507904 -60559519</internalNodes>
      <leafValues>
        -2.8887763619422913e-001 2.9064404964447021e-001</leafValues></_>
    <_>
      <internalNodes>
        0 -1 8415 1965421967 2082149631 1033654489 623890517 1275318938
        -214232590 -1283092837 -38011186</internalNodes>
      <leafValues>
        -1.9206179678440094e-001 4.1135412454605103e-001</leafValues></_>
    <_>
      <internalNodes>
        0 -1 7297 -864029724 -631446892 -1949999350 220381919 -573310260
        -877421375 -553050869 -2121794561</internalNodes>
      <leafValues>
        -3.4182563424110413e-001 2.3619225621223450e-001</leafValues></_>
    <_>
      <internalNodes>
        0 -1 16565 -998324713 -1280264681 -625776805 -1297960837
        619850884 -1110745161 -830808428 -1465712894</internalNodes>
      <leafValues>
        -2.7117276191711426e-001 3.0275428295135498e-001</leafValues></_>
    <_>
      <internalNodes>
        0 -1 18246 -638172140 2068780306 422395801 -1692986831
        -1685582165 -574934237 657392408 -11797957</internalNodes>
      <leafValues>
        -2.7858570218086243e-001 2.8722977638244629e-001</leafValues></_>
    <_>
      <internalNodes>
        0 -1 18162 227270615 196547839 -302031099 215989052 359074020
        407541378 702412124 -1761628211</internalNodes>
      <leafValues>
        -2.6618331670761108e-001 3.0896756052970886e-001</leafValues></_>
    <_>
      <internalNodes>
        0 -1 14891 -13896709 1295057382 51594448 1362436863 1322304751
        1383617330 1783089631 -203423909</internalNodes>
      <leafValues>
        -2.0086641609668732e-001 4.1029757261276245e-001</leafValues></_>
    <_>
      <internalNodes>
        0 -1 17027 797413159 664846194 -269021321 -1082479132 493704687
        -822084147 -870397856 -1342716171</internalNodes>
      <leafValues>
        -2.1874089539051056e-001 3.5767775774002075e-001</leafValues></_>
    <_>
      <internalNodes>
        0 -1 17631 -1372963561 -1414610946 615854044 -1081307642
        753712629 -1345761369 -1868607008 -320216636</internalNodes>
      <leafValues>
        -2.8909632563591003e-001 2.8419768810272217e-001</leafValues></_>
    <_>
      <internalNodes>
        0 -1 15800 -529021934 2087717747 -405383562 842177458 -587264748
        -1444913965 -909421576 -260021626</internalNodes>
      <leafValues>
        -3.1335410475730896e-001 2.6626500487327576e-001</leafValues></_>
    <_>
      <internalNodes>
        0 -1 4557 -856688785 -2054947934 -1048849287 -1476400281
        67558511 -2003155200 1078458051 -858787121</internalNodes>
      <leafValues>
        -2.2076004743576050e-001 3.6891734600067139e-001</leafValues></_>
    <_>
      <internalNodes>
        0 -1 16500 610725719 409531684 -392174665 -1535072752
        -1447137483 -402456837 -889320260 -287281600</internalNodes>
      <leafValues>
        -3.0513119697570801e-001 2.8173789381980896e-001</leafValues></_>
    <_>
      <internalNodes>
        0 -1 12389 -562045763 456349463 -1637757390 396050466 -305363793
        -1156226833 -813301782 -975972945</internalNodes>
      <leafValues>
        -2.0845375955104828e-001 4.2337784171104431e-001</leafValues></_></weakClassifiers></stage4>
</opencv_storage>
