<?xml version="1.0"?>
<opencv_storage>
<stage9>
  <maxWeakCount>26</maxWeakCount>
  <stageThreshold>-1.0029984712600708e+000</stageThreshold>
  <weakClassifiers>
    <_>
      <internalNodes>
        0 -1 749 -316689478 -68216881 -781946324 2130538708 988269486
        2069059038 1945886202 1946120687</internalNodes>
      <leafValues>
        -6.9996714591979980e-002 4.9792140722274780e-001</leafValues></_>
    <_>
      <internalNodes>
        0 -1 17010 -1356269645 -1922308 -1107829260 -1647450908
        219289591 2141502845 162858165 -838909772</internalNodes>
      <leafValues>
        -2.2984620928764343e-001 2.7934795618057251e-001</leafValues></_>
    <_>
      <internalNodes>
        0 -1 19600 145887093 749879155 -1344063499 -1411737484
        1072633749 -1074086705 -1496897092 -1073865132</internalNodes>
      <leafValues>
        -2.7054041624069214e-001 2.2758176922798157e-001</leafValues></_>
    <_>
      <internalNodes>
        0 -1 6935 11242146 324123576 -888463238 -1812784143 52759283
        921570489 444589567 1243697503</internalNodes>
      <leafValues>
        -3.7181559205055237e-001 1.6485103964805603e-001</leafValues></_>
    <_>
      <internalNodes>
        0 -1 8462 -68963883 1966503121 501679133 -1892974565 -1827882358
        -781072493 1070845883 -268597</internalNodes>
      <leafValues>
        -1.7047972977161407e-001 3.7146651744842529e-001</leafValues></_>
    <_>
      <internalNodes>
        0 -1 18661 -1397506253 -1465598026 2146407665 -1151943820
        -816071177 -1913785201 -637846128 -302000960</internalNodes>
      <leafValues>
        -2.3400488495826721e-001 2.6686868071556091e-001</leafValues></_>
    <_>
      <internalNodes>
        0 -1 19312 -14685424 796914290 896911221 -1742673863 -465608933
        1000294659 -104089453 6578323</internalNodes>
      <leafValues>
        -3.5306754708290100e-001 1.7300593852996826e-001</leafValues></_>
    <_>
      <internalNodes>
        0 -1 6182 -1939295512 215502623 248860302 183122174 427816420
        -2036662868 1574668421 254672091</internalNodes>
      <leafValues>
        -4.3479871749877930e-001 1.2978011369705200e-001</leafValues></_>
    <_>
      <internalNodes>
        0 -1 11596 1364848894 -138669415 151590169 230398027 -2140081506
        -1466865212 -1190589253 -1458441905</internalNodes>
      <leafValues>
        -2.1419666707515717e-001 2.8047680854797363e-001</leafValues></_>
    <_>
      <internalNodes>
        0 -1 1150 1845459251 1764784985 -551915710 -1345140971
        1076848433 -1474183065 -520944560 -180009193</internalNodes>
      <leafValues>
        -2.5126042962074280e-001 2.4547247588634491e-001</leafValues></_>
    <_>
      <internalNodes>
        0 -1 14329 -195960617 -678361833 277010427 -50244195 -1305290021
        285268244 -1193263137 -37246053</internalNodes>
      <leafValues>
        -1.6170834004878998e-001 3.8426658511161804e-001</leafValues></_>
    <_>
      <internalNodes>
        0 -1 15775 1190546519 309646623 -1342728513 -1355275866
        1832847189 -118166129 -304399684 -856395978</internalNodes>
      <leafValues>
        -2.3666279017925262e-001 2.6526281237602234e-001</leafValues></_>
    <_>
      <internalNodes>
        0 -1 13104 2070067336 1897104341 151091454 1106898999 404786866
        207132145 2020852683 -288749553</internalNodes>
      <leafValues>
        -2.8906565904617310e-001 2.2242069244384766e-001</leafValues></_>
    <_>
      <internalNodes>
        0 -1 18751 -662929827 -475324603 406044045 2069045506
        -1183535906 -185084137 754539727 -72678550</internalNodes>
      <leafValues>
        -1.8671739101409912e-001 3.2169482111930847e-001</leafValues></_>
    <_>
      <internalNodes>
        0 -1 17074 570162111 2088211383 223290688 89073288 347964656
        1912200254 252317632 564401664</internalNodes>
      <leafValues>
        -3.7863463163375854e-001 1.6111078858375549e-001</leafValues></_>
    <_>
      <internalNodes>
        0 -1 16874 -40458568 -23210963 -1845996175 183027391 1593893768
        498209970 1992841007 -894761822</internalNodes>
      <leafValues>
        -2.5916111469268799e-001 2.4214659631252289e-001</leafValues></_>
    <_>
      <internalNodes>
        0 -1 940 -603980941 -800332325 1736926709 -554015328 645362261
        1568458061 -792759483 -163610811</internalNodes>
      <leafValues>
        -2.1620529890060425e-001 2.8317108750343323e-001</leafValues></_>
    <_>
      <internalNodes>
        0 -1 20373 223307061 -1520443033 1891849951 89987404 -805578451
        -180211327 1341714703 102409590</internalNodes>
      <leafValues>
        -2.7536898851394653e-001 2.2092296183109283e-001</leafValues></_>
    <_>
      <internalNodes>
        0 -1 669 18851554 603350483 1704993664 -986213955 636092284
        -1280245419 132446922 1942700712</internalNodes>
      <leafValues>
        -3.5294359922409058e-001 1.7610426247119904e-001</leafValues></_>
    <_>
      <internalNodes>
        0 -1 7346 -1222651403 2140493429 -168069731 -1617983681
        -92228960 -633699920 -918353525 -38012529</internalNodes>
      <leafValues>
        -1.4042088389396667e-001 4.7912502288818359e-001</leafValues></_>
    <_>
      <internalNodes>
        0 -1 11645 145098517 839032639 -1160562821 800108514 1913540094
        -1884754101 -21489972 -1427054828</internalNodes>
      <leafValues>
        -2.7357703447341919e-001 2.4283479154109955e-001</leafValues></_>
    <_>
      <internalNodes>
        0 -1 13008 1192796896 2142934 1963791797 -473136499 1466474447
        712942525 -242093666 23602264</internalNodes>
      <leafValues>
        -3.7093478441238403e-001 1.6926403343677521e-001</leafValues></_>
    <_>
      <internalNodes>
        0 -1 16390 -1345587273 71498548 -575703342 -1435852960
        1505707317 -893792905 167711924 -50335889</internalNodes>
      <leafValues>
        -2.2628602385520935e-001 2.8874307870864868e-001</leafValues></_>
    <_>
      <internalNodes>
        0 -1 17051 615288663 -1933904010 -1149822683 -1750945680
        343377237 -1631655749 -1510077984 -1998102168</internalNodes>
      <leafValues>
        -2.7351570129394531e-001 2.3074935376644135e-001</leafValues></_>
    <_>
      <internalNodes>
        0 -1 93 -1143370962 -1152412868 -353054307 -910723147 1458490215
        -1569176449 2120808517 1299567483</internalNodes>
      <leafValues>
        -2.7581730484962463e-001 2.3676760494709015e-001</leafValues></_>
    <_>
      <internalNodes>
        0 -1 17167 1216235014 1000566087 -1901916035 740723051 284842292
        1239407445 -688229684 -119215258</internalNodes>
      <leafValues>
        -2.9600259661674500e-001 2.1908046305179596e-001</leafValues></_></weakClassifiers></stage9>
</opencv_storage>
