<?xml version="1.0"?>
<opencv_storage>
<stage7>
  <maxWeakCount>25</maxWeakCount>
  <stageThreshold>-8.1539732217788696e-001</stageThreshold>
  <weakClassifiers>
    <_>
      <internalNodes>
        0 -1 351 -1649773826 -67195137 -139183274 -8388625 -1292331109
        -1309008639 -201378841 2139044763</internalNodes>
      <leafValues>
        -8.0964155495166779e-002 5.1789647340774536e-001</leafValues></_>
    <_>
      <internalNodes>
        0 -1 9494 -1966625 -11011759 -2071930419 710103217 -1693393816
        1664201792 -39453985 -861543224</internalNodes>
      <leafValues>
        -1.9829425215721130e-001 3.5044988989830017e-001</leafValues></_>
    <_>
      <internalNodes>
        0 -1 17564 -543493200 1073388284 2146048061 1033967728 436213759
        -1881567784 1298400349 231670361</internalNodes>
      <leafValues>
        -3.6057895421981812e-001 1.8734905123710632e-001</leafValues></_>
    <_>
      <internalNodes>
        0 -1 9369 -1143274756 -1170881587 685558108 -1417870883
        -1741907208 -1575912217 -1189217295 2059391733</internalNodes>
      <leafValues>
        -3.6420613527297974e-001 1.8811582028865814e-001</leafValues></_>
    <_>
      <internalNodes>
        0 -1 16486 -287520561 -536999286 2139249879 990814386 685791707
        -1082472841 1743343455 -1616457134</internalNodes>
      <leafValues>
        -2.3217974603176117e-001 2.8582385182380676e-001</leafValues></_>
    <_>
      <internalNodes>
        0 -1 16947 -1431049433 640740934 -1514165228 -140899726
        1291836757 1300215647 -1596309404 -994642396</internalNodes>
      <leafValues>
        -2.9526761174201965e-001 2.1625053882598877e-001</leafValues></_>
    <_>
      <internalNodes>
        0 -1 5036 -1064648493 -25108352 1849206009 -313546739
        -2074022146 -10859742 1334489999 -5756</internalNodes>
      <leafValues>
        -2.1146191656589508e-001 2.9195442795753479e-001</leafValues></_>
    <_>
      <internalNodes>
        0 -1 12468 -554371162 -49262188 1547715720 -1077949418 354537663
        1575622039 825295064 -36597607</internalNodes>
      <leafValues>
        -2.7706927061080933e-001 2.1521192789077759e-001</leafValues></_>
    <_>
      <internalNodes>
        0 -1 14946 -538974237 136502541 -589041238 -69534548 1146078967
        483459031 -858704644 -236980501</internalNodes>
      <leafValues>
        -1.9462859630584717e-001 3.1062063574790955e-001</leafValues></_>
    <_>
      <internalNodes>
        0 -1 1504 244181869 1057186633 755240445 422736726 1644938615
        185827715 150619439 1077953624</internalNodes>
      <leafValues>
        -3.8977625966072083e-001 1.5866394340991974e-001</leafValues></_>
    <_>
      <internalNodes>
        0 -1 9552 1212347646 1499234538 -1962272725 1172275753
        -966112520 -2038820949 -1919694117 45024719</internalNodes>
      <leafValues>
        -3.1478327512741089e-001 2.0404426753520966e-001</leafValues></_>
    <_>
      <internalNodes>
        0 -1 16449 -1947787589 1264577083 200681529 418325392 427634904
        32766615 461317092 721398186</internalNodes>
      <leafValues>
        -2.8931730985641479e-001 2.1680819988250732e-001</leafValues></_>
    <_>
      <internalNodes>
        0 -1 7155 -363086912 2069745728 -1274942456 991679653 1191391001
        1943540121 1075424203 1937495248</internalNodes>
      <leafValues>
        -2.9737347364425659e-001 2.1647883951663971e-001</leafValues></_>
    <_>
      <internalNodes>
        0 -1 18745 671220791 -1162866825 -1449189771 -350611108
        1488496949 -1359255619 -1077991435 -1343062266</internalNodes>
      <leafValues>
        -2.6122966408729553e-001 2.4027341604232788e-001</leafValues></_>
    <_>
      <internalNodes>
        0 -1 17555 -1539854989 -1478051214 -218382730 -67194890
        1155429684 -1439959098 1307790928 -879895211</internalNodes>
      <leafValues>
        -2.2425685822963715e-001 2.7618905901908875e-001</leafValues></_>
    <_>
      <internalNodes>
        0 -1 18736 -868577699 1990176000 -1624820931 1966833717
        -107798021 -1143263393 179776255 -1141209254</internalNodes>
      <leafValues>
        -2.0799641311168671e-001 3.1156766414642334e-001</leafValues></_>
    <_>
      <internalNodes>
        0 -1 19314 -549890608 697500096 -1225869867 108068157
        -1041473519 162426885 -9870815 141850960</internalNodes>
      <leafValues>
        -4.7426494956016541e-001 1.3777671754360199e-001</leafValues></_>
    <_>
      <internalNodes>
        0 -1 13474 619915777 845122675 -302010441 -1885956332 74185781
        -1133683331 -1996553507 -926984195</internalNodes>
      <leafValues>
        -2.3956434428691864e-001 2.7116423845291138e-001</leafValues></_>
    <_>
      <internalNodes>
        0 -1 18674 -137383024 304321329 2058624785 -1325386893 188224699
        858067999 1469842840 221444863</internalNodes>
      <leafValues>
        -3.1497403979301453e-001 2.0608828961849213e-001</leafValues></_>
    <_>
      <internalNodes>
        0 -1 896 1027233631 1979754542 -549806520 40122254 875633729
        810645063 1796490548 2488079</internalNodes>
      <leafValues>
        -4.0906199812889099e-001 1.6908477246761322e-001</leafValues></_>
    <_>
      <internalNodes>
        0 -1 8491 141460528 529278191 875073945 126823599 686138049
        774919856 154622393 682617299</internalNodes>
      <leafValues>
        -3.8057857751846313e-001 1.6495558619499207e-001</leafValues></_>
    <_>
      <internalNodes>
        0 -1 10607 -53477694 441319463 -1438098346 1800839904 1427435690
        -1922268274 339823247 78926511</internalNodes>
      <leafValues>
        -3.5635977983474731e-001 1.8165872991085052e-001</leafValues></_>
    <_>
      <internalNodes>
        0 -1 13185 2146434815 1432727520 1923186705 837147516 1522684744
        1790789126 -771106153 -75105313</internalNodes>
      <leafValues>
        -1.9556240737438202e-001 3.5716497898101807e-001</leafValues></_>
    <_>
      <internalNodes>
        0 -1 15042 1547892318 1453008398 -22786796 -324262241 -738700002
        349212323 1016086875 -1651905464</internalNodes>
      <leafValues>
        -2.8605639934539795e-001 2.3637573421001434e-001</leafValues></_>
    <_>
      <internalNodes>
        0 -1 15012 -772023073 186630580 893403987 1268847335 -128880169
        1233077525 2009350686 453079111</internalNodes>
      <leafValues>
        -2.6912301778793335e-001 2.4743537604808807e-001</leafValues></_></weakClassifiers></stage7>
</opencv_storage>
