<?xml version="1.0"?>
<opencv_storage>
<stage5>
  <maxWeakCount>24</maxWeakCount>
  <stageThreshold>-8.4719407558441162e-001</stageThreshold>
  <weakClassifiers>
    <_>
      <internalNodes>
        0 -1 6746 2131970816 2143284868 1912306161 2132408568
        -1615077521 -822415366 -4325385 -72497987</internalNodes>
      <leafValues>
        -6.4431637525558472e-002 5.6061059236526489e-001</leafValues></_>
    <_>
      <internalNodes>
        0 -1 6048 -424673396 -956447104 -545237880 -284297591 -56692788
        -1075840633 -1909865592 -15992357</internalNodes>
      <leafValues>
        -3.0999851226806641e-001 2.6581010222434998e-001</leafValues></_>
    <_>
      <internalNodes>
        0 -1 13995 -16821764 148834233 1888508240 -1145103221 -468022532
        213564541 -88630347 -1413760083</internalNodes>
      <leafValues>
        -3.2428768277168274e-001 2.3172283172607422e-001</leafValues></_>
    <_>
      <internalNodes>
        0 -1 7436 -912237323 -83818752 -830043173 -1449035007 294174904
        -1120913920 -724773393 -278659509</internalNodes>
      <leafValues>
        -2.0326471328735352e-001 3.4320911765098572e-001</leafValues></_>
    <_>
      <internalNodes>
        0 -1 26 -287315713 -809116050 -872038221 -24647487 -2007904353
        -1433492907 1153946081 1104670833</internalNodes>
      <leafValues>
        -2.7064713835716248e-001 2.6404368877410889e-001</leafValues></_>
    <_>
      <internalNodes>
        0 -1 17009 703767458 736533154 -1616685904 -34704852 1088300277
        230993717 1422869972 1105323773</internalNodes>
      <leafValues>
        -4.0779003500938416e-001 1.6076053678989410e-001</leafValues></_>
    <_>
      <internalNodes>
        0 -1 17655 -1431433393 1059516410 -1073774600 -66440 1827318781
        1039840111 769606893 -1392880572</internalNodes>
      <leafValues>
        -2.7304783463478088e-001 2.4646516144275665e-001</leafValues></_>
    <_>
      <internalNodes>
        0 -1 14097 1936193178 -4224445 -1325284336 758237439 -20397930
        735270912 -117383013 -101361977</internalNodes>
      <leafValues>
        -2.4788953363895416e-001 2.7016973495483398e-001</leafValues></_>
    <_>
      <internalNodes>
        0 -1 18225 -70859556 1057438844 -734446575 -1858521259
        -1154841925 1052402295 1206002207 514263130</internalNodes>
      <leafValues>
        -2.8076988458633423e-001 2.3804821074008942e-001</leafValues></_>
    <_>
      <internalNodes>
        0 -1 11445 -16778685 -1438439062 -134124273 2079711067
        -1686573637 -1197229869 -1628418291 -318833387</internalNodes>
      <leafValues>
        -2.1002899110317230e-001 3.2808876037597656e-001</leafValues></_>
    <_>
      <internalNodes>
        0 -1 11457 -553670068 1567600050 672833554 992981027 -1338598782
        -58017638 -928003173 -869540813</internalNodes>
      <leafValues>
        -2.3855125904083252e-001 2.8628680109977722e-001</leafValues></_>
    <_>
      <internalNodes>
        0 -1 17591 -572729864 -1142088620 -1154447215 489898020
        -837286241 -70086780 1289882107 -1985754661</internalNodes>
      <leafValues>
        -2.9204568266868591e-001 2.4234248697757721e-001</leafValues></_>
    <_>
      <internalNodes>
        0 -1 11273 -370297190 968966516 1510151005 282584012 2051054344
        -16950207 -1680544817 -206975525</internalNodes>
      <leafValues>
        -2.5244048237800598e-001 2.7851903438568115e-001</leafValues></_>
    <_>
      <internalNodes>
        0 -1 963 1903638879 441868125 1263987035 -1312546540 727322901
        425946993 996440810 409632527</internalNodes>
      <leafValues>
        -3.4234216809272766e-001 2.1508929133415222e-001</leafValues></_>
    <_>
      <internalNodes>
        0 -1 1525 221225198 849864664 2140892409 988805456 580069067
        838476148 531456712 52445432</internalNodes>
      <leafValues>
        -4.7813850641250610e-001 1.3226072490215302e-001</leafValues></_>
    <_>
      <internalNodes>
        0 -1 11627 -1197613348 1719028949 1288998032 -640499288
        -268109638 -1728032587 1814612664 -276434785</internalNodes>
      <leafValues>
        -2.9386225342750549e-001 2.4704274535179138e-001</leafValues></_>
    <_>
      <internalNodes>
        0 -1 17675 172494608 -1074645348 520003184 -1184864652
        -1970469395 -1108951118 217782476 -1443085024</internalNodes>
      <leafValues>
        -3.5007452964782715e-001 2.0477060973644257e-001</leafValues></_>
    <_>
      <internalNodes>
        0 -1 15075 -597520633 -1876540625 -411694346 -1096669274
        -428103883 -1194137627 -56857840 -1462075626</internalNodes>
      <leafValues>
        -2.7147725224494934e-001 2.7170392870903015e-001</leafValues></_>
    <_>
      <internalNodes>
        0 -1 14953 1233707198 -30113646 1173823716 820691154 1111629823
        811733152 5459097 1361785938</internalNodes>
      <leafValues>
        -4.1996145248413086e-001 1.6591501235961914e-001</leafValues></_>
    <_>
      <internalNodes>
        0 -1 19555 -432021997 69890702 -2042629423 -283090371 781534885
        1278242863 1340348148 -742656121</internalNodes>
      <leafValues>
        -2.4668744206428528e-001 2.8274759650230408e-001</leafValues></_>
    <_>
      <internalNodes>
        0 -1 6077 -863056129 -778128174 -1816682919 788746507 1214143527
        -360363211 -745568220 1340833807</internalNodes>
      <leafValues>
        -2.5320145487785339e-001 2.7459430694580078e-001</leafValues></_>
    <_>
      <internalNodes>
        0 -1 7314 -2017333015 -1152168939 -2058600301 -1891904303
        -1329559320 -1318810495 500912267 -303577781</internalNodes>
      <leafValues>
        -2.1092101931571960e-001 3.2625183463096619e-001</leafValues></_>
    <_>
      <internalNodes>
        0 -1 13741 1601175315 1560853590 -589898065 283972685 -253763693
        2080661330 -537985753 -1998548785</internalNodes>
      <leafValues>
        -2.4243225157260895e-001 2.9880827665328979e-001</leafValues></_>
    <_>
      <internalNodes>
        0 -1 12431 -554512576 458480899 1529300017 973132771 1248776648
        1443415571 1229605514 860092227</internalNodes>
      <leafValues>
        -3.6273998022079468e-001 2.0958276093006134e-001</leafValues></_></weakClassifiers></stage5>
</opencv_storage>
