<?xml version="1.0"?>
<opencv_storage>
<stage1>
  <maxWeakCount>14</maxWeakCount>
  <stageThreshold>-8.2916218042373657e-001</stageThreshold>
  <weakClassifiers>
    <_>
      <internalNodes>
        0 -1 678 -10027282 -217353309 -194982040 -134743555 -387122438
        -207882645 -86573313 -67111937</internalNodes>
      <leafValues>
        -1.5858632326126099e-001 6.9010841846466064e-001</leafValues></_>
    <_>
      <internalNodes>
        0 -1 3060 -201392202 -70082566 -8653953 -8405070 -1697996390
        -1103611080 -1174676737 -1140901189</internalNodes>
      <leafValues>
        -2.9407271742820740e-001 4.1492760181427002e-001</leafValues></_>
    <_>
      <internalNodes>
        0 -1 36 -806367497 -1084541217 -807440901 -838862849 1078970367
        -385506185 100091093 18288720</internalNodes>
      <leafValues>
        -3.5727348923683167e-001 2.9091081023216248e-001</leafValues></_>
    <_>
      <internalNodes>
        0 -1 9452 -12063249 -11053805 134267085 256367683 -342819336
        1936733584 1293012120 -839518381</internalNodes>
      <leafValues>
        -2.7967649698257446e-001 3.7862154841423035e-001</leafValues></_>
    <_>
      <internalNodes>
        0 -1 17622 -3220004 -33819970 -1811405823 -1718146791 1589935752
        -1118880 -1409283574 -1427420133</internalNodes>
      <leafValues>
        -3.7525501847267151e-001 2.6183810830116272e-001</leafValues></_>
    <_>
      <internalNodes>
        0 -1 17906 -12624109 1752463127 2055075771 672807946 1777022271
        -290802793 -1149566977 572551762</internalNodes>
      <leafValues>
        -3.5709384083747864e-001 2.9136496782302856e-001</leafValues></_>
    <_>
      <internalNodes>
        0 -1 16564 724516799 213364730 -1417701385 -1342195713 635734172
        14482605 234367040 45323329</internalNodes>
      <leafValues>
        -4.4795092940330505e-001 2.0914445817470551e-001</leafValues></_>
    <_>
      <internalNodes>
        0 -1 15679 -3486514 -541595325 -1555036967 186845783 -26193925
        -1169026992 1675759599 703941699</internalNodes>
      <leafValues>
        -3.7768176198005676e-001 2.5175580382347107e-001</leafValues></_>
    <_>
      <internalNodes>
        0 -1 1100 -402703065 -366285033 -1828821259 -34149065 1473650961
        -830580972 1530230276 -11058159</internalNodes>
      <leafValues>
        -2.8380537033081055e-001 3.5265880823135376e-001</leafValues></_>
    <_>
      <internalNodes>
        0 -1 707 -1334395009 280405620 -1199800324 -1167695262 811626094
        573587315 322402303 2049991275</internalNodes>
      <leafValues>
        -4.1926088929176331e-001 2.1862974762916565e-001</leafValues></_>
    <_>
      <internalNodes>
        0 -1 17607 -1903516239 229259184 -1411434187 -1126676 268146119
        -1378963457 -1971499708 -571476508</internalNodes>
      <leafValues>
        -2.8547850251197815e-001 3.2875105738639832e-001</leafValues></_>
    <_>
      <internalNodes>
        0 -1 14055 -9437478 1406736972 -686472048 1630128339 1912641483
        2138117648 -150803745 -68691061</internalNodes>
      <leafValues>
        -2.5802883505821228e-001 3.7999358773231506e-001</leafValues></_>
    <_>
      <internalNodes>
        0 -1 11187 1639145217 164687616 1576206105 41256185 -17912159
        -1700206607 -137232651 -549736201</internalNodes>
      <leafValues>
        -2.8956869244575500e-001 3.1842038035392761e-001</leafValues></_>
    <_>
      <internalNodes>
        0 -1 17082 -131052460 935036939 -1992290987 195430401 1307330801
        -289166237 -1703930326 703610898</internalNodes>
      <leafValues>
        -4.7305858135223389e-001 2.2016197443008423e-001</leafValues></_></weakClassifiers></stage1>
</opencv_storage>
