<?xml version="1.0"?>
<opencv_storage>
<cascade>
  <stageType>BOOST</stageType>
  <featureType>LBP</featureType>
  <height>20</height>
  <width>20</width>
  <stageParams>
    <boostType>GAB</boostType>
    <minHitRate>9.9500000476837158e-001</minHitRate>
    <maxFalseAlarm>5.0000000000000000e-001</maxFalseAlarm>
    <weightTrimRate>9.4999999999999996e-001</weightTrimRate>
    <maxDepth>1</maxDepth>
    <maxWeakCount>100</maxWeakCount></stageParams>
  <featureParams>
    <maxCatCount>256</maxCatCount>
    <featSize>1</featSize></featureParams>
  <stageNum>10</stageNum>
  <stages>
    <!-- stage 0 -->
    <_>
      <maxWeakCount>13</maxWeakCount>
      <stageThreshold>-1.1041374206542969e+000</stageThreshold>
      <weakClassifiers>
        <_>
          <internalNodes>
            0 -1 36 -297730356 -83842676 -536807720 -11011592
            -1571509510 -224151110 -218645509 -1073759233</internalNodes>
          <leafValues>
            -3.3533424139022827e-001 6.9188004732131958e-001</leafValues></_>
        <_>
          <internalNodes>
            0 -1 44 -285221176 -862797180 -6175608 -854618584 -553665652
            -268453908 -620499511 -275776673</internalNodes>
          <leafValues>
            -3.5155171155929565e-001 4.2662864923477173e-001</leafValues></_>
        <_>
          <internalNodes>
            0 -1 55 -8541444 -185138697 -51785000 825691129 -16930307
            -1434541825 -16794627 1073685501</internalNodes>
          <leafValues>
            -4.2534935474395752e-001 3.3503568172454834e-001</leafValues></_>
        <_>
          <internalNodes>
            0 -1 192 -4751597 540344119 924351551 -1594851713 2137487675
            -65341530 -85984325 539030074</internalNodes>
          <leafValues>
            -3.7328588962554932e-001 3.1601539254188538e-001</leafValues></_>
        <_>
          <internalNodes>
            0 -1 13 -71942273 1882329998 1996359999 -1091421578
            440871486 807413567 1932738431 2122284671</internalNodes>
          <leafValues>
            -3.6574324965476990e-001 2.9854890704154968e-001</leafValues></_>
        <_>
          <internalNodes>
            0 -1 127 -26542338 922943488 570426459 399573212 1241571534
            272966404 -1388270901 2134989895</internalNodes>
          <leafValues>
            -4.4341745972633362e-001 2.4069398641586304e-001</leafValues></_>
        <_>
          <internalNodes>
            0 -1 114 1291913472 2138173150 1460119153 -1240776
            -613285965 2045881540 -74342405 -809465712</internalNodes>
          <leafValues>
            -3.9447608590126038e-001 2.6329287886619568e-001</leafValues></_>
        <_>
          <internalNodes>
            0 -1 42 992684463 1926192573 119089144 720707322 637443807
            -1313870963 1123303532 576090624</internalNodes>
          <leafValues>
            -4.2056468129158020e-001 2.6009005308151245e-001</leafValues></_>
        <_>
          <internalNodes>
            0 -1 2 265023460 131963891 2012737005 -1140853256 126977999
            1068901024 1775173838 255852544</internalNodes>
          <leafValues>
            -5.0661391019821167e-001 2.0204506814479828e-001</leafValues></_>
        <_>
          <internalNodes>
            0 -1 173 -68530980 -38335248 -1216201701 -1817116235
            -83318082 -1078014210 -1094975477 -1078243121</internalNodes>
          <leafValues>
            -3.2317963242530823e-001 3.2592168450355530e-001</leafValues></_>
        <_>
          <internalNodes>
            0 -1 11 1481832279 -1539030430 1009122879 -1454376994
            946961273 589338463 90692 1075858211</internalNodes>
          <leafValues>
            -4.6152523159980774e-001 2.3359650373458862e-001</leafValues></_>
        <_>
          <internalNodes>
            0 -1 140 -1089284458 -241121038 1209073884 358973490
            1678829786 1593985074 68319 -317719057</internalNodes>
          <leafValues>
            -3.1489324569702148e-001 3.2100591063499451e-001</leafValues></_>
        <_>
          <internalNodes>
            0 -1 24 -827634551 1064301870 1604837631 651907708
            1116512495 1147138023 104269010 12866700</internalNodes>
          <leafValues>
            -4.5244714617729187e-001 2.1588341891765594e-001</leafValues></_></weakClassifiers></_>
    <!-- stage 1 -->
    <_>
      <maxWeakCount>13</maxWeakCount>
      <stageThreshold>-1.1584680080413818e+000</stageThreshold>
      <weakClassifiers>
        <_>
          <internalNodes>
            0 -1 14 -85001494 -540383358 1445002708 -138162150
            -350168641 -1685704257 -1817120005 -2100225</internalNodes>
          <leafValues>
            -2.2908720374107361e-001 6.7016905546188354e-001</leafValues></_>
        <_>
          <internalNodes>
            0 -1 56 2861738 333152376 -485410215 1979685081 724613243
            2044905980 1225061327 -474230565</internalNodes>
          <leafValues>
            -3.2811641693115234e-001 3.9959481358528137e-001</leafValues></_>
        <_>
          <internalNodes>
            0 -1 153 -341318 -18875880 -1892480769 128918629 1210089646
            -563606422 65759 -540062469</internalNodes>
          <leafValues>
            -3.1661689281463623e-001 3.7446725368499756e-001</leafValues></_>
        <_>
          <internalNodes>
            0 -1 18 -76071553 2135299515 -1722843265 1017124766
            472189823 962598767 1065334767 -277446657</internalNodes>
          <leafValues>
            -2.9318988323211670e-001 3.8461014628410339e-001</leafValues></_>
        <_>
          <internalNodes>
            0 -1 145 -53819710 -639923742 252844801 -1626087390
            1862813610 2147424454 738329867 -608218101</internalNodes>
          <leafValues>
            -3.8969454169273376e-001 2.6753422617912292e-001</leafValues></_>
        <_>
          <internalNodes>
            0 -1 6 -957628205 -1426070313 -2133715879 -1739592878
            1683484673 -1961362082 4289264 1078157344</internalNodes>
          <leafValues>
            -3.8795742392539978e-001 2.7136790752410889e-001</leafValues></_>
        <_>
          <internalNodes>
            0 -1 70 795865569 2097760320 824217625 288879300 793693336
            2075738240 2063793098 -72090673</internalNodes>
          <leafValues>
            -2.9798609018325806e-001 3.5609927773475647e-001</leafValues></_>
        <_>
          <internalNodes>
            0 -1 35 1909961468 1666687225 -1007642980 299866841
            -1183340402 49873608 1065006845 899625947</internalNodes>
          <leafValues>
            -4.2216008901596069e-001 2.2882230579853058e-001</leafValues></_>
        <_>
          <internalNodes>
            0 -1 112 -62722306 -614924176 -63548449 -10625663 1814078088
            -1895757727 -639334005 -888810238</internalNodes>
          <leafValues>
            -3.2679232954978943e-001 3.1918340921401978e-001</leafValues></_>
        <_>
          <internalNodes>
            0 -1 120 -888501334 889352864 1463107778 1921669298
            412533439 170003200 28819947 -623942817</internalNodes>
          <leafValues>
            -3.5653996467590332e-001 2.6172176003456116e-001</leafValues></_>
        <_>
          <internalNodes>
            0 -1 105 2104491146 1899086884 1191538961 285463084
            856731650 2035876524 1397841995 2064075359</internalNodes>
          <leafValues>
            -3.6556354165077209e-001 2.4687962234020233e-001</leafValues></_>
        <_>
          <internalNodes>
            0 -1 188 255798015 -2020820315 353187701 493990168 499464360
            -1683452980 27722432 205464604</internalNodes>
          <leafValues>
            -4.0093752741813660e-001 2.3216842114925385e-001</leafValues></_>
        <_>
          <internalNodes>
            0 -1 171 -33681328 -1760784332 22168981 361971763 409478939
            1004865066 1207962315 792806447</internalNodes>
          <leafValues>
            -4.2450991272926331e-001 2.2784633934497833e-001</leafValues></_></weakClassifiers></_>
    <!-- stage 2 -->
    <_>
      <maxWeakCount>17</maxWeakCount>
      <stageThreshold>-1.0607836246490479e+000</stageThreshold>
      <weakClassifiers>
        <_>
          <internalNodes>
            0 -1 25 -67568130 -70864897 -21169250 -540677 -1166501889
            -1078221033 -1428165633 -1078250501</internalNodes>
          <leafValues>
            -1.2324273586273193e-001 6.4602053165435791e-001</leafValues></_>
        <_>
          <internalNodes>
            0 -1 117 -41712 -865384227 -21709065 1760273338 -19081732
            -1932858119 -1677729835 -2000709391</internalNodes>
          <leafValues>
            -3.4971770644187927e-001 3.3792546391487122e-001</leafValues></_>
        <_>
          <internalNodes>
            0 -1 0 1307544831 -820042753 -822095881 -547330 1333256703
            -1610760489 1189020837 80937104</internalNodes>
          <leafValues>
            -4.0092691779136658e-001 2.4781045317649841e-001</leafValues></_>
        <_>
          <internalNodes>
            0 -1 170 -1884766283 -9502852 -147860100 -1074746136
            -1886476809 -860675 231884208 -539130676</internalNodes>
          <leafValues>
            -2.6913511753082275e-001 3.5877612233161926e-001</leafValues></_>
        <_>
          <internalNodes>
            0 -1 62 1963312383 -181156847 17040589 204981249 957407484
            -110025983 1166118890 -269099127</internalNodes>
          <leafValues>
            -2.5038886070251465e-001 3.8194897770881653e-001</leafValues></_>
        <_>
          <internalNodes>
            0 -1 17 1467948381 2055104368 1072920344 906149478
            1834294551 1047545373 2139061873 762506023</internalNodes>
          <leafValues>
            -3.7838703393936157e-001 2.3982812464237213e-001</leafValues></_>
        <_>
          <internalNodes>
            0 -1 185 181536317 2145922420 -143770241 -8588410
            -1896175875 -346242 -1343540482 -5631682</internalNodes>
          <leafValues>
            -2.7409058809280396e-001 3.4088367223739624e-001</leafValues></_>
        <_>
          <internalNodes>
            0 -1 194 716649949 54660476 -2118683147 602713957 493617492
            -1883826355 -271317184 89989493</internalNodes>
          <leafValues>
            -4.5295631885528564e-001 2.0706349611282349e-001</leafValues></_>
        <_>
          <internalNodes>
            0 -1 165 2128557845 1494802207 -424527875 1345388411
            2119924605 2129557367 -1635994177 34660666</internalNodes>
          <leafValues>
            -3.6176031827926636e-001 2.1808317303657532e-001</leafValues></_>
        <_>
          <internalNodes>
            0 -1 47 -286785632 -463719395 40689800 -1374843298 -5240
            -1074033520 -912615776 -1883518485</internalNodes>
          <leafValues>
            -3.8978859782218933e-001 2.0733246207237244e-001</leafValues></_>
        <_>
          <internalNodes>
            0 -1 190 209715485 -780660751 -1342235715 -6663356
            -1725186641 -822632705 1073619678 -1180040952</internalNodes>
          <leafValues>
            -2.6737195253372192e-001 3.0932715535163879e-001</leafValues></_>
        <_>
          <internalNodes>
            0 -1 150 1348095046 2123940730 -1733886902 2080379702
            -1594356656 1572885335 -1565245317 -63876526</internalNodes>
          <leafValues>
            -3.6396890878677368e-001 2.2631676495075226e-001</leafValues></_>
        <_>
          <internalNodes>
            0 -1 3 -806629653 -1208113195 2138947059 -1779569743
            -68339209 -944976218 1171218175 1466976213</internalNodes>
          <leafValues>
            -2.6924785971641541e-001 3.1472453474998474e-001</leafValues></_>
        <_>
          <internalNodes>
            0 -1 126 -26033952 -135050638 1376780376 561110723 -33499744
            685836080 -1073676159 -640191117</internalNodes>
          <leafValues>
            -4.0220066905021667e-001 2.1282996237277985e-001</leafValues></_>
        <_>
          <internalNodes>
            0 -1 21 -180998571 1851833975 -306403972 -372011657
            1815823189 1982292336 1428489525 -183057285</internalNodes>
          <leafValues>
            -2.9123488068580627e-001 2.9484632611274719e-001</leafValues></_>
        <_>
          <internalNodes>
            0 -1 152 -1348436175 -1947837708 -1216349392 -7427004
            133060497 799227061 1174090997 -841751335</internalNodes>
          <leafValues>
            -2.9474258422851563e-001 2.8495529294013977e-001</leafValues></_>
        <_>
          <internalNodes>
            0 -1 31 -71359497 -1678374994 1676023158 865127038
            -327869066 -724428898 -135057418 2147022030</internalNodes>
          <leafValues>
            -2.9861310124397278e-001 2.9081290960311890e-001</leafValues></_></weakClassifiers></_>
    <!-- stage 3 -->
    <_>
      <maxWeakCount>21</maxWeakCount>
      <stageThreshold>-8.0580121278762817e-001</stageThreshold>
      <weakClassifiers>
        <_>
          <internalNodes>
            0 -1 32 1934097356 -147329049 -8650755 -67371777 -809763857
            -118297459 -17830177 -1564497157</internalNodes>
          <leafValues>
            -3.0573248863220215e-002 6.2936097383499146e-001</leafValues></_>
        <_>
          <internalNodes>
            0 -1 30 -151596062 -221061742 682234282 -1440704802
            -473466222 -84467049 -1074831478 -5537857</internalNodes>
          <leafValues>
            -3.4994986653327942e-001 2.9657036066055298e-001</leafValues></_>
        <_>
          <internalNodes>
            0 -1 76 -146278913 -13371437 16782815 -1357685325 -250569478
            472986373 -603960097 -844771045</internalNodes>
          <leafValues>
            -2.1871083974838257e-001 4.0719819068908691e-001</leafValues></_>
        <_>
          <internalNodes>
            0 -1 169 -537137232 -67260801 1219380248 -1212156903
            260703678 2074029215 256837770 -1880365073</internalNodes>
          <leafValues>
            -2.7350389957427979e-001 3.2253703474998474e-001</leafValues></_>
        <_>
          <internalNodes>
            0 -1 15 -59284105 2019654514 2132033495 1540620283
            1484217957 -815374473 -780839088 -45648571</internalNodes>
          <leafValues>
            -2.7542361617088318e-001 3.1418696045875549e-001</leafValues></_>
        <_>
          <internalNodes>
            0 -1 115 -142645485 2012946207 -79831201 -1080247377
            -227887617 -1229053954 -21081269 586510</internalNodes>
          <leafValues>
            -2.9630810022354126e-001 2.6453623175621033e-001</leafValues></_>
        <_>
          <internalNodes>
            0 -1 89 -616313873 1394618640 540102776 1896052562
            1778923451 2000952640 176251131 -72629469</internalNodes>
          <leafValues>
            -2.5225418806076050e-001 3.1419813632965088e-001</leafValues></_>
        <_>
          <internalNodes>
            0 -1 156 -17964 234824126 496072088 -587363694 -260311040
            2070864860 531304011 -13222</internalNodes>
          <leafValues>
            -2.8154823184013367e-001 2.8923508524894714e-001</leafValues></_>
        <_>
          <internalNodes>
            0 -1 7 -340793398 52421552 -271100417 -41946207 1091498873
            341156721 565702739 1729315073</internalNodes>
          <leafValues>
            -3.3520093560218811e-001 2.3334488272666931e-001</leafValues></_>
        <_>
          <internalNodes>
            0 -1 73 -283116033 -1086377883 -2060117839 1568916311
            1828844238 2138968580 -150983798 -2495793</internalNodes>
          <leafValues>
            -1.6889528930187225e-001 4.4118928909301758e-001</leafValues></_>
        <_>
          <internalNodes>
            0 -1 22 321858427 2060590254 1040064318 939532014 474165545
            1914732388 426710527 1383364974</internalNodes>
          <leafValues>
            -4.0981048345565796e-001 1.9903022050857544e-001</leafValues></_>
        <_>
          <internalNodes>
            0 -1 174 170397205 2103970300 2005947901 -269462508 49152957
            -319131969 149095677 -319406064</internalNodes>
          <leafValues>
            -3.3670455217361450e-001 2.3710080981254578e-001</leafValues></_>
        <_>
          <internalNodes>
            0 -1 121 2133783274 456165074 16802880 29443046 1309688778
            1988778068 1644522575 1938707530</internalNodes>
          <leafValues>
            -3.8773617148399353e-001 2.0772090554237366e-001</leafValues></_>
        <_>
          <internalNodes>
            0 -1 77 700165054 570656229 712485054 -1630022217 990377980
            2012888853 737856220 318724496</internalNodes>
          <leafValues>
            -3.8418224453926086e-001 2.1074779331684113e-001</leafValues></_>
        <_>
          <internalNodes>
            0 -1 60 -434914334 1528508452 1939038872 990923989
            1644355993 1452363921 -2088699153 -1155793671</internalNodes>
          <leafValues>
            -3.0471235513687134e-001 2.5039741396903992e-001</leafValues></_>
        <_>
          <internalNodes>
            0 -1 120 1588566958 67298210 -1810500912 547942642 290067180
            120436932 5068012 -848366503</internalNodes>
          <leafValues>
            -3.4939184784889221e-001 2.3072950541973114e-001</leafValues></_>
        <_>
          <internalNodes>
            0 -1 157 -1437929537 -1758954544 -541170947 -1208611248
            101959412 -311921085 1026803948 -138196941</internalNodes>
          <leafValues>
            -2.6071846485137939e-001 3.1779557466506958e-001</leafValues></_>
        <_>
          <internalNodes>
            0 -1 183 272370705 -1103722532 -273088641 -1078062986
            630099413 -1342788098 246383745 -272722806</internalNodes>
          <leafValues>
            -2.6624816656112671e-001 2.9028263688087463e-001</leafValues></_>
        <_>
          <internalNodes>
            0 -1 113 -795157498 -73707201 562059514 -1248785866
            -469441920 1325663175 753781946 -1198403797</internalNodes>
          <leafValues>
            -2.5716075301170349e-001 2.9316568374633789e-001</leafValues></_>
        <_>
          <internalNodes>
            0 -1 94 1693092868 362059947 -1334536392 707964429
            -1790999028 -2003585735 -622149880 -1465663729</internalNodes>
          <leafValues>
            -3.6756709218025208e-001 2.0962344110012054e-001</leafValues></_>
        <_>
          <internalNodes>
            0 -1 68 2122046339 -66867986 2020864405 1566033921 -17731908
            -576674069 -201331355 -656827203</internalNodes>
          <leafValues>
            -2.1882224082946777e-001 3.6632528901100159e-001</leafValues></_></weakClassifiers></_>
    <!-- stage 4 -->
    <_>
      <maxWeakCount>21</maxWeakCount>
      <stageThreshold>-8.3834779262542725e-001</stageThreshold>
      <weakClassifiers>
        <_>
          <internalNodes>
            0 -1 5 -3344386 -540021785 -990222 -12189713 -1011031046
            -15021653 -104732513 -4215825</internalNodes>
          <leafValues>
            -4.4328551739454269e-002 6.2800949811935425e-001</leafValues></_>
        <_>
          <internalNodes>
            0 -1 166 -19475280 2005082783 -1833434704 -4223563 285900956
            990774030 1595803023 799998910</internalNodes>
          <leafValues>
            -3.1208840012550354e-001 2.9958039522171021e-001</leafValues></_>
        <_>
          <internalNodes>
            0 -1 144 -94178084 -1088476153 588251163 195297363 -85964801
            -1157479198 543163087 524766431</internalNodes>
          <leafValues>
            -3.5001251101493835e-001 2.3444105684757233e-001</leafValues></_>
        <_>
          <internalNodes>
            0 -1 79 -401086720 1530331671 -1301146624 1000318735
            -62254200 -626556917 -1941469048 -1178621441</internalNodes>
          <leafValues>
            -3.1555932760238647e-001 2.4872758984565735e-001</leafValues></_>
        <_>
          <internalNodes>
            0 -1 184 -135000996 -232456173 -146083881 -203751335
            -1083641953 -1140901670 -538694097 -1683618302</internalNodes>
          <leafValues>
            -3.0938479304313660e-001 2.4376048147678375e-001</leafValues></_>
        <_>
          <internalNodes>
            0 -1 66 -742520541 2136703995 -813485187 1069555083
            -656348497 -289799765 -829551825 136843149</internalNodes>
          <leafValues>
            -3.5988575220108032e-001 2.0052596926689148e-001</leafValues></_>
        <_>
          <internalNodes>
            0 -1 180 -56829484 431522858 -235736577 -1146014351
            520624635 -560338481 1587545340 -1346679554</internalNodes>
          <leafValues>
            -3.1431207060813904e-001 2.4459370970726013e-001</leafValues></_>
        <_>
          <internalNodes>
            0 -1 61 -926423932 140700868 1239926912 187409427 -789716566
            -1063333592 268373947 33414047</internalNodes>
          <leafValues>
            -4.2057314515113831e-001 1.7401307821273804e-001</leafValues></_>
        <_>
          <internalNodes>
            0 -1 86 -957505109 1462875035 951087792 1005607051 214549694
            1863067931 1140591871 -358881575</internalNodes>
          <leafValues>
            -2.5127443671226501e-001 3.0559092760086060e-001</leafValues></_>
        <_>
          <internalNodes>
            0 -1 20 -462000265 -206147713 -134285391 -42307073
            -177938667 1029707109 -110799072 -52992457</internalNodes>
          <leafValues>
            -2.1930134296417236e-001 3.3937573432922363e-001</leafValues></_>
        <_>
          <internalNodes>
            0 -1 107 -605886644 387175682 -1838137220 993089682
            1682965981 1764541773 1776096510 -204516515</internalNodes>
          <leafValues>
            -3.0120900273323059e-001 2.4835108220577240e-001</leafValues></_>
        <_>
          <internalNodes>
            0 -1 129 -1594970876 808624907 -17408141 -1230894030
            -235436523 1697645943 -587250232 -1473040581</internalNodes>
          <leafValues>
            -2.9577669501304626e-001 2.5012487173080444e-001</leafValues></_>
        <_>
          <internalNodes>
            0 -1 57 1752555212 33923200 -1002124284 544280580 246540517
            -428712392 -293816976 324112625</internalNodes>
          <leafValues>
            -5.2612763643264771e-001 1.4626033604145050e-001</leafValues></_>
        <_>
          <internalNodes>
            0 -1 90 -1541 -579380400 1561450717 -875836161 -619582240
            589481671 -299253094 -573707013</internalNodes>
          <leafValues>
            -2.0915228128433228e-001 3.8595685362815857e-001</leafValues></_>
        <_>
          <internalNodes>
            0 -1 150 -258817914 1436092803 -1264038337 998256650
            -2140005044 -1143012907 713703038 -1124941229</internalNodes>
          <leafValues>
            -2.7608385682106018e-001 2.8194251656532288e-001</leafValues></_>
        <_>
          <internalNodes>
            0 -1 189 379588124 1509963619 -34911113 -80855059 731256767
            -1679034113 65995916 -1091613160</internalNodes>
          <leafValues>
            -3.2836201786994934e-001 2.3786550760269165e-001</leafValues></_>
        <_>
          <internalNodes>
            0 -1 170 615024512 -1895027956 -536881286 -1110138876
            88147315 413259719 1824587892 -2052352612</internalNodes>
          <leafValues>
            -3.8710159063339233e-001 2.0163588225841522e-001</leafValues></_>
        <_>
          <internalNodes>
            0 -1 182 75763504 -1645576258 -1355243979 -1074086024
            770521845 2128763895 369050677 -708580196</internalNodes>
          <leafValues>
            -3.2639101147651672e-001 2.3412866890430450e-001</leafValues></_>
        <_>
          <internalNodes>
            0 -1 88 -727721266 1973174952 -1056902144 1643552938
            -262966642 1259689760 -268083158 1674655099</internalNodes>
          <leafValues>
            -3.2934564352035522e-001 2.3120668530464172e-001</leafValues></_>
        <_>
          <internalNodes>
            0 -1 143 -1151929158 -648609536 -520018919 25501979
            775998205 279070744 -1602860341 1774477858</internalNodes>
          <leafValues>
            -3.4363013505935669e-001 2.1785567700862885e-001</leafValues></_>
        <_>
          <internalNodes>
            0 -1 29 -791499886 -215857922 81526946 1132728902
            -1537505350 -2137564245 -185861222 62893726</internalNodes>
          <leafValues>
            -3.5015508532524109e-001 2.3103654384613037e-001</leafValues></_></weakClassifiers></_>
    <!-- stage 5 -->
    <_>
      <maxWeakCount>22</maxWeakCount>
      <stageThreshold>-1.0417045354843140e+000</stageThreshold>
      <weakClassifiers>
        <_>
          <internalNodes>
            0 -1 34 -1159795720 -68503358 2075818875 -16388101
            -1603096405 -1166360716 -116007077 -69223461</internalNodes>
          <leafValues>
            -6.4500242471694946e-002 5.8434295654296875e-001</leafValues></_>
        <_>
          <internalNodes>
            0 -1 147 -18940710 -78123582 1563827457 -16367616 -221639288
            -82178138 2134657311 -4488161</internalNodes>
          <leafValues>
            -2.2717931866645813e-001 3.4513601660728455e-001</leafValues></_>
        <_>
          <internalNodes>
            0 -1 103 -97258822 -113283022 268435704 286478431 35066
            2045984768 4205227 2045199719</internalNodes>
          <leafValues>
            -3.6247128248214722e-001 2.2421179711818695e-001</leafValues></_>
        <_>
          <internalNodes>
            0 -1 177 -4208848 1461228990 -1380709072 -653220937
            872453562 714869898 17368473 1605619611</internalNodes>
          <leafValues>
            -3.1931942701339722e-001 2.2668871283531189e-001</leafValues></_>
        <_>
          <internalNodes>
            0 -1 40 -1182795526 -1822472489 733084668 548880821
            -652351492 1668258889 -9831688 1891336077</internalNodes>
          <leafValues>
            -3.5370448231697083e-001 2.0866857469081879e-001</leafValues></_>
        <_>
          <internalNodes>
            0 -1 131 -37031174 -674197248 1563303455 361337427
            -2021616456 417907847 -14672165 52659227</internalNodes>
          <leafValues>
            -3.3799117803573608e-001 2.0894344151020050e-001</leafValues></_>
        <_>
          <internalNodes>
            0 -1 144 -218960130 -16283590 855703707 855699969 -247445784
            -1702870971 2042643455 541158495</internalNodes>
          <leafValues>
            -3.5422641038894653e-001 2.0090116560459137e-001</leafValues></_>
        <_>
          <internalNodes>
            0 -1 137 -408688862 59417270 -1706274448 1895085778 97755374
            93467166 669868080 1186971870</internalNodes>
          <leafValues>
            -3.7598970532417297e-001 1.7807210981845856e-001</leafValues></_>
        <_>
          <internalNodes>
            0 -1 74 -447626078 2138255441 4184 263418449 -402596408
            1932788108 487657561 233960515</internalNodes>
          <leafValues>
            -4.2249760031700134e-001 1.6080120205879211e-001</leafValues></_>
        <_>
          <internalNodes>
            0 -1 172 -1977176153 -1078674460 -1208271244 -34438064
            217725943 -1078395916 200215789 -268754156</internalNodes>
          <leafValues>
            -2.4857565760612488e-001 2.8887864947319031e-001</leafValues></_>
        <_>
          <internalNodes>
            0 -1 85 239597278 380486692 -1273641688 1896202244
            1675387528 2049755272 -1875868261 2039213245</internalNodes>
          <leafValues>
            -3.1369373202323914e-001 2.1857860684394836e-001</leafValues></_>
        <_>
          <internalNodes>
            0 -1 193 -201335340 -1923129771 -1022898155 166482077
            1889550432 1336044020 1517525499 155476301</internalNodes>
          <leafValues>
            -3.9695793390274048e-001 1.7743346095085144e-001</leafValues></_>
        <_>
          <internalNodes>
            0 -1 46 -995441547 2066779905 1566557821 456362156
            -2004037158 -1077967183 -2135139086 -1383101521</internalNodes>
          <leafValues>
            -2.2825376689434052e-001 3.0582329630851746e-001</leafValues></_>
        <_>
          <internalNodes>
            0 -1 95 202121732 380115985 1003130163 -1112604544
            -1467830988 -1632729381 -1937372856 -1459670467</internalNodes>
          <leafValues>
            -3.1393972039222717e-001 2.3609803617000580e-001</leafValues></_>
        <_>
          <internalNodes>
            0 -1 197 -525344969 -1771004098 -1013819716 -1998429904
            1752559052 695918804 -644470376 -1595217766</internalNodes>
          <leafValues>
            -2.5128012895584106e-001 2.8836956620216370e-001</leafValues></_>
        <_>
          <internalNodes>
            0 -1 168 -1651966416 -73515918 -5374851 -1079677384
            1207963549 -1994276797 1558186216 148991586</internalNodes>
          <leafValues>
            -3.9154943823814392e-001 2.0265547931194305e-001</leafValues></_>
        <_>
          <internalNodes>
            0 -1 122 1096799650 -189131434 -36055344 1950296771
            1192987596 1210191876 1894911157 1259339677</internalNodes>
          <leafValues>
            -3.6158639192581177e-001 1.9280028343200684e-001</leafValues></_>
        <_>
          <internalNodes>
            0 -1 96 -13117762 1574042008 -391115719 -142412184
            2021710314 -1642676220 -103743525 -343546190</internalNodes>
          <leafValues>
            -2.6106742024421692e-001 2.9164776206016541e-001</leafValues></_>
        <_>
          <internalNodes>
            0 -1 10 -184616069 -793603326 -1134406565 -644185964 2068575
            1040360008 1462991151 1514350975</internalNodes>
          <leafValues>
            -3.2764399051666260e-001 2.4728819727897644e-001</leafValues></_>
        <_>
          <internalNodes>
            0 -1 101 1336926378 285574998 -243961680 808980992 46809548
            2031289393 1621381352 1680262599</internalNodes>
          <leafValues>
            -4.0961700677871704e-001 1.7454417049884796e-001</leafValues></_>
        <_>
          <internalNodes>
            0 -1 134 -1950421099 -1791452529 -302717414 -798846686
            -2063960631 -439871474 -823995244 -736067292</internalNodes>
          <leafValues>
            -2.6450315117835999e-001 2.7393850684165955e-001</leafValues></_>
        <_>
          <internalNodes>
            0 -1 123 -688136685 513147567 -123156484 -1284441838
            -966537825 -395483683 -453158208 -379335413</internalNodes>
          <leafValues>
            -1.8781399726867676e-001 3.7608388066291809e-001</leafValues></_></weakClassifiers></_>
    <!-- stage 6 -->
    <_>
      <maxWeakCount>24</maxWeakCount>
      <stageThreshold>-1.0558326244354248e+000</stageThreshold>
      <weakClassifiers>
        <_>
          <internalNodes>
            0 -1 26 -1153780750 -1159059718 -537989250 -6097366
            1140569992 -1552213379 -71303526 -70255873</internalNodes>
          <leafValues>
            -5.7809893041849136e-002 5.3723555803298950e-001</leafValues></_>
        <_>
          <internalNodes>
            0 -1 167 799717170 -1381321810 -1074544656 -1080367124
            86973815 795085415 1198997812 -975182123</internalNodes>
          <leafValues>
            -3.0313310027122498e-001 2.5813335180282593e-001</leafValues></_>
        <_>
          <internalNodes>
            0 -1 118 -204472321 -216981404 1694548115 1372685547
            -498020199 1273431556 -770645297 -69861665</internalNodes>
          <leafValues>
            -1.7635056376457214e-001 4.2375412583351135e-001</leafValues></_>
        <_>
          <internalNodes>
            0 -1 179 -2003912911 -1075118274 -1628733452 -1277192
            671071991 -355664641 1711210741 -572535588</internalNodes>
          <leafValues>
            -2.2865970432758331e-001 3.0744779109954834e-001</leafValues></_>
        <_>
          <internalNodes>
            0 -1 175 -837939651 2145034239 -1804345857 -1087986763
            413533693 -22347785 -333562116 -1359853733</internalNodes>
          <leafValues>
            -2.5860011577606201e-001 2.7613937854766846e-001</leafValues></_>
        <_>
          <internalNodes>
            0 -1 195 -1006642191 7816341 -303039083 -705708681 413384977
            156198198 -347642447 -8914217</internalNodes>
          <leafValues>
            -2.2947524487972260e-001 3.0846467614173889e-001</leafValues></_>
        <_>
          <internalNodes>
            0 -1 109 -50951148 874646277 -621217518 -1120785869
            -195427244 -278448297 1681788784 -1460441546</internalNodes>
          <leafValues>
            -3.1695017218589783e-001 2.2920532524585724e-001</leafValues></_>
        <_>
          <internalNodes>
            0 -1 67 -266496 -601258294 -828838467 -125068100 -87110475
            -1408714534 -106960489 15337719</internalNodes>
          <leafValues>
            -3.8486561179161072e-001 1.6333310306072235e-001</leafValues></_>
        <_>
          <internalNodes>
            0 -1 16 -279187661 -612601859 -51285803 -1392893345
            1732082704 -201707649 1735877248 -268962509</internalNodes>
          <leafValues>
            -2.0293597877025604e-001 3.1487560272216797e-001</leafValues></_>
        <_>
          <internalNodes>
            0 -1 48 -77596705 -706744635 -838481699 -836386607
            -1952782918 -6618722 -584472101 -38010989</internalNodes>
          <leafValues>
            -1.4827002584934235e-001 4.2615857720375061e-001</leafValues></_>
        <_>
          <internalNodes>
            0 -1 38 -387516741 -148197206 -537462799 -1088847801
            46377775 -2144390614 -626662933 -69230053</internalNodes>
          <leafValues>
            -1.9385880231857300e-001 3.3269923925399780e-001</leafValues></_>
        <_>
          <internalNodes>
            0 -1 148 -1057042938 1144182316 1660573790 -1197472735
            151994645 -1675148203 -1427764004 -1464832510</internalNodes>
          <leafValues>
            -3.0626076459884644e-001 2.1221461892127991e-001</leafValues></_>
        <_>
          <internalNodes>
            0 -1 70 687858412 1125724224 -1744814080 86999248 1340679308
            734744588 -1451099200 1199765722</internalNodes>
          <leafValues>
            -3.9201566576957703e-001 1.6689984500408173e-001</leafValues></_>
        <_>
          <internalNodes>
            0 -1 49 -523579176 -1052064634 -1073526829 155187850
            -1261247846 -517353071 -1025122833 21872687</internalNodes>
          <leafValues>
            -3.5669377446174622e-001 1.7639623582363129e-001</leafValues></_>
        <_>
          <internalNodes>
            0 -1 199 -558900739 -1640793047 -864815121 1052728579
            186373501 -1888010799 -2052077763 161143295</internalNodes>
          <leafValues>
            -2.3132626712322235e-001 2.8985092043876648e-001</leafValues></_>
        <_>
          <internalNodes>
            0 -1 104 2086603823 909209510 -1124733958 -1154847775
            270379013 -19957977 -341190422 -1466706133</internalNodes>
          <leafValues>
            -2.3090185225009918e-001 3.0511069297790527e-001</leafValues></_>
        <_>
          <internalNodes>
            0 -1 155 -270535594 -233282622 1157635857 688193665
            -380772024 724070370 1510495503 -1681131641</internalNodes>
          <leafValues>
            -2.8231322765350342e-001 2.3718991875648499e-001</leafValues></_>
        <_>
          <internalNodes>
            0 -1 136 1799385760 1268965298 2131169342 -776583471
            1346422202 137072320 1082152079 1242521774</internalNodes>
          <leafValues>
            -3.6644104123115540e-001 1.9915896654129028e-001</leafValues></_>
        <_>
          <internalNodes>
            0 -1 78 -1368522736 1058024767 1548228510 1025640730
            216761013 -302966437 -1469012820 682288301</internalNodes>
          <leafValues>
            -3.6329123377799988e-001 1.8879476189613342e-001</leafValues></_>
        <_>
          <internalNodes>
            0 -1 93 -1368916082 -1456110560 -582892387 365665083
            -1052147069 -602662991 569442456 -63334721</internalNodes>
          <leafValues>
            -2.7320188283920288e-001 2.5493988394737244e-001</leafValues></_>
        <_>
          <internalNodes>
            0 -1 133 712711999 1004204245 -1720467569 525807133 63764284
            270318598 -1947749976 165924603</internalNodes>
          <leafValues>
            -2.6872679591178894e-001 2.5872004032135010e-001</leafValues></_>
        <_>
          <internalNodes>
            0 -1 154 -1591549049 61535916 -168581270 -39659606 104539973
            748137118 633552976 -589826697</internalNodes>
          <leafValues>
            -2.6552167534828186e-001 2.6260328292846680e-001</leafValues></_>
        <_>
          <internalNodes>
            0 -1 125 -557057302 219677936 1929479402 1192048879
            1312834026 1227448337 -503234345 2110083356</internalNodes>
          <leafValues>
            -3.2788035273551941e-001 2.1645693480968475e-001</leafValues></_>
        <_>
          <internalNodes>
            0 -1 37 -895777280 272543303 -1648676040 804740247 85527176
            542194096 -1935533784 122025729</internalNodes>
          <leafValues>
            -4.0293115377426147e-001 1.6577284038066864e-001</leafValues></_></weakClassifiers></_>
    <!-- stage 7 -->
    <_>
      <maxWeakCount>27</maxWeakCount>
      <stageThreshold>-8.0429208278656006e-001</stageThreshold>
      <weakClassifiers>
        <_>
          <internalNodes>
            0 -1 8 -1209092226 -606652945 -403654306 -4851461 570148971
            -685824463 -84151889 1073703935</internalNodes>
          <leafValues>
            -4.3503649532794952e-002 5.1575970649719238e-001</leafValues></_>
        <_>
          <internalNodes>
            0 -1 158 -19870473 -268980301 151145767 -1086050557
            -1161280017 -536945930 1873432559 -288195201</internalNodes>
          <leafValues>
            -1.6915580630302429e-001 3.6755457520484924e-001</leafValues></_>
        <_>
          <internalNodes>
            0 -1 82 -196059681 -9182015 -310340153 -1358991151
            2098253048 -83389680 -6230069 -878324460</internalNodes>
          <leafValues>
            -2.0911504328250885e-001 3.0345451831817627e-001</leafValues></_>
        <_>
          <internalNodes>
            0 -1 116 -540016895 -67395873 -537403545 -588546867
            -210774086 -12730691 -570638418 -655846001</internalNodes>
          <leafValues>
            -2.0035751163959503e-001 3.2167178392410278e-001</leafValues></_>
        <_>
          <internalNodes>
            0 -1 176 -900534452 -1143308467 -309184578 2133752122
            1618824268 -51977153 -324471046 -44904702</internalNodes>
          <leafValues>
            -2.5930029153823853e-001 2.2798247635364532e-001</leafValues></_>
        <_>
          <internalNodes>
            0 -1 75 -297271569 -684206970 -198965217 185828559 807465914
            192611088 679518861 -560072725</internalNodes>
          <leafValues>
            -2.2397866845130920e-001 2.7039563655853271e-001</leafValues></_>
        <_>
          <internalNodes>
            0 -1 4 -822194313 -34410729 -1058378853 -720104486
            1044462809 -861046688 1199919269 1779459121</internalNodes>
          <leafValues>
            -2.8836643695831299e-001 2.1410147845745087e-001</leafValues></_>
        <_>
          <internalNodes>
            0 -1 164 2075027235 1397253397 -1374865667 543191871
            1731620278 440047292 -92569654 536896256</internalNodes>
          <leafValues>
            -3.9828872680664063e-001 1.4212642610073090e-001</leafValues></_>
        <_>
          <internalNodes>
            0 -1 139 116322086 243439506 -82638164 -1400716176 398919509
            452711156 1702773844 -1184540826</internalNodes>
          <leafValues>
            -3.4689974784851074e-001 1.6782872378826141e-001</leafValues></_>
        <_>
          <internalNodes>
            0 -1 84 -1342702913 233139309 1495388319 1437710821
            -69668152 1810576193 -352093794 -33556706</internalNodes>
          <leafValues>
            -1.7475460469722748e-001 3.4924644231796265e-001</leafValues></_>
        <_>
          <internalNodes>
            0 -1 41 -355608090 -2137256225 176240002 231513397 88014052
            1157305503 98130725 134181163</internalNodes>
          <leafValues>
            -3.5405692458152771e-001 1.6238397359848022e-001</leafValues></_>
        <_>
          <internalNodes>
            0 -1 159 -1661046568 -841088880 1033041177 -2120237136
            2032953466 -784412584 1556093711 -1628713846</internalNodes>
          <leafValues>
            -2.7347615361213684e-001 2.1512064337730408e-001</leafValues></_>
        <_>
          <internalNodes>
            0 -1 64 -777813436 1599163921 1041831473 -1625164267
            -1709128536 -132442208 -845343589 -583413999</internalNodes>
          <leafValues>
            -2.4197588860988617e-001 2.4621117115020752e-001</leafValues></_>
        <_>
          <internalNodes>
            0 -1 58 1782839754 1090977872 -1222511015 830568276
            -335772680 -169292047 -20657909 -1017133736</internalNodes>
          <leafValues>
            -2.4107241630554199e-001 2.4782322347164154e-001</leafValues></_>
        <_>
          <internalNodes>
            0 -1 200 -1882985487 -1997481129 -728527947 685286358
            233831577 -288205261 -2099847556 -2012023692</internalNodes>
          <leafValues>
            -2.4759018421173096e-001 2.4226067960262299e-001</leafValues></_>
        <_>
          <internalNodes>
            0 -1 72 -318800353 840923039 -1094717509 859766677
            2034834572 1536323237 -582616582 -56887569</internalNodes>
          <leafValues>
            -1.6365928947925568e-001 3.5125851631164551e-001</leafValues></_>
        <_>
          <internalNodes>
            0 -1 19 1029641047 131481023 1643516398 950026008 1095120759
            393500713 1732382522 1030126510</internalNodes>
          <leafValues>
            -3.6124011874198914e-001 1.5834945440292358e-001</leafValues></_>
        <_>
          <internalNodes>
            0 -1 130 -96276770 523358242 1703192058 -49253630 -187649638
            420370309 -207557686 -1115032305</internalNodes>
          <leafValues>
            -2.4605177342891693e-001 2.4482400715351105e-001</leafValues></_>
        <_>
          <internalNodes>
            0 -1 83 707227583 143281469 -1421907075 567769693 619530256
            1033573251 783634096 257254464</internalNodes>
          <leafValues>
            -3.4541317820549011e-001 1.8485744297504425e-001</leafValues></_>
        <_>
          <internalNodes>
            0 -1 98 1084290084 539112748 -1228235523 430486452 346653113
            1273490111 -834699012 -1392546656</internalNodes>
          <leafValues>
            -3.0495935678482056e-001 1.9587428867816925e-001</leafValues></_>
        <_>
          <internalNodes>
            0 -1 142 1846178210 170005616 1274355872 -2069860192
            101002223 83915906 88409333 1216833655</internalNodes>
          <leafValues>
            -4.6149039268493652e-001 1.4648936688899994e-001</leafValues></_>
        <_>
          <internalNodes>
            0 -1 180 -67084940 -20438703 -628696067 -810213260 98311659
            -1695954487 210246862 262556854</internalNodes>
          <leafValues>
            -3.8039773702621460e-001 1.6671763360500336e-001</leafValues></_>
        <_>
          <internalNodes>
            0 -1 52 -1692882965 1940956117 496487611 -383299879 -6321485
            -1108483133 -555234343 1153847945</internalNodes>
          <leafValues>
            -2.4944816529750824e-001 2.4620498716831207e-001</leafValues></_>
        <_>
          <internalNodes>
            0 -1 160 652398222 -115700662 -99080963 791706371 169882973
            745548151 1229595452 989872546</internalNodes>
          <leafValues>
            -3.6962372064590454e-001 1.6898779571056366e-001</leafValues></_>
        <_>
          <internalNodes>
            0 -1 105 509541900 922993440 1361398353 -249184150
            1986584810 -246722289 -779019947 1493297411</internalNodes>
          <leafValues>
            -3.1795492768287659e-001 1.9536864757537842e-001</leafValues></_>
        <_>
          <internalNodes>
            0 -1 111 -1854012395 438210369 402169786 1059236622
            -1070323884 -1137736833 -1144650371 -1459624072</internalNodes>
          <leafValues>
            -2.4531896412372589e-001 2.4525797367095947e-001</leafValues></_>
        <_>
          <internalNodes>
            0 -1 99 -217698144 1081844518 -1187565636 1368958604
            2104287219 1062865647 587038602 439878921</internalNodes>
          <leafValues>
            -3.8168624043464661e-001 1.5783695876598358e-001</leafValues></_></weakClassifiers></_>
    <!-- stage 8 -->
    <_>
      <maxWeakCount>28</maxWeakCount>
      <stageThreshold>-8.4127134084701538e-001</stageThreshold>
      <weakClassifiers>
        <_>
          <internalNodes>
            0 -1 53 2100383488 2138812086 1802238817 2105403620
            -60109908 -923224434 -8785931 -80229188</internalNodes>
          <leafValues>
            -7.7074453234672546e-002 5.0127500295639038e-001</leafValues></_>
        <_>
          <internalNodes>
            0 -1 27 -1829589250 -698191930 1648755302 -960044518
            -1086513989 -1691896518 -27612161 -105916485</internalNodes>
          <leafValues>
            -2.6284357905387878e-001 2.4959172308444977e-001</leafValues></_>
        <_>
          <internalNodes>
            0 -1 102 -355467553 2134197777 -1041902445 1567741070
            2031730904 1792823568 -243171162 2035660735</internalNodes>
          <leafValues>
            -2.1881577372550964e-001 2.5988349318504333e-001</leafValues></_>
        <_>
          <internalNodes>
            0 -1 169 -890310992 1978626034 1118179381 664975153 53094394
            1243382458 524289163 531852963</internalNodes>
          <leafValues>
            -3.3383405208587646e-001 1.6692963242530823e-001</leafValues></_>
        <_>
          <internalNodes>
            0 -1 119 1392444720 679417658 167332344 -1564588639
            -2136019268 145724575 -284609552 582623225</internalNodes>
          <leafValues>
            -3.8773038983345032e-001 1.4203795790672302e-001</leafValues></_>
        <_>
          <internalNodes>
            0 -1 18 -312643745 -1139394241 -1818775459 981480604
            1582776140 1029848339 1762226339 2054650619</internalNodes>
          <leafValues>
            -2.8853464126586914e-001 1.9645196199417114e-001</leafValues></_>
        <_>
          <internalNodes>
            0 -1 124 -810831446 923195344 697667826 320073976 1111662507
            1215567248 1218913021 1936716387</internalNodes>
          <leafValues>
            -3.4066957235336304e-001 1.5255829691886902e-001</leafValues></_>
        <_>
          <internalNodes>
            0 -1 172 -1541757252 -6651212 -154167457 -62312 179982077
            -1356337225 213583085 -858167248</internalNodes>
          <leafValues>
            -2.6047220826148987e-001 2.0782507956027985e-001</leafValues></_>
        <_>
          <internalNodes>
            0 -1 186 -1608809725 -1304543313 1027286975 -902114
            -1866496492 2054410117 -1108344994 -442328662</internalNodes>
          <leafValues>
            -2.2021502256393433e-001 2.6238217949867249e-001</leafValues></_>
        <_>
          <internalNodes>
            0 -1 81 -1288187180 487806103 570429499 -1217418333
            -794689398 -176798574 1285296491 -1342185697</internalNodes>
          <leafValues>
            -1.9295872747898102e-001 2.8621307015419006e-001</leafValues></_>
        <_>
          <internalNodes>
            0 -1 151 1957623712 1580800934 -1073326703 1955656317
            1469089750 1465005372 56050865 226492590</internalNodes>
          <leafValues>
            -3.5296013951301575e-001 1.5232534706592560e-001</leafValues></_>
        <_>
          <internalNodes>
            0 -1 129 1649937924 1633812763 -1296367624 -1129838794
            -2072796843 -1859995371 -1211126038 -1598865910</internalNodes>
          <leafValues>
            -2.9215663671493530e-001 1.9427378475666046e-001</leafValues></_>
        <_>
          <internalNodes>
            0 -1 108 -10761625 -2587316 -56364826 1494344354 -1136540090
            420684527 -2136654912 1503225327</internalNodes>
          <leafValues>
            -2.1533536911010742e-001 2.5666135549545288e-001</leafValues></_>
        <_>
          <internalNodes>
            0 -1 149 -193270249 827514143 1719593214 829457602
            -2047379548 1053814582 -388977987 -35256453</internalNodes>
          <leafValues>
            -2.0257748663425446e-001 2.7320665121078491e-001</leafValues></_>
        <_>
          <internalNodes>
            0 -1 178 -1456831433 -1343440064 -1208452621 -3213228
            132863743 785139431 1643053521 -861932291</internalNodes>
          <leafValues>
            -1.9655069708824158e-001 2.8372555971145630e-001</leafValues></_>
        <_>
          <internalNodes>
            0 -1 23 161949354 -1818368936 -1586014789 1944105713
            114753738 184287620 736510120 101990616</internalNodes>
          <leafValues>
            -4.9285954236984253e-001 1.0982695966959000e-001</leafValues></_>
        <_>
          <internalNodes>
            0 -1 181 164336639 2121678238 -923757607 -990014560
            1327412676 -1654668166 1073620712 -1191202174</internalNodes>
          <leafValues>
            -2.1460488438606262e-001 2.6467433571815491e-001</leafValues></_>
        <_>
          <internalNodes>
            0 -1 128 -553621822 -53234094 906515483 1292153665
            -205368998 689387319 -1736094949 730924036</internalNodes>
          <leafValues>
            -3.3330801129341125e-001 1.7728638648986816e-001</leafValues></_>
        <_>
          <internalNodes>
            0 -1 87 -395575690 503133301 19075153 1495654733 -359065718
            -541059004 -1574290470 -611294438</internalNodes>
          <leafValues>
            -2.2919470071792603e-001 2.5618171691894531e-001</leafValues></_>
        <_>
          <internalNodes>
            0 -1 80 -997272438 1222148439 1158253073 -1455178037
            -786106206 -1885155474 1290668140 -931287315</internalNodes>
          <leafValues>
            -2.8967419266700745e-001 2.0147927105426788e-001</leafValues></_>
        <_>
          <internalNodes>
            0 -1 198 -1147414735 -1625739931 -1442233929 -478109289
            152998587 2047528120 1763704256 167813288</internalNodes>
          <leafValues>
            -2.9443305730819702e-001 2.1082967519760132e-001</leafValues></_>
        <_>
          <internalNodes>
            0 -1 196 1251608381 -623826916 -292553731 1004364892
            1012603133 -1158735089 720808620 -1753039548</internalNodes>
          <leafValues>
            -2.4862229824066162e-001 2.3873473703861237e-001</leafValues></_>
        <_>
          <internalNodes>
            0 -1 91 -2142368764 506744389 112853776 468969387 1549857237
            -376226003 -1194922561 -1997103441</internalNodes>
          <leafValues>
            -2.8766828775405884e-001 2.0490685105323792e-001</leafValues></_>
        <_>
          <internalNodes>
            0 -1 59 -527088625 -1876501611 1652497465 1061044115
            -1050047527 2040088565 196434323 -1084752365</internalNodes>
          <leafValues>
            -2.1932286024093628e-001 2.6749962568283081e-001</leafValues></_>
        <_>
          <internalNodes>
            0 -1 1 -453333294 -289811248 1146800335 -588175480
            1422164305 -330275840 1077105461 1664098579</internalNodes>
          <leafValues>
            -3.6413982510566711e-001 1.5885424613952637e-001</leafValues></_>
        <_>
          <internalNodes>
            0 -1 158 -557658416 1000046626 253890353 -1912534725
            -1233632065 2000815154 -838573492 96404839</internalNodes>
          <leafValues>
            -3.3542549610137939e-001 1.7204596102237701e-001</leafValues></_>
        <_>
          <internalNodes>
            0 -1 28 -148847156 1124167768 -1994358780 134369472
            -936604694 1092087181 1955727048 1468389104</internalNodes>
          <leafValues>
            -4.6842992305755615e-001 1.2611410021781921e-001</leafValues></_>
        <_>
          <internalNodes>
            0 -1 50 -1934692852 858695732 -1391562432 167472918
            600177082 1237038254 646687780 1227302735</internalNodes>
          <leafValues>
            -3.4934297204017639e-001 1.6256910562515259e-001</leafValues></_></weakClassifiers></_>
    <!-- stage 9 -->
    <_>
      <maxWeakCount>30</maxWeakCount>
      <stageThreshold>-9.3377089500427246e-001</stageThreshold>
      <weakClassifiers>
        <_>
          <internalNodes>
            0 -1 69 1400049664 49986464 -1086517487 1975359644
            -101008655 -1796196029 -1552421763 -1648387913</internalNodes>
          <leafValues>
            -2.7678281068801880e-002 4.8256832361221313e-001</leafValues></_>
        <_>
          <internalNodes>
            0 -1 161 -533281266 2043813123 -1329709441 1007158531
            -1313862052 -1145702419 -1579844994 -377437885</internalNodes>
          <leafValues>
            -2.5295269489288330e-001 2.4212631583213806e-001</leafValues></_>
        <_>
          <internalNodes>
            0 -1 45 -91883555 -15257305 -2080320039 -1167855117
            1876064728 2130870101 -1195245637 -265221</internalNodes>
          <leafValues>
            -1.6083788871765137e-001 3.8219031691551208e-001</leafValues></_>
        <_>
          <internalNodes>
            0 -1 187 246293936 -1280668059 -302028803 -1146474851
            804194295 1051347901 1203699937 -1884543568</internalNodes>
          <leafValues>
            -3.0032742023468018e-001 1.9146782159805298e-001</leafValues></_>
        <_>
          <internalNodes>
            0 -1 12 2069264255 1913038012 -570097710 -1039205142
            2033483125 1027738948 2085957645 556030970</internalNodes>
          <leafValues>
            -3.9577978849411011e-001 1.1808464676141739e-001</leafValues></_>
        <_>
          <internalNodes>
            0 -1 71 -889206566 496256773 232609024 -1089621737
            -604510262 -1187021027 -851213909 -1190397669</internalNodes>
          <leafValues>
            -2.4021326005458832e-001 2.3365443944931030e-001</leafValues></_>
        <_>
          <internalNodes>
            0 -1 110 -893197276 -1274500091 -1556224963 -1600067497
            1732985041 -26476643 361458185 -924588801</internalNodes>
          <leafValues>
            -2.5289830565452576e-001 2.1032941341400146e-001</leafValues></_>
        <_>
          <internalNodes>
            0 -1 39 1719924960 1457309437 -1547614647 120971364
            -1055665237 -1879748423 -7615704 -412679</internalNodes>
          <leafValues>
            -2.6241946220397949e-001 2.0382475852966309e-001</leafValues></_>
        <_>
          <internalNodes>
            0 -1 97 63736884 280661435 -1888349767 -310221050 1148045709
            -1073890317 75303116 -1392573126</internalNodes>
          <leafValues>
            -2.6226925849914551e-001 2.0920385420322418e-001</leafValues></_>
        <_>
          <internalNodes>
            0 -1 163 1074185038 466623583 -1905110153 -448770264
            -1339797156 1780532524 -386216962 -1057831933</internalNodes>
          <leafValues>
            -2.5886213779449463e-001 2.1008154749870300e-001</leafValues></_>
        <_>
          <internalNodes>
            0 -1 146 -554907929 371376946 1525041533 -1926195454
            335791316 2138365429 -1206875174 -36003286</internalNodes>
          <leafValues>
            -1.8688762187957764e-001 2.8622099757194519e-001</leafValues></_>
        <_>
          <internalNodes>
            0 -1 43 -201905750 -72120647 1235173877 2112600056 -70014019
            -1175019333 -239646671 16828557</internalNodes>
          <leafValues>
            -2.8987333178520203e-001 1.9329613447189331e-001</leafValues></_>
        <_>
          <internalNodes>
            0 -1 179 -1901416522 -1131499180 -345514124 -34745164
            444370839 -1633114476 1846162801 -841685804</internalNodes>
          <leafValues>
            -2.5908726453781128e-001 2.0542947947978973e-001</leafValues></_>
        <_>
          <internalNodes>
            0 -1 9 -897659161 -834492785 -38616495 -1910267247
            1307870293 3523102 25260580 1713873059</internalNodes>
          <leafValues>
            -2.9679396748542786e-001 1.8732310831546783e-001</leafValues></_>
        <_>
          <internalNodes>
            0 -1 141 1720436428 604302598 -809573670 -585980912
            1745898109 984500471 1243677916 -820006</internalNodes>
          <leafValues>
            -2.4258697032928467e-001 2.2709223628044128e-001</leafValues></_>
        <_>
          <internalNodes>
            0 -1 51 -235578406 -229583285 -1663412513 -1036842913
            -1278507614 387776771 -1889608257 1334267115</internalNodes>
          <leafValues>
            -2.3293210566043854e-001 2.4484859406948090e-001</leafValues></_>
        <_>
          <internalNodes>
            0 -1 162 -422098944 1500974351 519983723 -165509982
            -319121900 2140119607 1271692938 -2042435997</internalNodes>
          <leafValues>
            -2.4739490449428558e-001 2.3193925619125366e-001</leafValues></_>
        <_>
          <internalNodes>
            0 -1 54 239182056 759751145 -1795036715 1933121620 687033009
            -961761575 -871343656 1940620184</internalNodes>
          <leafValues>
            -3.6467653512954712e-001 1.5096253156661987e-001</leafValues></_>
        <_>
          <internalNodes>
            0 -1 191 1817708313 548570975 732756511 703179533 225613589
            -1130627721 -1447060742 -1411208694</internalNodes>
          <leafValues>
            -2.2650638222694397e-001 2.5277945399284363e-001</leafValues></_>
        <_>
          <internalNodes>
            0 -1 194 261821661 163644635 -1051224623 770387235
            -1648576508 -862508529 -120369212 798959509</internalNodes>
          <leafValues>
            -2.9713591933250427e-001 1.9988171756267548e-001</leafValues></_>
        <_>
          <internalNodes>
            0 -1 92 -632141564 1597394949 1053732920 -1155476781
            1359413720 -1173027388 1375803816 -1336712113</internalNodes>
          <leafValues>
            -3.0150398612022400e-001 1.8820734322071075e-001</leafValues></_>
        <_>
          <internalNodes>
            0 -1 65 -696290085 2098327299 -1619916037 -1216114909
            -1342119496 -101704495 -1803227729 -270073976</internalNodes>
          <leafValues>
            -1.4350554347038269e-001 4.0154239535331726e-001</leafValues></_>
        <_>
          <internalNodes>
            0 -1 138 -329255400 -406064461 1548763856 722029860
            844162704 753945348 -1419767126 -68294825</internalNodes>
          <leafValues>
            -2.5398507714271545e-001 2.2666776180267334e-001</leafValues></_>
        <_>
          <internalNodes>
            0 -1 183 134743092 -1184476746 1790270993 -1112661875
            145723343 750300439 524157077 147588102</internalNodes>
          <leafValues>
            -4.2238256335258484e-001 1.3309207558631897e-001</leafValues></_>
        <_>
          <internalNodes>
            0 -1 106 -1428455476 -865971146 491020417 1275179969
            990953616 2019827012 -1772517 413980368</internalNodes>
          <leafValues>
            -3.3324348926544189e-001 1.7809076607227325e-001</leafValues></_>
        <_>
          <internalNodes>
            0 -1 132 -623214378 -743293209 814881406 -1741449694
            1660911700 324387985 -1976679566 -388497853</internalNodes>
          <leafValues>
            -2.6371812820434570e-001 2.1566140651702881e-001</leafValues></_>
        <_>
          <internalNodes>
            0 -1 100 49253282 1510380521 -55316100 973758533 269563019
            488805120 1286659101 294539337</internalNodes>
          <leafValues>
            -3.5885691642761230e-001 1.5586113929748535e-001</leafValues></_>
        <_>
          <internalNodes>
            0 -1 135 -355472094 205714854 -882185468 -873801304
            -1824394647 2133283103 -1912670608 -844044704</internalNodes>
          <leafValues>
            -2.3985588550567627e-001 2.4151787161827087e-001</leafValues></_>
        <_>
          <internalNodes>
            0 -1 63 -2140500625 532039071 -1648977939 -1745615081
            1761539813 -300210701 1947333561 741303737</internalNodes>
          <leafValues>
            -2.5005665421485901e-001 2.3010787367820740e-001</leafValues></_>
        <_>
          <internalNodes>
            0 -1 33 -615521625 -16169012 799090301 -2101469719
            -1430313716 81929598 108333557 1159054617</internalNodes>
          <leafValues>
            -2.7606469392776489e-001 2.1282799541950226e-001</leafValues></_></weakClassifiers></_></stages>
  <features>
    <_>
      <rect>
        0 0 3 4</rect></_>
    <_>
      <rect>
        0 0 3 6</rect></_>
    <_>
      <rect>
        0 0 5 4</rect></_>
    <_>
      <rect>
        0 0 6 3</rect></_>
    <_>
      <rect>
        0 1 1 6</rect></_>
    <_>
      <rect>
        0 1 6 6</rect></_>
    <_>
      <rect>
        0 2 2 4</rect></_>
    <_>
      <rect>
        0 2 4 4</rect></_>
    <_>
      <rect>
        0 2 6 6</rect></_>
    <_>
      <rect>
        0 4 2 3</rect></_>
    <_>
      <rect>
        0 4 3 5</rect></_>
    <_>
      <rect>
        0 5 2 4</rect></_>
    <_>
      <rect>
        0 5 2 5</rect></_>
    <_>
      <rect>
        0 5 3 5</rect></_>
    <_>
      <rect>
        0 5 6 4</rect></_>
    <_>
      <rect>
        0 6 1 3</rect></_>
    <_>
      <rect>
        0 8 1 1</rect></_>
    <_>
      <rect>
        0 8 2 4</rect></_>
    <_>
      <rect>
        0 8 3 4</rect></_>
    <_>
      <rect>
        0 8 4 4</rect></_>
    <_>
      <rect>
        0 9 1 1</rect></_>
    <_>
      <rect>
        0 10 1 1</rect></_>
    <_>
      <rect>
        0 10 4 3</rect></_>
    <_>
      <rect>
        1 0 5 4</rect></_>
    <_>
      <rect>
        1 1 3 3</rect></_>
    <_>
      <rect>
        1 2 5 6</rect></_>
    <_>
      <rect>
        1 5 4 5</rect></_>
    <_>
      <rect>
        1 6 3 4</rect></_>
    <_>
      <rect>
        1 6 6 3</rect></_>
    <_>
      <rect>
        1 7 3 3</rect></_>
    <_>
      <rect>
        1 8 4 3</rect></_>
    <_>
      <rect>
        1 8 4 4</rect></_>
    <_>
      <rect>
        2 0 6 6</rect></_>
    <_>
      <rect>
        2 2 3 2</rect></_>
    <_>
      <rect>
        2 2 3 6</rect></_>
    <_>
      <rect>
        2 2 6 6</rect></_>
    <_>
      <rect>
        2 3 5 5</rect></_>
    <_>
      <rect>
        2 6 2 1</rect></_>
    <_>
      <rect>
        2 6 2 3</rect></_>
    <_>
      <rect>
        2 7 4 2</rect></_>
    <_>
      <rect>
        2 7 6 4</rect></_>
    <_>
      <rect>
        2 8 3 2</rect></_>
    <_>
      <rect>
        2 11 6 3</rect></_>
    <_>
      <rect>
        3 0 5 3</rect></_>
    <_>
      <rect>
        3 6 3 3</rect></_>
    <_>
      <rect>
        3 6 5 3</rect></_>
    <_>
      <rect>
        3 7 1 2</rect></_>
    <_>
      <rect>
        3 8 3 2</rect></_>
    <_>
      <rect>
        3 8 4 2</rect></_>
    <_>
      <rect>
        3 9 2 2</rect></_>
    <_>
      <rect>
        3 10 2 1</rect></_>
    <_>
      <rect>
        3 10 3 2</rect></_>
    <_>
      <rect>
        4 0 4 2</rect></_>
    <_>
      <rect>
        4 1 5 5</rect></_>
    <_>
      <rect>
        4 2 4 4</rect></_>
    <_>
      <rect>
        4 2 5 6</rect></_>
    <_>
      <rect>
        4 3 4 3</rect></_>
    <_>
      <rect>
        4 3 5 5</rect></_>
    <_>
      <rect>
        4 4 3 3</rect></_>
    <_>
      <rect>
        4 6 2 1</rect></_>
    <_>
      <rect>
        4 6 3 2</rect></_>
    <_>
      <rect>
        4 8 2 2</rect></_>
    <_>
      <rect>
        4 8 4 2</rect></_>
    <_>
      <rect>
        4 9 1 1</rect></_>
    <_>
      <rect>
        4 9 4 1</rect></_>
    <_>
      <rect>
        4 10 4 1</rect></_>
    <_>
      <rect>
        5 0 5 3</rect></_>
    <_>
      <rect>
        5 0 5 6</rect></_>
    <_>
      <rect>
        5 2 5 4</rect></_>
    <_>
      <rect>
        5 3 5 3</rect></_>
    <_>
      <rect>
        5 5 3 3</rect></_>
    <_>
      <rect>
        5 6 2 2</rect></_>
    <_>
      <rect>
        5 7 2 1</rect></_>
    <_>
      <rect>
        5 7 3 2</rect></_>
    <_>
      <rect>
        5 7 4 2</rect></_>
    <_>
      <rect>
        5 8 3 2</rect></_>
    <_>
      <rect>
        5 8 4 2</rect></_>
    <_>
      <rect>
        5 8 5 4</rect></_>
    <_>
      <rect>
        5 9 1 1</rect></_>
    <_>
      <rect>
        5 9 2 1</rect></_>
    <_>
      <rect>
        5 9 2 2</rect></_>
    <_>
      <rect>
        5 9 3 1</rect></_>
    <_>
      <rect>
        5 9 4 2</rect></_>
    <_>
      <rect>
        5 11 5 3</rect></_>
    <_>
      <rect>
        6 5 3 3</rect></_>
    <_>
      <rect>
        6 6 2 3</rect></_>
    <_>
      <rect>
        6 6 3 1</rect></_>
    <_>
      <rect>
        6 6 3 2</rect></_>
    <_>
      <rect>
        6 7 2 3</rect></_>
    <_>
      <rect>
        6 7 3 1</rect></_>
    <_>
      <rect>
        6 7 3 3</rect></_>
    <_>
      <rect>
        6 8 1 1</rect></_>
    <_>
      <rect>
        6 8 2 1</rect></_>
    <_>
      <rect>
        6 8 2 2</rect></_>
    <_>
      <rect>
        6 9 1 1</rect></_>
    <_>
      <rect>
        6 10 1 1</rect></_>
    <_>
      <rect>
        6 10 3 2</rect></_>
    <_>
      <rect>
        6 11 1 1</rect></_>
    <_>
      <rect>
        6 12 1 1</rect></_>
    <_>
      <rect>
        7 3 3 2</rect></_>
    <_>
      <rect>
        7 5 2 1</rect></_>
    <_>
      <rect>
        7 6 2 1</rect></_>
    <_>
      <rect>
        7 6 2 3</rect></_>
    <_>
      <rect>
        7 6 3 2</rect></_>
    <_>
      <rect>
        7 7 1 1</rect></_>
    <_>
      <rect>
        7 7 2 2</rect></_>
    <_>
      <rect>
        7 7 3 3</rect></_>
    <_>
      <rect>
        7 8 2 1</rect></_>
    <_>
      <rect>
        7 8 2 3</rect></_>
    <_>
      <rect>
        7 9 1 1</rect></_>
    <_>
      <rect>
        7 9 1 2</rect></_>
    <_>
      <rect>
        7 10 1 1</rect></_>
    <_>
      <rect>
        7 10 3 2</rect></_>
    <_>
      <rect>
        7 11 2 1</rect></_>
    <_>
      <rect>
        8 0 3 5</rect></_>
    <_>
      <rect>
        8 0 4 3</rect></_>
    <_>
      <rect>
        8 0 4 5</rect></_>
    <_>
      <rect>
        8 1 4 6</rect></_>
    <_>
      <rect>
        8 5 2 3</rect></_>
    <_>
      <rect>
        8 5 4 5</rect></_>
    <_>
      <rect>
        8 6 2 1</rect></_>
    <_>
      <rect>
        8 6 2 2</rect></_>
    <_>
      <rect>
        8 6 3 1</rect></_>
    <_>
      <rect>
        8 7 1 1</rect></_>
    <_>
      <rect>
        8 7 2 1</rect></_>
    <_>
      <rect>
        8 7 2 2</rect></_>
    <_>
      <rect>
        8 7 3 2</rect></_>
    <_>
      <rect>
        8 8 2 2</rect></_>
    <_>
      <rect>
        8 9 3 2</rect></_>
    <_>
      <rect>
        8 10 1 1</rect></_>
    <_>
      <rect>
        8 10 2 2</rect></_>
    <_>
      <rect>
        8 10 3 2</rect></_>
    <_>
      <rect>
        8 11 2 1</rect></_>
    <_>
      <rect>
        8 11 4 3</rect></_>
    <_>
      <rect>
        9 0 1 1</rect></_>
    <_>
      <rect>
        9 4 1 1</rect></_>
    <_>
      <rect>
        9 4 2 2</rect></_>
    <_>
      <rect>
        9 5 2 1</rect></_>
    <_>
      <rect>
        9 5 2 3</rect></_>
    <_>
      <rect>
        9 6 1 1</rect></_>
    <_>
      <rect>
        9 6 2 2</rect></_>
    <_>
      <rect>
        9 7 1 1</rect></_>
    <_>
      <rect>
        9 7 2 1</rect></_>
    <_>
      <rect>
        9 7 2 2</rect></_>
    <_>
      <rect>
        9 8 2 2</rect></_>
    <_>
      <rect>
        9 8 3 2</rect></_>
    <_>
      <rect>
        9 9 1 1</rect></_>
    <_>
      <rect>
        9 9 3 2</rect></_>
    <_>
      <rect>
        9 10 1 1</rect></_>
    <_>
      <rect>
        9 11 1 1</rect></_>
    <_>
      <rect>
        9 11 2 1</rect></_>
    <_>
      <rect>
        10 4 2 2</rect></_>
    <_>
      <rect>
        10 6 1 1</rect></_>
    <_>
      <rect>
        10 6 2 2</rect></_>
    <_>
      <rect>
        10 7 1 1</rect></_>
    <_>
      <rect>
        10 7 3 2</rect></_>
    <_>
      <rect>
        10 7 3 3</rect></_>
    <_>
      <rect>
        10 8 1 1</rect></_>
    <_>
      <rect>
        10 8 2 2</rect></_>
    <_>
      <rect>
        10 8 3 2</rect></_>
    <_>
      <rect>
        10 10 2 1</rect></_>
    <_>
      <rect>
        10 11 2 1</rect></_>
    <_>
      <rect>
        10 12 1 1</rect></_>
    <_>
      <rect>
        10 12 2 1</rect></_>
    <_>
      <rect>
        11 0 3 3</rect></_>
    <_>
      <rect>
        11 0 3 4</rect></_>
    <_>
      <rect>
        11 5 2 2</rect></_>
    <_>
      <rect>
        11 6 1 1</rect></_>
    <_>
      <rect>
        11 6 1 2</rect></_>
    <_>
      <rect>
        11 6 2 2</rect></_>
    <_>
      <rect>
        11 7 1 1</rect></_>
    <_>
      <rect>
        11 7 2 2</rect></_>
    <_>
      <rect>
        11 8 1 1</rect></_>
    <_>
      <rect>
        11 8 2 2</rect></_>
    <_>
      <rect>
        11 9 1 1</rect></_>
    <_>
      <rect>
        11 10 1 1</rect></_>
    <_>
      <rect>
        11 12 2 1</rect></_>
    <_>
      <rect>
        12 5 2 2</rect></_>
    <_>
      <rect>
        12 6 1 1</rect></_>
    <_>
      <rect>
        12 7 1 1</rect></_>
    <_>
      <rect>
        12 7 1 2</rect></_>
    <_>
      <rect>
        12 7 2 4</rect></_>
    <_>
      <rect>
        12 8 1 1</rect></_>
    <_>
      <rect>
        12 9 1 1</rect></_>
    <_>
      <rect>
        12 9 1 2</rect></_>
    <_>
      <rect>
        12 10 1 1</rect></_>
    <_>
      <rect>
        12 13 1 1</rect></_>
    <_>
      <rect>
        13 8 1 1</rect></_>
    <_>
      <rect>
        13 8 2 4</rect></_>
    <_>
      <rect>
        13 9 1 1</rect></_>
    <_>
      <rect>
        13 10 1 1</rect></_>
    <_>
      <rect>
        13 12 1 1</rect></_>
    <_>
      <rect>
        14 1 2 4</rect></_>
    <_>
      <rect>
        14 1 2 6</rect></_>
    <_>
      <rect>
        14 5 2 5</rect></_>
    <_>
      <rect>
        14 7 2 3</rect></_>
    <_>
      <rect>
        14 10 1 1</rect></_>
    <_>
      <rect>
        15 4 1 1</rect></_>
    <_>
      <rect>
        16 0 1 5</rect></_>
    <_>
      <rect>
        17 1 1 6</rect></_>
    <_>
      <rect>
        17 7 1 2</rect></_></features></cascade>
</opencv_storage>
