<?xml version="1.0"?>
<opencv_storage>
<stage0>
  <maxWeakCount>13</maxWeakCount>
  <stageThreshold>-1.1041374206542969e+000</stageThreshold>
  <weakClassifiers>
    <_>
      <internalNodes>
        0 -1 888 -297730356 -83842676 -536807720 -11011592 -1571509510
        -224151110 -218645509 -1073759233</internalNodes>
      <leafValues>
        -3.3533424139022827e-001 6.9188004732131958e-001</leafValues></_>
    <_>
      <internalNodes>
        0 -1 1309 -285221176 -862797180 -6175608 -854618584 -553665652
        -268453908 -620499511 -275776673</internalNodes>
      <leafValues>
        -3.5155171155929565e-001 4.2662864923477173e-001</leafValues></_>
    <_>
      <internalNodes>
        0 -1 1538 -8541444 -185138697 -51785000 825691129 -16930307
        -1434541825 -16794627 1073685501</internalNodes>
      <leafValues>
        -4.2534935474395752e-001 3.3503568172454834e-001</leafValues></_>
    <_>
      <internalNodes>
        0 -1 3675 -4751597 540344119 924351551 -1594851713 2137487675
        -65341530 -85984325 539030074</internalNodes>
      <leafValues>
        -3.7328588962554932e-001 3.1601539254188538e-001</leafValues></_>
    <_>
      <internalNodes>
        0 -1 182 -71942273 1882329998 1996359999 -1091421578 440871486
        807413567 1932738431 2122284671</internalNodes>
      <leafValues>
        -3.6574324965476990e-001 2.9854890704154968e-001</leafValues></_>
    <_>
      <internalNodes>
        0 -1 2752 -26542338 922943488 570426459 399573212 1241571534
        272966404 -1388270901 2134989895</internalNodes>
      <leafValues>
        -4.4341745972633362e-001 2.4069398641586304e-001</leafValues></_>
    <_>
      <internalNodes>
        0 -1 2599 1291913472 2138173150 1460119153 -1240776 -613285965
        2045881540 -74342405 -809465712</internalNodes>
      <leafValues>
        -3.9447608590126038e-001 2.6329287886619568e-001</leafValues></_>
    <_>
      <internalNodes>
        0 -1 1079 992684463 1926192573 119089144 720707322 637443807
        -1313870963 1123303532 576090624</internalNodes>
      <leafValues>
        -4.2056468129158020e-001 2.6009005308151245e-001</leafValues></_>
    <_>
      <internalNodes>
        0 -1 27 265023460 131963891 2012737005 -1140853256 126977999
        1068901024 1775173838 255852544</internalNodes>
      <leafValues>
        -5.0661391019821167e-001 2.0204506814479828e-001</leafValues></_>
    <_>
      <internalNodes>
        0 -1 3341 -68530980 -38335248 -1216201701 -1817116235 -83318082
        -1078014210 -1094975477 -1078243121</internalNodes>
      <leafValues>
        -3.2317963242530823e-001 3.2592168450355530e-001</leafValues></_>
    <_>
      <internalNodes>
        0 -1 176 1481832279 -1539030430 1009122879 -1454376994 946961273
        589338463 90692 1075858211</internalNodes>
      <leafValues>
        -4.6152523159980774e-001 2.3359650373458862e-001</leafValues></_>
    <_>
      <internalNodes>
        0 -1 2939 -1089284458 -241121038 1209073884 358973490 1678829786
        1593985074 68319 -317719057</internalNodes>
      <leafValues>
        -3.1489324569702148e-001 3.2100591063499451e-001</leafValues></_>
    <_>
      <internalNodes>
        0 -1 428 -827634551 1064301870 1604837631 651907708 1116512495
        1147138023 104269010 12866700</internalNodes>
      <leafValues>
        -4.5244714617729187e-001 2.1588341891765594e-001</leafValues></_></weakClassifiers></stage0>
</opencv_storage>
