<?xml version="1.0"?>
<opencv_storage>
<stage9>
  <maxWeakCount>30</maxWeakCount>
  <stageThreshold>-9.3377089500427246e-001</stageThreshold>
  <weakClassifiers>
    <_>
      <internalNodes>
        0 -1 1876 1400049664 49986464 -1086517487 1975359644 -101008655
        -1796196029 -1552421763 -1648387913</internalNodes>
      <leafValues>
        -2.7678281068801880e-002 4.8256832361221313e-001</leafValues></_>
    <_>
      <internalNodes>
        0 -1 3180 -533281266 2043813123 -1329709441 1007158531
        -1313862052 -1145702419 -1579844994 -377437885</internalNodes>
      <leafValues>
        -2.5295269489288330e-001 2.4212631583213806e-001</leafValues></_>
    <_>
      <internalNodes>
        0 -1 1317 -91883555 -15257305 -2080320039 -1167855117 1876064728
        2130870101 -1195245637 -265221</internalNodes>
      <leafValues>
        -1.6083788871765137e-001 3.8219031691551208e-001</leafValues></_>
    <_>
      <internalNodes>
        0 -1 3610 246293936 -1280668059 -302028803 -1146474851 804194295
        1051347901 1203699937 -1884543568</internalNodes>
      <leafValues>
        -3.0032742023468018e-001 1.9146782159805298e-001</leafValues></_>
    <_>
      <internalNodes>
        0 -1 177 2069264255 1913038012 -570097710 -1039205142 2033483125
        1027738948 2085957645 556030970</internalNodes>
      <leafValues>
        -3.9577978849411011e-001 1.1808464676141739e-001</leafValues></_>
    <_>
      <internalNodes>
        0 -1 1934 -889206566 496256773 232609024 -1089621737 -604510262
        -1187021027 -851213909 -1190397669</internalNodes>
      <leafValues>
        -2.4021326005458832e-001 2.3365443944931030e-001</leafValues></_>
    <_>
      <internalNodes>
        0 -1 2512 -893197276 -1274500091 -1556224963 -1600067497
        1732985041 -26476643 361458185 -924588801</internalNodes>
      <leafValues>
        -2.5289830565452576e-001 2.1032941341400146e-001</leafValues></_>
    <_>
      <internalNodes>
        0 -1 991 1719924960 1457309437 -1547614647 120971364 -1055665237
        -1879748423 -7615704 -412679</internalNodes>
      <leafValues>
        -2.6241946220397949e-001 2.0382475852966309e-001</leafValues></_>
    <_>
      <internalNodes>
        0 -1 2283 63736884 280661435 -1888349767 -310221050 1148045709
        -1073890317 75303116 -1392573126</internalNodes>
      <leafValues>
        -2.6226925849914551e-001 2.0920385420322418e-001</leafValues></_>
    <_>
      <internalNodes>
        0 -1 3188 1074185038 466623583 -1905110153 -448770264
        -1339797156 1780532524 -386216962 -1057831933</internalNodes>
      <leafValues>
        -2.5886213779449463e-001 2.1008154749870300e-001</leafValues></_>
    <_>
      <internalNodes>
        0 -1 2970 -554907929 371376946 1525041533 -1926195454 335791316
        2138365429 -1206875174 -36003286</internalNodes>
      <leafValues>
        -1.8688762187957764e-001 2.8622099757194519e-001</leafValues></_>
    <_>
      <internalNodes>
        0 -1 1160 -201905750 -72120647 1235173877 2112600056 -70014019
        -1175019333 -239646671 16828557</internalNodes>
      <leafValues>
        -2.8987333178520203e-001 1.9329613447189331e-001</leafValues></_>
    <_>
      <internalNodes>
        0 -1 3476 -1901416522 -1131499180 -345514124 -34745164 444370839
        -1633114476 1846162801 -841685804</internalNodes>
      <leafValues>
        -2.5908726453781128e-001 2.0542947947978973e-001</leafValues></_>
    <_>
      <internalNodes>
        0 -1 145 -897659161 -834492785 -38616495 -1910267247 1307870293
        3523102 25260580 1713873059</internalNodes>
      <leafValues>
        -2.9679396748542786e-001 1.8732310831546783e-001</leafValues></_>
    <_>
      <internalNodes>
        0 -1 2946 1720436428 604302598 -809573670 -585980912 1745898109
        984500471 1243677916 -820006</internalNodes>
      <leafValues>
        -2.4258697032928467e-001 2.2709223628044128e-001</leafValues></_>
    <_>
      <internalNodes>
        0 -1 1381 -235578406 -229583285 -1663412513 -1036842913
        -1278507614 387776771 -1889608257 1334267115</internalNodes>
      <leafValues>
        -2.3293210566043854e-001 2.4484859406948090e-001</leafValues></_>
    <_>
      <internalNodes>
        0 -1 3186 -422098944 1500974351 519983723 -165509982 -319121900
        2140119607 1271692938 -2042435997</internalNodes>
      <leafValues>
        -2.4739490449428558e-001 2.3193925619125366e-001</leafValues></_>
    <_>
      <internalNodes>
        0 -1 1530 239182056 759751145 -1795036715 1933121620 687033009
        -961761575 -871343656 1940620184</internalNodes>
      <leafValues>
        -3.6467653512954712e-001 1.5096253156661987e-001</leafValues></_>
    <_>
      <internalNodes>
        0 -1 3636 1817708313 548570975 732756511 703179533 225613589
        -1130627721 -1447060742 -1411208694</internalNodes>
      <leafValues>
        -2.2650638222694397e-001 2.5277945399284363e-001</leafValues></_>
    <_>
      <internalNodes>
        0 -1 3719 261821661 163644635 -1051224623 770387235 -1648576508
        -862508529 -120369212 798959509</internalNodes>
      <leafValues>
        -2.9713591933250427e-001 1.9988171756267548e-001</leafValues></_>
    <_>
      <internalNodes>
        0 -1 2247 -632141564 1597394949 1053732920 -1155476781
        1359413720 -1173027388 1375803816 -1336712113</internalNodes>
      <leafValues>
        -3.0150398612022400e-001 1.8820734322071075e-001</leafValues></_>
    <_>
      <internalNodes>
        0 -1 1698 -696290085 2098327299 -1619916037 -1216114909
        -1342119496 -101704495 -1803227729 -270073976</internalNodes>
      <leafValues>
        -1.4350554347038269e-001 4.0154239535331726e-001</leafValues></_>
    <_>
      <internalNodes>
        0 -1 2926 -329255400 -406064461 1548763856 722029860 844162704
        753945348 -1419767126 -68294825</internalNodes>
      <leafValues>
        -2.5398507714271545e-001 2.2666776180267334e-001</leafValues></_>
    <_>
      <internalNodes>
        0 -1 3492 134743092 -1184476746 1790270993 -1112661875 145723343
        750300439 524157077 147588102</internalNodes>
      <leafValues>
        -4.2238256335258484e-001 1.3309207558631897e-001</leafValues></_>
    <_>
      <internalNodes>
        0 -1 2489 -1428455476 -865971146 491020417 1275179969 990953616
        2019827012 -1772517 413980368</internalNodes>
      <leafValues>
        -3.3324348926544189e-001 1.7809076607227325e-001</leafValues></_>
    <_>
      <internalNodes>
        0 -1 2790 -623214378 -743293209 814881406 -1741449694 1660911700
        324387985 -1976679566 -388497853</internalNodes>
      <leafValues>
        -2.6371812820434570e-001 2.1566140651702881e-001</leafValues></_>
    <_>
      <internalNodes>
        0 -1 2448 49253282 1510380521 -55316100 973758533 269563019
        488805120 1286659101 294539337</internalNodes>
      <leafValues>
        -3.5885691642761230e-001 1.5586113929748535e-001</leafValues></_>
    <_>
      <internalNodes>
        0 -1 2904 -355472094 205714854 -882185468 -873801304 -1824394647
        2133283103 -1912670608 -844044704</internalNodes>
      <leafValues>
        -2.3985588550567627e-001 2.4151787161827087e-001</leafValues></_>
    <_>
      <internalNodes>
        0 -1 1674 -2140500625 532039071 -1648977939 -1745615081
        1761539813 -300210701 1947333561 741303737</internalNodes>
      <leafValues>
        -2.5005665421485901e-001 2.3010787367820740e-001</leafValues></_>
    <_>
      <internalNodes>
        0 -1 841 -615521625 -16169012 799090301 -2101469719 -1430313716
        81929598 108333557 1159054617</internalNodes>
      <leafValues>
        -2.7606469392776489e-001 2.1282799541950226e-001</leafValues></_></weakClassifiers></stage9>
</opencv_storage>
