<?xml version="1.0"?>
<opencv_storage>
<stage8>
  <maxWeakCount>28</maxWeakCount>
  <stageThreshold>-8.4127134084701538e-001</stageThreshold>
  <weakClassifiers>
    <_>
      <internalNodes>
        0 -1 1507 2100383488 2138812086 1802238817 2105403620 -60109908
        -923224434 -8785931 -80229188</internalNodes>
      <leafValues>
        -7.7074453234672546e-002 5.0127500295639038e-001</leafValues></_>
    <_>
      <internalNodes>
        0 -1 587 -1829589250 -698191930 1648755302 -960044518
        -1086513989 -1691896518 -27612161 -105916485</internalNodes>
      <leafValues>
        -2.6284357905387878e-001 2.4959172308444977e-001</leafValues></_>
    <_>
      <internalNodes>
        0 -1 2469 -355467553 2134197777 -1041902445 1567741070
        2031730904 1792823568 -243171162 2035660735</internalNodes>
      <leafValues>
        -2.1881577372550964e-001 2.5988349318504333e-001</leafValues></_>
    <_>
      <internalNodes>
        0 -1 3317 -890310992 1978626034 1118179381 664975153 53094394
        1243382458 524289163 531852963</internalNodes>
      <leafValues>
        -3.3383405208587646e-001 1.6692963242530823e-001</leafValues></_>
    <_>
      <internalNodes>
        0 -1 2714 1392444720 679417658 167332344 -1564588639 -2136019268
        145724575 -284609552 582623225</internalNodes>
      <leafValues>
        -3.8773038983345032e-001 1.4203795790672302e-001</leafValues></_>
    <_>
      <internalNodes>
        0 -1 257 -312643745 -1139394241 -1818775459 981480604 1582776140
        1029848339 1762226339 2054650619</internalNodes>
      <leafValues>
        -2.8853464126586914e-001 1.9645196199417114e-001</leafValues></_>
    <_>
      <internalNodes>
        0 -1 2735 -810831446 923195344 697667826 320073976 1111662507
        1215567248 1218913021 1936716387</internalNodes>
      <leafValues>
        -3.4066957235336304e-001 1.5255829691886902e-001</leafValues></_>
    <_>
      <internalNodes>
        0 -1 3336 -1541757252 -6651212 -154167457 -62312 179982077
        -1356337225 213583085 -858167248</internalNodes>
      <leafValues>
        -2.6047220826148987e-001 2.0782507956027985e-001</leafValues></_>
    <_>
      <internalNodes>
        0 -1 3514 -1608809725 -1304543313 1027286975 -902114 -1866496492
        2054410117 -1108344994 -442328662</internalNodes>
      <leafValues>
        -2.2021502256393433e-001 2.6238217949867249e-001</leafValues></_>
    <_>
      <internalNodes>
        0 -1 1995 -1288187180 487806103 570429499 -1217418333 -794689398
        -176798574 1285296491 -1342185697</internalNodes>
      <leafValues>
        -1.9295872747898102e-001 2.8621307015419006e-001</leafValues></_>
    <_>
      <internalNodes>
        0 -1 3099 1957623712 1580800934 -1073326703 1955656317
        1469089750 1465005372 56050865 226492590</internalNodes>
      <leafValues>
        -3.5296013951301575e-001 1.5232534706592560e-001</leafValues></_>
    <_>
      <internalNodes>
        0 -1 2775 1649937924 1633812763 -1296367624 -1129838794
        -2072796843 -1859995371 -1211126038 -1598865910</internalNodes>
      <leafValues>
        -2.9215663671493530e-001 1.9427378475666046e-001</leafValues></_>
    <_>
      <internalNodes>
        0 -1 2501 -10761625 -2587316 -56364826 1494344354 -1136540090
        420684527 -2136654912 1503225327</internalNodes>
      <leafValues>
        -2.1533536911010742e-001 2.5666135549545288e-001</leafValues></_>
    <_>
      <internalNodes>
        0 -1 2988 -193270249 827514143 1719593214 829457602 -2047379548
        1053814582 -388977987 -35256453</internalNodes>
      <leafValues>
        -2.0257748663425446e-001 2.7320665121078491e-001</leafValues></_>
    <_>
      <internalNodes>
        0 -1 3468 -1456831433 -1343440064 -1208452621 -3213228 132863743
        785139431 1643053521 -861932291</internalNodes>
      <leafValues>
        -1.9655069708824158e-001 2.8372555971145630e-001</leafValues></_>
    <_>
      <internalNodes>
        0 -1 405 161949354 -1818368936 -1586014789 1944105713 114753738
        184287620 736510120 101990616</internalNodes>
      <leafValues>
        -4.9285954236984253e-001 1.0982695966959000e-001</leafValues></_>
    <_>
      <internalNodes>
        0 -1 3483 164336639 2121678238 -923757607 -990014560 1327412676
        -1654668166 1073620712 -1191202174</internalNodes>
      <leafValues>
        -2.1460488438606262e-001 2.6467433571815491e-001</leafValues></_>
    <_>
      <internalNodes>
        0 -1 2770 -553621822 -53234094 906515483 1292153665 -205368998
        689387319 -1736094949 730924036</internalNodes>
      <leafValues>
        -3.3330801129341125e-001 1.7728638648986816e-001</leafValues></_>
    <_>
      <internalNodes>
        0 -1 2220 -395575690 503133301 19075153 1495654733 -359065718
        -541059004 -1574290470 -611294438</internalNodes>
      <leafValues>
        -2.2919470071792603e-001 2.5618171691894531e-001</leafValues></_>
    <_>
      <internalNodes>
        0 -1 1993 -997272438 1222148439 1158253073 -1455178037
        -786106206 -1885155474 1290668140 -931287315</internalNodes>
      <leafValues>
        -2.8967419266700745e-001 2.0147927105426788e-001</leafValues></_>
    <_>
      <internalNodes>
        0 -1 3847 -1147414735 -1625739931 -1442233929 -478109289
        152998587 2047528120 1763704256 167813288</internalNodes>
      <leafValues>
        -2.9443305730819702e-001 2.1082967519760132e-001</leafValues></_>
    <_>
      <internalNodes>
        0 -1 3750 1251608381 -623826916 -292553731 1004364892 1012603133
        -1158735089 720808620 -1753039548</internalNodes>
      <leafValues>
        -2.4862229824066162e-001 2.3873473703861237e-001</leafValues></_>
    <_>
      <internalNodes>
        0 -1 2243 -2142368764 506744389 112853776 468969387 1549857237
        -376226003 -1194922561 -1997103441</internalNodes>
      <leafValues>
        -2.8766828775405884e-001 2.0490685105323792e-001</leafValues></_>
    <_>
      <internalNodes>
        0 -1 1618 -527088625 -1876501611 1652497465 1061044115
        -1050047527 2040088565 196434323 -1084752365</internalNodes>
      <leafValues>
        -2.1932286024093628e-001 2.6749962568283081e-001</leafValues></_>
    <_>
      <internalNodes>
        0 -1 17 -453333294 -289811248 1146800335 -588175480 1422164305
        -330275840 1077105461 1664098579</internalNodes>
      <leafValues>
        -3.6413982510566711e-001 1.5885424613952637e-001</leafValues></_>
    <_>
      <internalNodes>
        0 -1 3152 -557658416 1000046626 253890353 -1912534725
        -1233632065 2000815154 -838573492 96404839</internalNodes>
      <leafValues>
        -3.3542549610137939e-001 1.7204596102237701e-001</leafValues></_>
    <_>
      <internalNodes>
        0 -1 598 -148847156 1124167768 -1994358780 134369472 -936604694
        1092087181 1955727048 1468389104</internalNodes>
      <leafValues>
        -4.6842992305755615e-001 1.2611410021781921e-001</leafValues></_>
    <_>
      <internalNodes>
        0 -1 1377 -1934692852 858695732 -1391562432 167472918 600177082
        1237038254 646687780 1227302735</internalNodes>
      <leafValues>
        -3.4934297204017639e-001 1.6256910562515259e-001</leafValues></_></weakClassifiers></stage8>
</opencv_storage>
