<?xml version="1.0"?>
<opencv_storage>
<stage1>
  <maxWeakCount>13</maxWeakCount>
  <stageThreshold>-1.1584680080413818e+000</stageThreshold>
  <weakClassifiers>
    <_>
      <internalNodes>
        0 -1 196 -85001494 -540383358 1445002708 -138162150 -350168641
        -1685704257 -1817120005 -2100225</internalNodes>
      <leafValues>
        -2.2908720374107361e-001 6.7016905546188354e-001</leafValues></_>
    <_>
      <internalNodes>
        0 -1 1556 2861738 333152376 -485410215 1979685081 724613243
        2044905980 1225061327 -474230565</internalNodes>
      <leafValues>
        -3.2811641693115234e-001 3.9959481358528137e-001</leafValues></_>
    <_>
      <internalNodes>
        0 -1 3128 -341318 -18875880 -1892480769 128918629 1210089646
        -563606422 65759 -540062469</internalNodes>
      <leafValues>
        -3.1661689281463623e-001 3.7446725368499756e-001</leafValues></_>
    <_>
      <internalNodes>
        0 -1 257 -76071553 2135299515 -1722843265 1017124766 472189823
        962598767 1065334767 -277446657</internalNodes>
      <leafValues>
        -2.9318988323211670e-001 3.8461014628410339e-001</leafValues></_>
    <_>
      <internalNodes>
        0 -1 2967 -53819710 -639923742 252844801 -1626087390 1862813610
        2147424454 738329867 -608218101</internalNodes>
      <leafValues>
        -3.8969454169273376e-001 2.6753422617912292e-001</leafValues></_>
    <_>
      <internalNodes>
        0 -1 81 -957628205 -1426070313 -2133715879 -1739592878
        1683484673 -1961362082 4289264 1078157344</internalNodes>
      <leafValues>
        -3.8795742392539978e-001 2.7136790752410889e-001</leafValues></_>
    <_>
      <internalNodes>
        0 -1 1916 795865569 2097760320 824217625 288879300 793693336
        2075738240 2063793098 -72090673</internalNodes>
      <leafValues>
        -2.9798609018325806e-001 3.5609927773475647e-001</leafValues></_>
    <_>
      <internalNodes>
        0 -1 863 1909961468 1666687225 -1007642980 299866841 -1183340402
        49873608 1065006845 899625947</internalNodes>
      <leafValues>
        -4.2216008901596069e-001 2.2882230579853058e-001</leafValues></_>
    <_>
      <internalNodes>
        0 -1 2530 -62722306 -614924176 -63548449 -10625663 1814078088
        -1895757727 -639334005 -888810238</internalNodes>
      <leafValues>
        -3.2679232954978943e-001 3.1918340921401978e-001</leafValues></_>
    <_>
      <internalNodes>
        0 -1 2719 -888501334 889352864 1463107778 1921669298 412533439
        170003200 28819947 -623942817</internalNodes>
      <leafValues>
        -3.5653996467590332e-001 2.6172176003456116e-001</leafValues></_>
    <_>
      <internalNodes>
        0 -1 2484 2104491146 1899086884 1191538961 285463084 856731650
        2035876524 1397841995 2064075359</internalNodes>
      <leafValues>
        -3.6556354165077209e-001 2.4687962234020233e-001</leafValues></_>
    <_>
      <internalNodes>
        0 -1 3617 255798015 -2020820315 353187701 493990168 499464360
        -1683452980 27722432 205464604</internalNodes>
      <leafValues>
        -4.0093752741813660e-001 2.3216842114925385e-001</leafValues></_>
    <_>
      <internalNodes>
        0 -1 3329 -33681328 -1760784332 22168981 361971763 409478939
        1004865066 1207962315 792806447</internalNodes>
      <leafValues>
        -4.2450991272926331e-001 2.2784633934497833e-001</leafValues></_></weakClassifiers></stage1>
</opencv_storage>
