<?xml version="1.0"?>
<opencv_storage>
<stage7>
  <maxWeakCount>27</maxWeakCount>
  <stageThreshold>-8.0429208278656006e-001</stageThreshold>
  <weakClassifiers>
    <_>
      <internalNodes>
        0 -1 107 -1209092226 -606652945 -403654306 -4851461 570148971
        -685824463 -84151889 1073703935</internalNodes>
      <leafValues>
        -4.3503649532794952e-002 5.1575970649719238e-001</leafValues></_>
    <_>
      <internalNodes>
        0 -1 3152 -19870473 -268980301 151145767 -1086050557 -1161280017
        -536945930 1873432559 -288195201</internalNodes>
      <leafValues>
        -1.6915580630302429e-001 3.6755457520484924e-001</leafValues></_>
    <_>
      <internalNodes>
        0 -1 1999 -196059681 -9182015 -310340153 -1358991151 2098253048
        -83389680 -6230069 -878324460</internalNodes>
      <leafValues>
        -2.0911504328250885e-001 3.0345451831817627e-001</leafValues></_>
    <_>
      <internalNodes>
        0 -1 2605 -540016895 -67395873 -537403545 -588546867 -210774086
        -12730691 -570638418 -655846001</internalNodes>
      <leafValues>
        -2.0035751163959503e-001 3.2167178392410278e-001</leafValues></_>
    <_>
      <internalNodes>
        0 -1 3377 -900534452 -1143308467 -309184578 2133752122
        1618824268 -51977153 -324471046 -44904702</internalNodes>
      <leafValues>
        -2.5930029153823853e-001 2.2798247635364532e-001</leafValues></_>
    <_>
      <internalNodes>
        0 -1 1978 -297271569 -684206970 -198965217 185828559 807465914
        192611088 679518861 -560072725</internalNodes>
      <leafValues>
        -2.2397866845130920e-001 2.7039563655853271e-001</leafValues></_>
    <_>
      <internalNodes>
        0 -1 41 -822194313 -34410729 -1058378853 -720104486 1044462809
        -861046688 1199919269 1779459121</internalNodes>
      <leafValues>
        -2.8836643695831299e-001 2.1410147845745087e-001</leafValues></_>
    <_>
      <internalNodes>
        0 -1 3227 2075027235 1397253397 -1374865667 543191871 1731620278
        440047292 -92569654 536896256</internalNodes>
      <leafValues>
        -3.9828872680664063e-001 1.4212642610073090e-001</leafValues></_>
    <_>
      <internalNodes>
        0 -1 2934 116322086 243439506 -82638164 -1400716176 398919509
        452711156 1702773844 -1184540826</internalNodes>
      <leafValues>
        -3.4689974784851074e-001 1.6782872378826141e-001</leafValues></_>
    <_>
      <internalNodes>
        0 -1 2203 -1342702913 233139309 1495388319 1437710821 -69668152
        1810576193 -352093794 -33556706</internalNodes>
      <leafValues>
        -1.7475460469722748e-001 3.4924644231796265e-001</leafValues></_>
    <_>
      <internalNodes>
        0 -1 1011 -355608090 -2137256225 176240002 231513397 88014052
        1157305503 98130725 134181163</internalNodes>
      <leafValues>
        -3.5405692458152771e-001 1.6238397359848022e-001</leafValues></_>
    <_>
      <internalNodes>
        0 -1 3156 -1661046568 -841088880 1033041177 -2120237136
        2032953466 -784412584 1556093711 -1628713846</internalNodes>
      <leafValues>
        -2.7347615361213684e-001 2.1512064337730408e-001</leafValues></_>
    <_>
      <internalNodes>
        0 -1 1683 -777813436 1599163921 1041831473 -1625164267
        -1709128536 -132442208 -845343589 -583413999</internalNodes>
      <leafValues>
        -2.4197588860988617e-001 2.4621117115020752e-001</leafValues></_>
    <_>
      <internalNodes>
        0 -1 1576 1782839754 1090977872 -1222511015 830568276 -335772680
        -169292047 -20657909 -1017133736</internalNodes>
      <leafValues>
        -2.4107241630554199e-001 2.4782322347164154e-001</leafValues></_>
    <_>
      <internalNodes>
        0 -1 3944 -1882985487 -1997481129 -728527947 685286358 233831577
        -288205261 -2099847556 -2012023692</internalNodes>
      <leafValues>
        -2.4759018421173096e-001 2.4226067960262299e-001</leafValues></_>
    <_>
      <internalNodes>
        0 -1 1953 -318800353 840923039 -1094717509 859766677 2034834572
        1536323237 -582616582 -56887569</internalNodes>
      <leafValues>
        -1.6365928947925568e-001 3.5125851631164551e-001</leafValues></_>
    <_>
      <internalNodes>
        0 -1 261 1029641047 131481023 1643516398 950026008 1095120759
        393500713 1732382522 1030126510</internalNodes>
      <leafValues>
        -3.6124011874198914e-001 1.5834945440292358e-001</leafValues></_>
    <_>
      <internalNodes>
        0 -1 2779 -96276770 523358242 1703192058 -49253630 -187649638
        420370309 -207557686 -1115032305</internalNodes>
      <leafValues>
        -2.4605177342891693e-001 2.4482400715351105e-001</leafValues></_>
    <_>
      <internalNodes>
        0 -1 2033 707227583 143281469 -1421907075 567769693 619530256
        1033573251 783634096 257254464</internalNodes>
      <leafValues>
        -3.4541317820549011e-001 1.8485744297504425e-001</leafValues></_>
    <_>
      <internalNodes>
        0 -1 2295 1084290084 539112748 -1228235523 430486452 346653113
        1273490111 -834699012 -1392546656</internalNodes>
      <leafValues>
        -3.0495935678482056e-001 1.9587428867816925e-001</leafValues></_>
    <_>
      <internalNodes>
        0 -1 2950 1846178210 170005616 1274355872 -2069860192 101002223
        83915906 88409333 1216833655</internalNodes>
      <leafValues>
        -4.6149039268493652e-001 1.4648936688899994e-001</leafValues></_>
    <_>
      <internalNodes>
        0 -1 3477 -67084940 -20438703 -628696067 -810213260 98311659
        -1695954487 210246862 262556854</internalNodes>
      <leafValues>
        -3.8039773702621460e-001 1.6671763360500336e-001</leafValues></_>
    <_>
      <internalNodes>
        0 -1 1468 -1692882965 1940956117 496487611 -383299879 -6321485
        -1108483133 -555234343 1153847945</internalNodes>
      <leafValues>
        -2.4944816529750824e-001 2.4620498716831207e-001</leafValues></_>
    <_>
      <internalNodes>
        0 -1 3171 652398222 -115700662 -99080963 791706371 169882973
        745548151 1229595452 989872546</internalNodes>
      <leafValues>
        -3.6962372064590454e-001 1.6898779571056366e-001</leafValues></_>
    <_>
      <internalNodes>
        0 -1 2484 509541900 922993440 1361398353 -249184150 1986584810
        -246722289 -779019947 1493297411</internalNodes>
      <leafValues>
        -3.1795492768287659e-001 1.9536864757537842e-001</leafValues></_>
    <_>
      <internalNodes>
        0 -1 2523 -1854012395 438210369 402169786 1059236622 -1070323884
        -1137736833 -1144650371 -1459624072</internalNodes>
      <leafValues>
        -2.4531896412372589e-001 2.4525797367095947e-001</leafValues></_>
    <_>
      <internalNodes>
        0 -1 2414 -217698144 1081844518 -1187565636 1368958604
        2104287219 1062865647 587038602 439878921</internalNodes>
      <leafValues>
        -3.8168624043464661e-001 1.5783695876598358e-001</leafValues></_></weakClassifiers></stage7>
</opencv_storage>
