<?xml version="1.0"?>
<opencv_storage>
<stage3>
  <maxWeakCount>21</maxWeakCount>
  <stageThreshold>-8.0580121278762817e-001</stageThreshold>
  <weakClassifiers>
    <_>
      <internalNodes>
        0 -1 791 1934097356 -147329049 -8650755 -67371777 -809763857
        -118297459 -17830177 -1564497157</internalNodes>
      <leafValues>
        -3.0573248863220215e-002 6.2936097383499146e-001</leafValues></_>
    <_>
      <internalNodes>
        0 -1 638 -151596062 -221061742 682234282 -1440704802 -473466222
        -84467049 -1074831478 -5537857</internalNodes>
      <leafValues>
        -3.4994986653327942e-001 2.9657036066055298e-001</leafValues></_>
    <_>
      <internalNodes>
        0 -1 1982 -146278913 -13371437 16782815 -1357685325 -250569478
        472986373 -603960097 -844771045</internalNodes>
      <leafValues>
        -2.1871083974838257e-001 4.0719819068908691e-001</leafValues></_>
    <_>
      <internalNodes>
        0 -1 3317 -537137232 -67260801 1219380248 -1212156903 260703678
        2074029215 256837770 -1880365073</internalNodes>
      <leafValues>
        -2.7350389957427979e-001 3.2253703474998474e-001</leafValues></_>
    <_>
      <internalNodes>
        0 -1 200 -59284105 2019654514 2132033495 1540620283 1484217957
        -815374473 -780839088 -45648571</internalNodes>
      <leafValues>
        -2.7542361617088318e-001 3.1418696045875549e-001</leafValues></_>
    <_>
      <internalNodes>
        0 -1 2603 -142645485 2012946207 -79831201 -1080247377 -227887617
        -1229053954 -21081269 586510</internalNodes>
      <leafValues>
        -2.9630810022354126e-001 2.6453623175621033e-001</leafValues></_>
    <_>
      <internalNodes>
        0 -1 2235 -616313873 1394618640 540102776 1896052562 1778923451
        2000952640 176251131 -72629469</internalNodes>
      <leafValues>
        -2.5225418806076050e-001 3.1419813632965088e-001</leafValues></_>
    <_>
      <internalNodes>
        0 -1 3145 -17964 234824126 496072088 -587363694 -260311040
        2070864860 531304011 -13222</internalNodes>
      <leafValues>
        -2.8154823184013367e-001 2.8923508524894714e-001</leafValues></_>
    <_>
      <internalNodes>
        0 -1 93 -340793398 52421552 -271100417 -41946207 1091498873
        341156721 565702739 1729315073</internalNodes>
      <leafValues>
        -3.3520093560218811e-001 2.3334488272666931e-001</leafValues></_>
    <_>
      <internalNodes>
        0 -1 1958 -283116033 -1086377883 -2060117839 1568916311
        1828844238 2138968580 -150983798 -2495793</internalNodes>
      <leafValues>
        -1.6889528930187225e-001 4.4118928909301758e-001</leafValues></_>
    <_>
      <internalNodes>
        0 -1 299 321858427 2060590254 1040064318 939532014 474165545
        1914732388 426710527 1383364974</internalNodes>
      <leafValues>
        -4.0981048345565796e-001 1.9903022050857544e-001</leafValues></_>
    <_>
      <internalNodes>
        0 -1 3348 170397205 2103970300 2005947901 -269462508 49152957
        -319131969 149095677 -319406064</internalNodes>
      <leafValues>
        -3.3670455217361450e-001 2.3710080981254578e-001</leafValues></_>
    <_>
      <internalNodes>
        0 -1 2720 2133783274 456165074 16802880 29443046 1309688778
        1988778068 1644522575 1938707530</internalNodes>
      <leafValues>
        -3.8773617148399353e-001 2.0772090554237366e-001</leafValues></_>
    <_>
      <internalNodes>
        0 -1 1988 700165054 570656229 712485054 -1630022217 990377980
        2012888853 737856220 318724496</internalNodes>
      <leafValues>
        -3.8418224453926086e-001 2.1074779331684113e-001</leafValues></_>
    <_>
      <internalNodes>
        0 -1 1623 -434914334 1528508452 1939038872 990923989 1644355993
        1452363921 -2088699153 -1155793671</internalNodes>
      <leafValues>
        -3.0471235513687134e-001 2.5039741396903992e-001</leafValues></_>
    <_>
      <internalNodes>
        0 -1 2719 1588566958 67298210 -1810500912 547942642 290067180
        120436932 5068012 -848366503</internalNodes>
      <leafValues>
        -3.4939184784889221e-001 2.3072950541973114e-001</leafValues></_>
    <_>
      <internalNodes>
        0 -1 3147 -1437929537 -1758954544 -541170947 -1208611248
        101959412 -311921085 1026803948 -138196941</internalNodes>
      <leafValues>
        -2.6071846485137939e-001 3.1779557466506958e-001</leafValues></_>
    <_>
      <internalNodes>
        0 -1 3492 272370705 -1103722532 -273088641 -1078062986 630099413
        -1342788098 246383745 -272722806</internalNodes>
      <leafValues>
        -2.6624816656112671e-001 2.9028263688087463e-001</leafValues></_>
    <_>
      <internalNodes>
        0 -1 2538 -795157498 -73707201 562059514 -1248785866 -469441920
        1325663175 753781946 -1198403797</internalNodes>
      <leafValues>
        -2.5716075301170349e-001 2.9316568374633789e-001</leafValues></_>
    <_>
      <internalNodes>
        0 -1 2259 1693092868 362059947 -1334536392 707964429 -1790999028
        -2003585735 -622149880 -1465663729</internalNodes>
      <leafValues>
        -3.6756709218025208e-001 2.0962344110012054e-001</leafValues></_>
    <_>
      <internalNodes>
        0 -1 1851 2122046339 -66867986 2020864405 1566033921 -17731908
        -576674069 -201331355 -656827203</internalNodes>
      <leafValues>
        -2.1882224082946777e-001 3.6632528901100159e-001</leafValues></_></weakClassifiers></stage3>
</opencv_storage>
